booster[0]:
0:[SkimBToKEE_D0_mass_LepToK_KToPi<1.80933332] yes=1,no=2,missing=2
	1:[SkimBToKEE_fit_l2_pt_over_mass<1.021456] yes=3,no=4,missing=4
		3:[SkimBToKEE_b_iso04<5.85888672] yes=7,no=8,missing=8
			7:[SkimBToKEE_svprob<0.00820847508] yes=15,no=16,missing=16
				15:[SkimBToKEE_fit_l2_pt_over_mass<0.889052808] yes=31,no=32,missing=32
					31:leaf=-0.0500000007
					32:leaf=0.010610153
				16:[SkimBToKEE_l1_PFMvaID_retrained<-1.43798757] yes=33,no=34,missing=34
					33:leaf=-0.0148048317
					34:leaf=0.0500000007
			8:[SkimBToKEE_l1_iso04<7.54492188] yes=17,no=18,missing=18
				17:[SkimBToKEE_fit_l2_pt_over_mass<0.558296502] yes=35,no=36,missing=36
					35:leaf=-0.0500000007
					36:[SkimBToKEE_l1l2Dr<0.255473226] yes=63,no=64,missing=64
						63:leaf=-0.0247129872
						64:leaf=0.0500000007
				18:[SkimBToKEE_fit_l2_pt_over_mass<0.997260273] yes=37,no=38,missing=38
					37:leaf=-0.0500000007
					38:[SkimBToKEE_fit_l1_pt<18.2800293] yes=65,no=66,missing=66
						65:[SkimBToKEE_b_iso04<27.9726562] yes=107,no=108,missing=108
							107:[SkimBToKEE_l1_PFMvaID_Fall17<-3.8552947] yes=185,no=186,missing=186
								185:leaf=-0.0158778038
								186:leaf=0.0500000007
							108:leaf=-0.0262076352
						66:[SkimBToKEE_l1l2Dr<0.214695498] yes=109,no=110,missing=110
							109:leaf=-0.0500000007
							110:leaf=0.0222274959
		4:[SkimBToKEE_l1l2Dr<0.14616397] yes=9,no=10,missing=10
			9:[SkimBToKEE_fit_k_pt<2.31748819] yes=19,no=20,missing=20
				19:[SkimBToKEE_fit_l2_pt_over_mass<3.77802134] yes=39,no=40,missing=40
					39:leaf=-0.0500000007
					40:[SkimBToKEE_k_svip3d_sig<8.87829494] yes=67,no=68,missing=68
						67:[SkimBToKEE_l1l2Dr<0.0883648694] yes=111,no=112,missing=112
							111:leaf=-0.036223717
							112:[SkimBToKEE_l1_PFMvaID_Fall17<-1.53736174] yes=187,no=188,missing=188
								187:leaf=-0.00426646043
								188:leaf=0.0500000007
						68:[SkimBToKEE_l1_iso04<15.1938477] yes=113,no=114,missing=114
							113:leaf=0.0151281646
							114:[SkimBToKEE_l1_PFMvaID_Fall17<4.75387573] yes=189,no=190,missing=190
								189:leaf=-0.0500000007
								190:leaf=0.0050961338
				20:[SkimBToKEE_l2_PFMvaID_retrained<-2.59542346] yes=41,no=42,missing=42
					41:[SkimBToKEE_fit_l2_pt_over_mass<1.6688081] yes=69,no=70,missing=70
						69:leaf=-0.0500000007
						70:leaf=0.0148194162
					42:leaf=0.0500000007
			10:[SkimBToKEE_fit_l1_pt_over_mass<0.566262126] yes=21,no=22,missing=22
				21:[SkimBToKEE_k_svip3d_sig<5.00831604] yes=43,no=44,missing=44
					43:leaf=0.0100852074
					44:leaf=-0.0500000007
				22:[SkimBToKEE_l1_PFMvaID_retrained<-5.31248569] yes=45,no=46,missing=46
					45:[SkimBToKEE_fit_l1_pt<16.5803566] yes=71,no=72,missing=72
						71:[SkimBToKEE_b_iso04_dca<10.5146484] yes=115,no=116,missing=116
							115:[SkimBToKEE_l_xy_sig<41.9676323] yes=191,no=192,missing=192
								191:leaf=0.0500000007
								192:leaf=0.00144412648
							116:leaf=-0.029592637
						72:[SkimBToKEE_fit_l2_pt_over_mass<1.80282545] yes=117,no=118,missing=118
							117:leaf=-0.0500000007
							118:leaf=0.0188262686
					46:[SkimBToKEE_fit_k_pt_over_mass<0.0913999081] yes=73,no=74,missing=74
						73:[SkimBToKEE_l1l2Dr<0.219192833] yes=119,no=120,missing=120
							119:leaf=-0.0500000007
							120:[SkimBToKEE_fit_l1_pt<6.07647991] yes=193,no=194,missing=194
								193:leaf=-0.0160599183
								194:leaf=0.0500000007
						74:[SkimBToKEE_l2_PFMvaID_retrained<-5.62756538] yes=121,no=122,missing=122
							121:[SkimBToKEE_fit_l2_pt_over_mass<1.6091361] yes=195,no=196,missing=196
								195:leaf=-0.0500000007
								196:[SkimBToKEE_b_iso04<34.3735352] yes=283,no=284,missing=284
									283:leaf=0.0497253276
									284:leaf=-0.00261315005
							122:[SkimBToKEE_l1_iso04_dca<36.0595703] yes=197,no=198,missing=198
								197:[SkimBToKEE_lKDz<1.59960938] yes=285,no=286,missing=286
									285:[SkimBToKEE_fit_cos2D<-0.999998808] yes=375,no=376,missing=376
										375:leaf=0.00518140197
										376:leaf=0.0500000007
									286:[SkimBToKEE_b_iso04<30.0834961] yes=377,no=378,missing=378
										377:leaf=0.0263189264
										378:leaf=-0.038135875
								198:[SkimBToKEE_fit_l1_pt_over_mass<3.40945768] yes=287,no=288,missing=288
									287:leaf=0.0407378338
									288:leaf=-0.0500000007
	2:[SkimBToKEE_fit_k_pt<3.61699557] yes=5,no=6,missing=6
		5:[SkimBToKEE_l2_PFMvaID_retrained<3.24334812] yes=11,no=12,missing=12
			11:[SkimBToKEE_fit_k_pt<2.87883663] yes=23,no=24,missing=24
				23:[SkimBToKEE_fit_l2_pt_over_mass<2.93420887] yes=47,no=48,missing=48
					47:[SkimBToKEE_fit_k_pt_over_mass<0.494283974] yes=75,no=76,missing=76
						75:[SkimBToKEE_fit_l2_pt_over_mass<2.72723293] yes=123,no=124,missing=124
							123:leaf=-0.0500000007
							124:[SkimBToKEE_D0_mass_LepToK_KToPi<2.58752823] yes=199,no=200,missing=200
								199:[SkimBToKEE_l1l2Dr<0.144806221] yes=289,no=290,missing=290
									289:[SkimBToKEE_fit_k_pt<1.59025919] yes=379,no=380,missing=380
										379:leaf=-0.0500000007
										380:leaf=0.00505303172
									290:[SkimBToKEE_svprob<1.1832986e-38] yes=381,no=382,missing=382
										381:leaf=-0.0145691484
										382:leaf=0.0500000007
								200:[SkimBToKEE_l1l2Dr<0.207693741] yes=291,no=292,missing=292
									291:[SkimBToKEE_b_iso04<8.14550781] yes=383,no=384,missing=384
										383:leaf=0.0107884118
										384:leaf=-0.0500000007
									292:[SkimBToKEE_D0_mass_LepToPi_KToK<4.09853411] yes=385,no=386,missing=386
										385:leaf=0.0500000007
										386:leaf=-0.0500000007
						76:[SkimBToKEE_l2_PFMvaID_retrained<-1.47782731] yes=125,no=126,missing=126
							125:[SkimBToKEE_fit_cos2D<0.999778271] yes=201,no=202,missing=202
								201:[SkimBToKEE_fit_k_pt<2.70695329] yes=293,no=294,missing=294
									293:leaf=0.0500000007
									294:[SkimBToKEE_l1_PFMvaID_retrained<3.17192101] yes=387,no=388,missing=388
										387:leaf=-0.0500000007
										388:leaf=0.00773728965
								202:[SkimBToKEE_k_svip3d_sig<4.14190197] yes=295,no=296,missing=296
									295:[SkimBToKEE_l_xy_sig<2.22448206] yes=389,no=390,missing=390
										389:leaf=-0.0429323018
										390:leaf=0.0500000007
									296:leaf=-0.0500000007
							126:[SkimBToKEE_k_svip3d_sig<6.00072813] yes=203,no=204,missing=204
								203:[SkimBToKEE_l1_PFMvaID_retrained<-4.03407621] yes=297,no=298,missing=298
									297:[SkimBToKEE_l_xy_sig<19.4579868] yes=391,no=392,missing=392
										391:leaf=-0.0500000007
										392:leaf=0.0317625031
									298:[SkimBToKEE_fit_l2_pt_over_mass<0.708318591] yes=393,no=394,missing=394
										393:leaf=-0.0488310456
										394:leaf=0.0500000007
								204:[SkimBToKEE_fit_l2_pt_over_mass<1.80282545] yes=299,no=300,missing=300
									299:[SkimBToKEE_D0_mass_LepToK_KToPi<2.25933003] yes=395,no=396,missing=396
										395:leaf=0.00255796942
										396:leaf=-0.0500000007
									300:[SkimBToKEE_D0_mass_LepToK_KToPi<3.00883293] yes=397,no=398,missing=398
										397:leaf=0.0500000007
										398:leaf=-0.0416665003
					48:[SkimBToKEE_l1l2Dr<0.159349933] yes=77,no=78,missing=78
						77:[SkimBToKEE_fit_k_pt_over_mass<0.368181407] yes=127,no=128,missing=128
							127:[SkimBToKEE_l1_iso04<8.83203125] yes=205,no=206,missing=206
								205:[SkimBToKEE_l1_PFMvaID_retrained<-0.929260433] yes=301,no=302,missing=302
									301:leaf=-0.0500000007
									302:[SkimBToKEE_svprob<1.1832986e-38] yes=399,no=400,missing=400
										399:leaf=-0.0217492189
										400:leaf=0.0500000007
								206:[SkimBToKEE_fit_cos2D<0.99999553] yes=303,no=304,missing=304
									303:[SkimBToKEE_l2_iso04<6.18505859] yes=401,no=402,missing=402
										401:leaf=0.0175240468
										402:leaf=-0.0500000007
									304:[SkimBToKEE_svprob<3.91298017e-05] yes=403,no=404,missing=404
										403:leaf=-0.0500000007
										404:leaf=0.0500000007
							128:[SkimBToKEE_k_svip3d_sig<5.14310074] yes=207,no=208,missing=208
								207:[SkimBToKEE_l1_PFMvaID_retrained<-2.71480727] yes=305,no=306,missing=306
									305:[SkimBToKEE_D0_mass_LepToK_KToPi<2.71382809] yes=405,no=406,missing=406
										405:leaf=0.00449569058
										406:leaf=-0.0500000007
									306:[SkimBToKEE_fit_cos2D<0.952508569] yes=407,no=408,missing=408
										407:leaf=-0.0260753389
										408:leaf=0.0500000007
								208:leaf=-0.0500000007
						78:[SkimBToKEE_lKDz<0.497314453] yes=129,no=130,missing=130
							129:[SkimBToKEE_D0_mass_LepToK_KToPi<3.47497654] yes=209,no=210,missing=210
								209:[SkimBToKEE_l1_PFMvaID_retrained<-5.67514038] yes=307,no=308,missing=308
									307:leaf=-0.0290280376
									308:leaf=0.0500000007
								210:[SkimBToKEE_fit_k_phi<-2.80973887] yes=309,no=310,missing=310
									309:leaf=0.0114319148
									310:leaf=-0.0500000007
							130:[SkimBToKEE_fit_cos2D<0.999728858] yes=211,no=212,missing=212
								211:[SkimBToKEE_fit_l1_pt<13.077322] yes=311,no=312,missing=312
									311:[SkimBToKEE_l_xy_sig<6.93824244] yes=409,no=410,missing=410
										409:leaf=0.0110107632
										410:leaf=-0.0500000007
									312:leaf=0.0420537516
								212:[SkimBToKEE_lKDz<0.990234375] yes=313,no=314,missing=314
									313:[SkimBToKEE_l2_iso04_dca<10.3842773] yes=411,no=412,missing=412
										411:leaf=0.0500000007
										412:leaf=-0.0127141466
									314:leaf=-0.0383738503
				24:[SkimBToKEE_fit_cos2D<0.998789668] yes=49,no=50,missing=50
					49:[SkimBToKEE_fit_k_pt_over_mass<0.67496264] yes=79,no=80,missing=80
						79:[SkimBToKEE_fit_l2_pt_over_mass<2.15137458] yes=131,no=132,missing=132
							131:[SkimBToKEE_b_iso04<6.640625] yes=213,no=214,missing=214
								213:[SkimBToKEE_fit_l2_pt_over_mass<1.22512388] yes=315,no=316,missing=316
									315:[SkimBToKEE_fit_cos2D<0.989796519] yes=413,no=414,missing=414
										413:leaf=-0.0500000007
										414:leaf=0.0170818847
									316:[SkimBToKEE_l1_PFMvaID_retrained<-1.73156679] yes=415,no=416,missing=416
										415:leaf=-0.0500000007
										416:leaf=0.0500000007
								214:[SkimBToKEE_b_iso04<8.39892578] yes=317,no=318,missing=318
									317:[SkimBToKEE_D0_mass_LepToK_KToPi<2.96280575] yes=417,no=418,missing=418
										417:leaf=0.0500000007
										418:leaf=-0.0500000007
									318:leaf=-0.0500000007
							132:[SkimBToKEE_l1l2Dr<0.19558841] yes=215,no=216,missing=216
								215:[SkimBToKEE_b_iso04<11.0771484] yes=319,no=320,missing=320
									319:[SkimBToKEE_fit_cos2D<0.955624759] yes=419,no=420,missing=420
										419:leaf=-0.0197242126
										420:leaf=0.0500000007
									320:[SkimBToKEE_D0_mass_LepToPi_KToK<2.47044253] yes=421,no=422,missing=422
										421:leaf=0.00962335616
										422:leaf=-0.0500000007
								216:[SkimBToKEE_lKDz<0.241252422] yes=321,no=322,missing=322
									321:leaf=0.0500000007
									322:leaf=-0.0500000007
						80:leaf=0.0500000007
					50:[SkimBToKEE_svprob<3.81248924e-07] yes=81,no=82,missing=82
						81:[SkimBToKEE_l2_PFMvaID_retrained<2.0295577] yes=133,no=134,missing=134
							133:[SkimBToKEE_l1_iso04<4.78271484] yes=217,no=218,missing=218
								217:leaf=0.0148973437
								218:leaf=-0.0500000007
							134:[SkimBToKEE_D0_mass_LepToK_KToPi<3.30424857] yes=219,no=220,missing=220
								219:[SkimBToKEE_k_svip3d_sig<35.6574287] yes=323,no=324,missing=324
									323:leaf=0.0500000007
									324:leaf=-0.00948404241
								220:[SkimBToKEE_k_svip3d_sig<8.87829494] yes=325,no=326,missing=326
									325:leaf=0.00613997458
									326:leaf=-0.0500000007
						82:[SkimBToKEE_l2_PFMvaID_retrained<-3.51320529] yes=135,no=136,missing=136
							135:[SkimBToKEE_l_xy_sig<7.81391859] yes=221,no=222,missing=222
								221:leaf=-0.0500000007
								222:[SkimBToKEE_l1_PFMvaID_retrained<-3.73624945] yes=327,no=328,missing=328
									327:leaf=-0.0500000007
									328:leaf=0.0500000007
							136:[SkimBToKEE_fit_l2_pt_over_mass<0.64487505] yes=223,no=224,missing=224
								223:[SkimBToKEE_b_iso04_dca<0.708984375] yes=329,no=330,missing=330
									329:leaf=0.0213342067
									330:[SkimBToKEE_l1_PFMvaID_retrained<1.17178619] yes=423,no=424,missing=424
										423:leaf=-0.0500000007
										424:leaf=0.0162091721
								224:[SkimBToKEE_l1_PFMvaID_retrained<-4.6665678] yes=331,no=332,missing=332
									331:[SkimBToKEE_b_iso04_dca<4.13134766] yes=425,no=426,missing=426
										425:leaf=0.0209587589
										426:leaf=-0.0500000007
									332:[SkimBToKEE_D0_mass_LepToK_KToPi<4.36708927] yes=427,no=428,missing=428
										427:leaf=0.0500000007
										428:leaf=-0.0355314314
			12:[SkimBToKEE_svprob<0.00382603402] yes=25,no=26,missing=26
				25:[SkimBToKEE_D0_mass_LepToPi_KToK<2.92737365] yes=51,no=52,missing=52
					51:[SkimBToKEE_fit_l2_pt_over_mass<1.6688081] yes=83,no=84,missing=84
						83:[SkimBToKEE_l1l2Dr<0.367648333] yes=137,no=138,missing=138
							137:leaf=-0.0500000007
							138:leaf=0.0346813649
						84:[SkimBToKEE_l2_iso04_dca<8.44189453] yes=139,no=140,missing=140
							139:leaf=0.0500000007
							140:[SkimBToKEE_l1l2Dr<0.19558841] yes=225,no=226,missing=226
								225:leaf=-0.0453685969
								226:leaf=0.00629715342
					52:[SkimBToKEE_D0_mass_LepToK_KToPi<2.32314849] yes=85,no=86,missing=86
						85:[SkimBToKEE_fit_k_phi<1.13334203] yes=141,no=142,missing=142
							141:leaf=0.0360387042
							142:leaf=-0.0219460558
						86:[SkimBToKEE_fit_l2_pt_over_mass<3.77802134] yes=143,no=144,missing=144
							143:leaf=-0.0500000007
							144:[SkimBToKEE_l1l2Dr<0.134172276] yes=227,no=228,missing=228
								227:leaf=-0.0239288583
								228:leaf=0.0317857228
				26:[SkimBToKEE_fit_cos2D<0.977700353] yes=53,no=54,missing=54
					53:[SkimBToKEE_D0_mass_LepToK_KToPi<2.60704684] yes=87,no=88,missing=88
						87:[SkimBToKEE_b_iso04<15.6108398] yes=145,no=146,missing=146
							145:leaf=0.0500000007
							146:leaf=-0.0163105074
						88:[SkimBToKEE_fit_k_pt_over_mass<0.368181407] yes=147,no=148,missing=148
							147:leaf=-0.0500000007
							148:[SkimBToKEE_D0_mass_LepToPi_KToK<3.68146658] yes=229,no=230,missing=230
								229:leaf=0.0469609201
								230:leaf=-0.0211927798
					54:[SkimBToKEE_D0_mass_LepToK_KToPi<3.76255274] yes=89,no=90,missing=90
						89:[SkimBToKEE_fit_k_pt_over_mass<0.0972384959] yes=149,no=150,missing=150
							149:[SkimBToKEE_l1_iso04<10.3041992] yes=231,no=232,missing=232
								231:leaf=0.0100255404
								232:leaf=-0.0500000007
							150:[SkimBToKEE_l1_PFMvaID_Fall17<-2.7772131] yes=233,no=234,missing=234
								233:[SkimBToKEE_l1_PFMvaID_retrained<-4.83656645] yes=333,no=334,missing=334
									333:leaf=-0.0500000007
									334:leaf=0.0392096378
								234:[SkimBToKEE_fit_k_eta<-2.02089858] yes=335,no=336,missing=336
									335:leaf=-0.0296271089
									336:[SkimBToKEE_D0_mass_LepToPi_KToK<3.87248158] yes=429,no=430,missing=430
										429:leaf=0.0500000007
										430:leaf=-0.000643325795
						90:[SkimBToKEE_l_xy_sig<10.5093002] yes=151,no=152,missing=152
							151:[SkimBToKEE_fit_k_pt<1.99140263] yes=235,no=236,missing=236
								235:leaf=-0.0500000007
								236:leaf=0.015213958
							152:[SkimBToKEE_fit_k_pt<1.10835099] yes=237,no=238,missing=238
								237:leaf=-0.0248643812
								238:leaf=0.0424478129
		6:[SkimBToKEE_fit_cos2D<0.995394945] yes=13,no=14,missing=14
			13:[SkimBToKEE_b_iso04<12.4140625] yes=27,no=28,missing=28
				27:[SkimBToKEE_l1_PFMvaID_retrained<-1.38408923] yes=55,no=56,missing=56
					55:[SkimBToKEE_D0_mass_LepToK_KToPi<2.76153421] yes=91,no=92,missing=92
						91:[SkimBToKEE_l2_PFMvaID_retrained<-1.47782731] yes=153,no=154,missing=154
							153:[SkimBToKEE_fit_l2_pt_over_mass<1.62333536] yes=239,no=240,missing=240
								239:leaf=-0.0500000007
								240:leaf=0.0194549467
							154:leaf=0.0498387627
						92:[SkimBToKEE_l2_PFMvaID_retrained<2.0295577] yes=155,no=156,missing=156
							155:[SkimBToKEE_l1_PFMvaID_Fall17<2.04869819] yes=241,no=242,missing=242
								241:leaf=-0.0500000007
								242:leaf=0.0106692826
							156:leaf=0.0160375666
					56:[SkimBToKEE_svprob<2.8480649e-08] yes=93,no=94,missing=94
						93:[SkimBToKEE_fit_l2_pt_over_mass<1.65329027] yes=157,no=158,missing=158
							157:[SkimBToKEE_D0_mass_LepToK_KToPi<2.05521321] yes=243,no=244,missing=244
								243:leaf=0.00706541305
								244:[SkimBToKEE_k_iso04<4.17480469] yes=337,no=338,missing=338
									337:[SkimBToKEE_l1_PFMvaID_Fall17<3.72431421] yes=431,no=432,missing=432
										431:leaf=0.0242148545
										432:leaf=-0.0164369848
									338:leaf=-0.0500000007
							158:[SkimBToKEE_D0_mass_LepToPi_KToK<3.44610262] yes=245,no=246,missing=246
								245:leaf=0.0411380976
								246:leaf=-0.0247497708
						94:[SkimBToKEE_fit_l2_pt_over_mass<0.924191296] yes=159,no=160,missing=160
							159:[SkimBToKEE_fit_cos2D<0.92154479] yes=247,no=248,missing=248
								247:[SkimBToKEE_fit_pt_over_mass<3.82114482] yes=339,no=340,missing=340
									339:leaf=-0.0500000007
									340:leaf=0.00678950176
								248:[SkimBToKEE_fit_pt_over_mass<3.15286517] yes=341,no=342,missing=342
									341:leaf=-0.0305272918
									342:leaf=0.0453378372
							160:[SkimBToKEE_D0_mass_LepToPi_KToK<4.20924616] yes=249,no=250,missing=250
								249:[SkimBToKEE_k_iso04<28.6157227] yes=343,no=344,missing=344
									343:[SkimBToKEE_fit_k_pt_over_mass<0.67496264] yes=433,no=434,missing=434
										433:leaf=-0.0268447008
										434:leaf=0.0500000007
									344:leaf=-0.0224382263
								250:[SkimBToKEE_fit_k_pt<5.5001874] yes=345,no=346,missing=346
									345:[SkimBToKEE_l1_PFMvaID_Fall17<4.17205763] yes=435,no=436,missing=436
										435:leaf=-0.0500000007
										436:leaf=0.0158742126
									346:[SkimBToKEE_p_assymetry<0.545909524] yes=437,no=438,missing=438
										437:leaf=0.0483126901
										438:leaf=-0.0116902795
				28:[SkimBToKEE_l2_PFMvaID_retrained<0.985575855] yes=57,no=58,missing=58
					57:[SkimBToKEE_fit_l2_pt_over_mass<2.3596766] yes=95,no=96,missing=96
						95:[SkimBToKEE_l2_PFMvaID_retrained<0.874017715] yes=161,no=162,missing=162
							161:leaf=-0.0500000007
							162:[SkimBToKEE_k_svip3d_sig<3.31805754] yes=251,no=252,missing=252
								251:[SkimBToKEE_fit_l2_pt_over_mass<1.17938089] yes=347,no=348,missing=348
									347:leaf=-0.0416539162
									348:[SkimBToKEE_D0_mass_LepToK_KToPi<3.91921091] yes=439,no=440,missing=440
										439:leaf=0.0500000007
										440:leaf=-0.0105691431
								252:leaf=-0.0500000007
						96:[SkimBToKEE_l1l2Dr<0.166641653] yes=163,no=164,missing=164
							163:[SkimBToKEE_b_iso04<13.4873047] yes=253,no=254,missing=254
								253:leaf=0.0158901569
								254:leaf=-0.0500000007
							164:[SkimBToKEE_k_svip3d_sig<10.2397423] yes=255,no=256,missing=256
								255:leaf=0.0500000007
								256:[SkimBToKEE_fit_pt<36.8707771] yes=349,no=350,missing=350
									349:leaf=-0.0500000007
									350:leaf=0.0145284338
					58:[SkimBToKEE_svprob<0.000790896767] yes=97,no=98,missing=98
						97:[SkimBToKEE_D0_mass_LepToK_KToPi<2.60704684] yes=165,no=166,missing=166
							165:[SkimBToKEE_l_xy_sig<37.2031784] yes=257,no=258,missing=258
								257:[SkimBToKEE_b_iso04_dca<10.7094727] yes=351,no=352,missing=352
									351:leaf=0.0500000007
									352:[SkimBToKEE_fit_k_phi<-0.463532984] yes=441,no=442,missing=442
										441:leaf=0.0134527329
										442:leaf=-0.0276162606
								258:leaf=-0.031191254
							166:[SkimBToKEE_fit_l2_pt_over_mass<2.57454681] yes=259,no=260,missing=260
								259:leaf=-0.0500000007
								260:[SkimBToKEE_b_iso04_dca<10.1352539] yes=353,no=354,missing=354
									353:leaf=0.0359486267
									354:leaf=-0.0500000007
						98:[SkimBToKEE_D0_mass_LepToK_KToPi<3.9412291] yes=167,no=168,missing=168
							167:[SkimBToKEE_l1_iso04_dca<15.3847656] yes=261,no=262,missing=262
								261:[SkimBToKEE_l1_PFMvaID_retrained<-3.84868765] yes=355,no=356,missing=356
									355:[SkimBToKEE_fit_cos2D<0.985033095] yes=443,no=444,missing=444
										443:leaf=-0.0500000007
										444:leaf=0.00887659844
									356:[SkimBToKEE_fit_k_pt_over_mass<0.67496264] yes=445,no=446,missing=446
										445:leaf=-0.0167560428
										446:leaf=0.0500000007
								262:[SkimBToKEE_fit_cos2D<0.927203774] yes=357,no=358,missing=358
									357:[SkimBToKEE_D0_mass_LepToPi_KToK<2.63159204] yes=447,no=448,missing=448
										447:leaf=0.0171440747
										448:leaf=-0.0500000007
									358:[SkimBToKEE_D0_mass_LepToPi_KToK<3.59416676] yes=449,no=450,missing=450
										449:leaf=0.0335926674
										450:leaf=-0.0161896255
							168:[SkimBToKEE_fit_cos2D<0.98799926] yes=263,no=264,missing=264
								263:[SkimBToKEE_b_iso04_dca<0.92578125] yes=359,no=360,missing=360
									359:leaf=0.0102841947
									360:[SkimBToKEE_fit_k_pt_over_mass<1.68078232] yes=451,no=452,missing=452
										451:leaf=-0.0500000007
										452:leaf=-0.00540142274
								264:leaf=0.0245774183
			14:[SkimBToKEE_svprob<4.992689e-14] yes=29,no=30,missing=30
				29:[SkimBToKEE_fit_l2_pt_over_mass<2.57454681] yes=59,no=60,missing=60
					59:[SkimBToKEE_l1_iso04<9.91601562] yes=99,no=100,missing=100
						99:[SkimBToKEE_fit_l2_pt_over_mass<1.2433008] yes=169,no=170,missing=170
							169:leaf=-0.0500000007
							170:[SkimBToKEE_D0_mass_LepToK_KToPi<3.76255274] yes=265,no=266,missing=266
								265:[SkimBToKEE_l1_PFMvaID_retrained<-3.34512067] yes=361,no=362,missing=362
									361:leaf=-0.0237153172
									362:[SkimBToKEE_fit_l1_eta<-0.796762586] yes=453,no=454,missing=454
										453:leaf=-0.00166212325
										454:leaf=0.0500000007
								266:[SkimBToKEE_fit_pt_over_mass<5.1478548] yes=363,no=364,missing=364
									363:leaf=-0.0416409187
									364:leaf=0.013589154
						100:[SkimBToKEE_b_iso04<7.59521484] yes=171,no=172,missing=172
							171:[SkimBToKEE_l_xy_sig<44.7397041] yes=267,no=268,missing=268
								267:leaf=0.0208555106
								268:leaf=-0.0230772477
							172:leaf=-0.0500000007
					60:[SkimBToKEE_D0_mass_LepToK_KToPi<3.4379456] yes=101,no=102,missing=102
						101:[SkimBToKEE_l2_PFMvaID_retrained<-0.917300642] yes=173,no=174,missing=174
							173:[SkimBToKEE_l1l2Dr<0.128654063] yes=269,no=270,missing=270
								269:leaf=-0.038135875
								270:leaf=0.0137680499
							174:leaf=0.0500000007
						102:[SkimBToKEE_l1l2Dr<0.174337417] yes=175,no=176,missing=176
							175:leaf=-0.0500000007
							176:leaf=0.00695181265
				30:[SkimBToKEE_l1_PFMvaID_retrained<-4.31938934] yes=61,no=62,missing=62
					61:[SkimBToKEE_l1l2Dz<0.0380859375] yes=103,no=104,missing=104
						103:[SkimBToKEE_b_iso04_dca<2.32714844] yes=177,no=178,missing=178
							177:[SkimBToKEE_l_xy_sig<3.30821252] yes=271,no=272,missing=272
								271:leaf=-0.0339399353
								272:leaf=0.0442372002
							178:[SkimBToKEE_l_xy_sig<6.26617289] yes=273,no=274,missing=274
								273:leaf=-0.0500000007
								274:[SkimBToKEE_b_iso04_dca<6.85888672] yes=365,no=366,missing=366
									365:[SkimBToKEE_p_assymetry<-0.397948414] yes=455,no=456,missing=456
										455:leaf=-0.00414299173
										456:leaf=0.0500000007
									366:[SkimBToKEE_svprob<0.311709851] yes=457,no=458,missing=458
										457:leaf=-0.0500000007
										458:leaf=0.0148080168
						104:[SkimBToKEE_l2_PFMvaID_retrained<-2.1122582] yes=179,no=180,missing=180
							179:leaf=-0.0500000007
							180:[SkimBToKEE_l_xy_sig<5.88632441] yes=275,no=276,missing=276
								275:leaf=-0.0151672289
								276:leaf=0.0500000007
					62:[SkimBToKEE_fit_l2_pt_over_mass<0.563235641] yes=105,no=106,missing=106
						105:[SkimBToKEE_b_iso04<17.0996094] yes=181,no=182,missing=182
							181:[SkimBToKEE_fit_pt_over_mass<3.2088325] yes=277,no=278,missing=278
								277:leaf=-0.0195837859
								278:leaf=0.0424972586
							182:leaf=-0.0500000007
						106:[SkimBToKEE_b_iso04_dca<28.9467773] yes=183,no=184,missing=184
							183:[SkimBToKEE_D0_mass_LepToPi_KToK<4.7928896] yes=279,no=280,missing=280
								279:[SkimBToKEE_fit_pt_over_mass<2.53989959] yes=367,no=368,missing=368
									367:[SkimBToKEE_b_iso04_dca<4.39013672] yes=459,no=460,missing=460
										459:leaf=0.0492724665
										460:leaf=-0.0431034453
									368:[SkimBToKEE_fit_k_pt_over_mass<0.67496264] yes=461,no=462,missing=462
										461:leaf=-0.00209686835
										462:leaf=0.0500000007
								280:[SkimBToKEE_l_xy_sig<26.8157043] yes=369,no=370,missing=370
									369:[SkimBToKEE_b_iso04<15.1958008] yes=463,no=464,missing=464
										463:leaf=0.0148324668
										464:leaf=-0.0500000007
									370:leaf=0.0310561117
							184:[SkimBToKEE_l_xy_sig<8.75522041] yes=281,no=282,missing=282
								281:[SkimBToKEE_fit_pt_over_mass<8.21440697] yes=371,no=372,missing=372
									371:[SkimBToKEE_fit_l2_pt_over_mass<2.72723293] yes=465,no=466,missing=466
										465:leaf=-0.0500000007
										466:leaf=0.0155718988
									372:leaf=-0.00309963408
								282:[SkimBToKEE_k_svip3d_sig<3.50581813] yes=373,no=374,missing=374
									373:leaf=0.0500000007
									374:leaf=-0.00293676066
booster[1]:
0:[SkimBToKEE_l2_PFMvaID_Fall17<3.7298615] yes=1,no=2,missing=2
	1:[SkimBToKEE_D0_mass_LepToPi_KToK<1.96915591] yes=3,no=4,missing=4
		3:[SkimBToKEE_fit_l2_pt<5.20174694] yes=7,no=8,missing=8
			7:leaf=-0.0500000007
			8:[SkimBToKEE_l2_PFMvaID_Fall17<-2.44193172] yes=15,no=16,missing=16
				15:[SkimBToKEE_l1_PFMvaID_retrained<-0.323488444] yes=29,no=30,missing=30
					29:leaf=-0.0500000007
					30:[SkimBToKEE_l1l2Dr<0.224692091] yes=57,no=58,missing=58
						57:leaf=-0.0500000007
						58:[SkimBToKEE_fit_l1_pt_over_mass<0.730946064] yes=103,no=104,missing=104
							103:leaf=-0.0500000007
							104:leaf=0.0500000007
				16:[SkimBToKEE_l1l2Dr<0.161486819] yes=31,no=32,missing=32
					31:[SkimBToKEE_fit_l2_pt_over_mass<1.6688081] yes=59,no=60,missing=60
						59:leaf=-0.0500000007
						60:[SkimBToKEE_fit_k_pt<2.2209208] yes=105,no=106,missing=106
							105:leaf=-0.0409409963
							106:leaf=0.0500000007
					32:[SkimBToKEE_fit_l1_pt<2.63474393] yes=61,no=62,missing=62
						61:[SkimBToKEE_k_svip3d_sig<4.74608898] yes=107,no=108,missing=108
							107:leaf=0.0138425594
							108:leaf=-0.0500000007
						62:[SkimBToKEE_fit_l2_pt_over_mass<0.972922564] yes=109,no=110,missing=110
							109:leaf=-0.0500000007
							110:leaf=0.0500000007
		4:[SkimBToKEE_D0_mass_LepToK_KToPi<1.72348535] yes=9,no=10,missing=10
			9:[SkimBToKEE_l2_PFMvaID_retrained<-1.76946759] yes=17,no=18,missing=18
				17:[SkimBToKEE_l1l2Dr<0.308818012] yes=33,no=34,missing=34
					33:[SkimBToKEE_l2_PFMvaID_Fall17<2.20881653] yes=63,no=64,missing=64
						63:[SkimBToKEE_fit_k_pt<1.3744024] yes=111,no=112,missing=112
							111:leaf=-0.0500000007
							112:leaf=0.0497644767
						64:leaf=0.0377050713
					34:[SkimBToKEE_fit_l2_pt_over_mass<0.692262828] yes=65,no=66,missing=66
						65:leaf=-0.0500000007
						66:leaf=0.0500000007
				18:[SkimBToKEE_l2_iso04_dca<11.4916992] yes=35,no=36,missing=36
					35:[SkimBToKEE_l1l2Dr<0.177110329] yes=67,no=68,missing=68
						67:[SkimBToKEE_fit_l2_pt_over_mass<1.87831306] yes=113,no=114,missing=114
							113:leaf=-0.0500000007
							114:leaf=0.0257771313
						68:[SkimBToKEE_fit_l2_pt_over_mass<0.75720346] yes=115,no=116,missing=116
							115:leaf=-0.0500000007
							116:leaf=0.0500000007
					36:[SkimBToKEE_l1l2Dr<0.228399172] yes=69,no=70,missing=70
						69:[SkimBToKEE_fit_k_pt<0.910836935] yes=117,no=118,missing=118
							117:leaf=-0.0500000007
							118:leaf=0.0139750931
						70:[SkimBToKEE_fit_l2_pt_over_mass<0.873846292] yes=119,no=120,missing=120
							119:leaf=-0.0500000007
							120:leaf=0.0500000007
			10:[SkimBToKEE_fit_k_pt<3.96729994] yes=19,no=20,missing=20
				19:[SkimBToKEE_fit_k_pt<3.0826292] yes=37,no=38,missing=38
					37:leaf=-0.0500000007
					38:[SkimBToKEE_l2_PFMvaID_retrained<-0.459084272] yes=71,no=72,missing=72
						71:[SkimBToKEE_D0_mass_LepToK_KToPi<2.05521321] yes=121,no=122,missing=122
							121:leaf=0.0356813185
							122:leaf=-0.0500000007
						72:[SkimBToKEE_k_svip3d_sig<4.37676811] yes=123,no=124,missing=124
							123:leaf=0.0500000007
							124:leaf=-0.0500000007
				20:[SkimBToKEE_l1_PFMvaID_retrained<-1.6797787] yes=39,no=40,missing=40
					39:[SkimBToKEE_l2_PFMvaID_Fall17<1.41524446] yes=73,no=74,missing=74
						73:[SkimBToKEE_l2_PFMvaID_retrained<1.04364848] yes=125,no=126,missing=126
							125:leaf=-0.0500000007
							126:leaf=0.0162245054
						74:[SkimBToKEE_l_xy_sig<3.54227901] yes=127,no=128,missing=128
							127:leaf=-0.0500000007
							128:leaf=0.0500000007
					40:[SkimBToKEE_k_svip3d_sig<5.00831604] yes=75,no=76,missing=76
						75:[SkimBToKEE_fit_l2_pt_over_mass<0.671158016] yes=129,no=130,missing=130
							129:leaf=-0.0500000007
							130:leaf=0.0500000007
						76:[SkimBToKEE_fit_l2_pt_over_mass<1.90730679] yes=131,no=132,missing=132
							131:leaf=-0.0500000007
							132:leaf=0.00368755939
	2:[SkimBToKEE_fit_l2_pt_over_mass<1.90730679] yes=5,no=6,missing=6
		5:[SkimBToKEE_D0_mass_LepToK_KToPi<2.38098288] yes=11,no=12,missing=12
			11:[SkimBToKEE_l1l2Dr<0.236109421] yes=21,no=22,missing=22
				21:[SkimBToKEE_D0_mass_LepToPi_KToK<3.21728206] yes=41,no=42,missing=42
					41:leaf=-0.0500000007
					42:leaf=0.00541268289
				22:[SkimBToKEE_lKDz<0.828613281] yes=43,no=44,missing=44
					43:[SkimBToKEE_fit_l2_pt_over_mass<1.0654031] yes=77,no=78,missing=78
						77:leaf=-0.0431001037
						78:leaf=0.0500000007
					44:[SkimBToKEE_b_iso04_dca<2.84960938] yes=79,no=80,missing=80
						79:[SkimBToKEE_fit_pt_over_mass<3.2376945] yes=133,no=134,missing=134
							133:leaf=-0.0164271519
							134:leaf=0.0310635753
						80:leaf=-0.0500000007
			12:[SkimBToKEE_fit_k_pt<2.4292984] yes=23,no=24,missing=24
				23:[SkimBToKEE_l1l2Dr<0.373008341] yes=45,no=46,missing=46
					45:leaf=-0.0500000007
					46:[SkimBToKEE_fit_pt_over_mass<2.47078204] yes=81,no=82,missing=82
						81:leaf=-0.0500000007
						82:leaf=0.0500000007
				24:[SkimBToKEE_b_iso04<22.921875] yes=47,no=48,missing=48
					47:[SkimBToKEE_k_svip3d_sig<5.4189806] yes=83,no=84,missing=84
						83:[SkimBToKEE_fit_l2_pt<5.42672634] yes=135,no=136,missing=136
							135:leaf=-0.0259036031
							136:leaf=0.0500000007
						84:[SkimBToKEE_fit_k_pt<5.5001874] yes=137,no=138,missing=138
							137:leaf=-0.0500000007
							138:leaf=0.0138519881
					48:[SkimBToKEE_l1l2Dr<0.276323706] yes=85,no=86,missing=86
						85:[SkimBToKEE_fit_pt_over_mass<6.47354078] yes=139,no=140,missing=140
							139:leaf=-0.0500000007
							140:leaf=0.0303022992
						86:[SkimBToKEE_fit_pt_over_mass<3.3131187] yes=141,no=142,missing=142
							141:leaf=-0.0270389169
							142:leaf=0.0500000007
		6:[SkimBToKEE_k_svip3d_sig<6.00072813] yes=13,no=14,missing=14
			13:[SkimBToKEE_D0_mass_LepToPi_KToK<3.88658047] yes=25,no=26,missing=26
				25:[SkimBToKEE_D0_mass_LepToPi_KToK<3.73478031] yes=49,no=50,missing=50
					49:[SkimBToKEE_l2_n_isotrk_dca<15] yes=87,no=88,missing=88
						87:[SkimBToKEE_fit_k_pt<0.513067067] yes=143,no=144,missing=144
							143:leaf=0.0111784143
							144:leaf=0.0500000007
						88:[SkimBToKEE_D0_mass_LepToPi_KToK<2.8935442] yes=145,no=146,missing=146
							145:leaf=0.0306647364
							146:leaf=-0.0353777669
					50:[SkimBToKEE_k_svip3d_sig<2.75654793] yes=89,no=90,missing=90
						89:[SkimBToKEE_l_xy_sig<3.96858335] yes=147,no=148,missing=148
							147:leaf=-0.0500000007
							148:leaf=0.0500000007
						90:[SkimBToKEE_fit_k_pt<2.05968285] yes=149,no=150,missing=150
							149:leaf=-0.0500000007
							150:leaf=0.0460752062
				26:[SkimBToKEE_fit_k_pt<2.4292984] yes=51,no=52,missing=52
					51:[SkimBToKEE_fit_l2_pt<10.6195421] yes=91,no=92,missing=92
						91:leaf=0.0252341162
						92:[SkimBToKEE_l_xy_sig<60.5436134] yes=151,no=152,missing=152
							151:leaf=-0.0500000007
							152:leaf=0.00651409104
					52:[SkimBToKEE_b_iso04_dca<14.9677734] yes=93,no=94,missing=94
						93:[SkimBToKEE_l_xy_sig<0.969466507] yes=153,no=154,missing=154
							153:leaf=-0.0205412265
							154:leaf=0.0500000007
						94:[SkimBToKEE_l_xy_sig<6.53171587] yes=155,no=156,missing=156
							155:leaf=-0.0419924147
							156:leaf=0.0266924333
			14:[SkimBToKEE_l1l2Dr<0.22284767] yes=27,no=28,missing=28
				27:[SkimBToKEE_D0_mass_LepToPi_KToK<2.80341125] yes=53,no=54,missing=54
					53:[SkimBToKEE_fit_l1_pt_over_mass<1.11931658] yes=95,no=96,missing=96
						95:leaf=-0.0453231558
						96:[SkimBToKEE_l1l2Dr<0.139014438] yes=157,no=158,missing=158
							157:leaf=-0.0101249507
							158:leaf=0.0500000007
					54:[SkimBToKEE_D0_mass_LepToK_KToPi<2.18635798] yes=97,no=98,missing=98
						97:[SkimBToKEE_fit_l1_pt<21.6224251] yes=159,no=160,missing=160
							159:leaf=0.0451988541
							160:leaf=-0.0337886773
						98:[SkimBToKEE_fit_l2_pt_over_mass<3.77802134] yes=161,no=162,missing=162
							161:leaf=-0.0500000007
							162:leaf=-0.00929220673
				28:[SkimBToKEE_D0_mass_LepToPi_KToK<3.71989369] yes=55,no=56,missing=56
					55:[SkimBToKEE_lKDz<1.59960938] yes=99,no=100,missing=100
						99:[SkimBToKEE_fit_pt_over_mass<2.96094108] yes=163,no=164,missing=164
							163:leaf=-0.0148198251
							164:leaf=0.0500000007
						100:[SkimBToKEE_fit_pt_over_mass<4.25606585] yes=165,no=166,missing=166
							165:leaf=-0.0500000007
							166:leaf=0.0156077761
					56:[SkimBToKEE_fit_pt_over_mass<4.1446147] yes=101,no=102,missing=102
						101:leaf=-0.0500000007
						102:leaf=0.0444013588
booster[2]:
0:[SkimBToKEE_fit_k_pt_over_mass<0.569124401] yes=1,no=2,missing=2
	1:[SkimBToKEE_fit_l2_pt_over_mass<2.57454681] yes=3,no=4,missing=4
		3:[SkimBToKEE_l2_PFMvaID_Fall17<4.14703369] yes=7,no=8,missing=8
			7:[SkimBToKEE_D0_mass_LepToPi_KToK<1.79247308] yes=15,no=16,missing=16
				15:[SkimBToKEE_l2_PFMvaID_Fall17<-0.0305004157] yes=31,no=32,missing=32
					31:[SkimBToKEE_l1_iso04<8.59033203] yes=63,no=64,missing=64
						63:[SkimBToKEE_lKDz<0.109619141] yes=127,no=128,missing=128
							127:[SkimBToKEE_fit_l2_pt_over_mass<0.505126774] yes=235,no=236,missing=236
								235:leaf=-0.0491584353
								236:leaf=0.0500000007
							128:[SkimBToKEE_fit_cos2D<0.997888923] yes=237,no=238,missing=238
								237:leaf=-0.0500000007
								238:leaf=0.000644118118
						64:[SkimBToKEE_fit_l2_pt<5.70405436] yes=129,no=130,missing=130
							129:[SkimBToKEE_fit_l2_pt_over_mass<0.997260273] yes=239,no=240,missing=240
								239:leaf=-0.0500000007
								240:[SkimBToKEE_l1_PFMvaID_retrained<-2.3994987] yes=355,no=356,missing=356
									355:leaf=-0.00572950393
									356:leaf=0.049475532
							130:[SkimBToKEE_fit_cos2D<0.990333557] yes=241,no=242,missing=242
								241:[SkimBToKEE_l1_PFMvaID_retrained<0.0190334562] yes=357,no=358,missing=358
									357:leaf=-0.0500000007
									358:[SkimBToKEE_l2_PFMvaID_Fall17<-1.27475357] yes=461,no=462,missing=462
										461:leaf=-0.0201313104
										462:leaf=0.0364682898
								242:[SkimBToKEE_fit_pt<43.8767929] yes=359,no=360,missing=360
									359:[SkimBToKEE_fit_l1_pt<2.18343258] yes=463,no=464,missing=464
										463:leaf=-0.0325450078
										464:leaf=0.0500000007
									360:leaf=-0.0432887189
					32:[SkimBToKEE_fit_l2_pt_over_mass<0.909237087] yes=65,no=66,missing=66
						65:leaf=-0.0500000007
						66:[SkimBToKEE_fit_pt_over_mass<8.21440697] yes=131,no=132,missing=132
							131:[SkimBToKEE_lKDz<0.990234375] yes=243,no=244,missing=244
								243:[SkimBToKEE_fit_l1_pt_over_mass<0.379909992] yes=361,no=362,missing=362
									361:leaf=-0.028303707
									362:leaf=0.0500000007
								244:[SkimBToKEE_fit_l1_pt<3.2489295] yes=363,no=364,missing=364
									363:leaf=-0.0500000007
									364:leaf=0.0163151938
							132:[SkimBToKEE_fit_l2_pt_over_mass<1.32199872] yes=245,no=246,missing=246
								245:leaf=-0.0477482639
								246:leaf=0.0241818931
				16:[SkimBToKEE_fit_k_pt_over_mass<0.528556406] yes=33,no=34,missing=34
					33:[SkimBToKEE_l1_iso04<3.14794922] yes=67,no=68,missing=68
						67:[SkimBToKEE_fit_cos2D<0.999197662] yes=133,no=134,missing=134
							133:[SkimBToKEE_fit_l2_pt_over_mass<1.62333536] yes=247,no=248,missing=248
								247:[SkimBToKEE_fit_k_pt<1.99140263] yes=365,no=366,missing=366
									365:[SkimBToKEE_D0_mass_LepToPi_KToK<2.43896842] yes=465,no=466,missing=466
										465:leaf=0.0312685594
										466:leaf=-0.0500000007
									366:[SkimBToKEE_fit_cos2D<0.96788013] yes=467,no=468,missing=468
										467:leaf=-0.0500000007
										468:leaf=0.0454488881
								248:[SkimBToKEE_D0_mass_LepToPi_KToK<3.50051951] yes=367,no=368,missing=368
									367:[SkimBToKEE_l2_PFMvaID_retrained<-3.24431729] yes=469,no=470,missing=470
										469:leaf=-0.0500000007
										470:leaf=0.0500000007
									368:[SkimBToKEE_fit_k_pt<1.50680482] yes=471,no=472,missing=472
										471:leaf=-0.0500000007
										472:leaf=0.0168936588
							134:[SkimBToKEE_lKDz<0.354003906] yes=249,no=250,missing=250
								249:[SkimBToKEE_l1_PFMvaID_Fall17<-1.49659967] yes=369,no=370,missing=370
									369:[SkimBToKEE_fit_l1_pt<5.62834692] yes=473,no=474,missing=474
										473:leaf=0.0393340997
										474:leaf=-0.0500000007
									370:[SkimBToKEE_D0_mass_LepToPi_KToK<4.04141569] yes=475,no=476,missing=476
										475:leaf=0.0500000007
										476:leaf=-0.0415908061
								250:[SkimBToKEE_svprob<0.00500930799] yes=371,no=372,missing=372
									371:[SkimBToKEE_D0_mass_LepToPi_KToK<2.8935442] yes=477,no=478,missing=478
										477:leaf=0.00474878866
										478:leaf=-0.0500000007
									372:leaf=0.0500000007
						68:[SkimBToKEE_fit_k_pt_over_mass<0.494283974] yes=135,no=136,missing=136
							135:leaf=-0.0500000007
							136:[SkimBToKEE_fit_k_pt<2.70695329] yes=251,no=252,missing=252
								251:leaf=0.0500000007
								252:[SkimBToKEE_l2_iso04<9.63964844] yes=373,no=374,missing=374
									373:[SkimBToKEE_fit_cos2D<0.987318277] yes=479,no=480,missing=480
										479:leaf=-0.0500000007
										480:leaf=0.0500000007
									374:[SkimBToKEE_fit_cos2D<0.999872923] yes=481,no=482,missing=482
										481:leaf=-0.0500000007
										482:leaf=0.0280893035
					34:[SkimBToKEE_fit_cos2D<0.998867333] yes=69,no=70,missing=70
						69:[SkimBToKEE_fit_k_pt<2.87883663] yes=137,no=138,missing=138
							137:leaf=0.0500000007
							138:[SkimBToKEE_l2_iso04<4.08154297] yes=253,no=254,missing=254
								253:[SkimBToKEE_fit_cos2D<0.651030362] yes=375,no=376,missing=376
									375:leaf=-0.0422202908
									376:leaf=0.0442732424
								254:[SkimBToKEE_l2_PFMvaID_Fall17<3.91824985] yes=377,no=378,missing=378
									377:leaf=-0.0500000007
									378:[SkimBToKEE_svprob<1.0923829e-14] yes=483,no=484,missing=484
										483:leaf=-0.0325450078
										484:leaf=0.0217266455
						70:[SkimBToKEE_l2_PFMvaID_Fall17<-1.49658608] yes=139,no=140,missing=140
							139:[SkimBToKEE_fit_k_pt<2.87883663] yes=255,no=256,missing=256
								255:leaf=0.0500000007
								256:[SkimBToKEE_l2_iso04<8.77099609] yes=379,no=380,missing=380
									379:[SkimBToKEE_fit_cos2D<0.99960798] yes=485,no=486,missing=486
										485:leaf=-0.0241851229
										486:leaf=0.0290323645
									380:[SkimBToKEE_l2_PFMvaID_retrained<0.558863699] yes=487,no=488,missing=488
										487:leaf=-0.0500000007
										488:leaf=0.00380105944
							140:[SkimBToKEE_lKDz<0.4453125] yes=257,no=258,missing=258
								257:[SkimBToKEE_svprob<4.65682104e-10] yes=381,no=382,missing=382
									381:[SkimBToKEE_b_iso04_dca<2.65332031] yes=489,no=490,missing=490
										489:leaf=0.00314778648
										490:leaf=-0.0500000007
									382:[SkimBToKEE_fit_k_pt<3.0826292] yes=491,no=492,missing=492
										491:leaf=0.0500000007
										492:leaf=-0.0148731023
								258:[SkimBToKEE_svprob<3.81248924e-07] yes=383,no=384,missing=384
									383:leaf=-0.0500000007
									384:leaf=0.0319533944
			8:[SkimBToKEE_D0_mass_LepToPi_KToK<3.15619802] yes=17,no=18,missing=18
				17:[SkimBToKEE_svprob<3.30580224e-19] yes=35,no=36,missing=36
					35:[SkimBToKEE_fit_l2_pt_over_mass<2.01162004] yes=71,no=72,missing=72
						71:[SkimBToKEE_l2_iso04<4.76953125] yes=141,no=142,missing=142
							141:leaf=0.00700659631
							142:[SkimBToKEE_l1_iso04<4.78271484] yes=259,no=260,missing=260
								259:leaf=0.0066102813
								260:[SkimBToKEE_D0_mass_LepToPi_KToK<1.67273891] yes=385,no=386,missing=386
									385:leaf=0.00607078383
									386:leaf=-0.0500000007
						72:[SkimBToKEE_l1_iso04<29.2558594] yes=143,no=144,missing=144
							143:[SkimBToKEE_fit_l1_pt_over_mass<4.06524086] yes=261,no=262,missing=262
								261:[SkimBToKEE_b_iso04_dca<7.53076172] yes=387,no=388,missing=388
									387:[SkimBToKEE_fit_l1_pt<4.82451487] yes=493,no=494,missing=494
										493:leaf=-0.0184328314
										494:leaf=0.0500000007
									388:[SkimBToKEE_D0_mass_LepToPi_KToK<2.92737365] yes=495,no=496,missing=496
										495:leaf=0.0341060571
										496:leaf=-0.0476305299
								262:[SkimBToKEE_fit_k_phi<0.883347154] yes=389,no=390,missing=390
									389:leaf=-0.0473806411
									390:leaf=0.0197016392
							144:[SkimBToKEE_l2_iso04<26.5498047] yes=263,no=264,missing=264
								263:leaf=0.0111459456
								264:[SkimBToKEE_b_iso04_dca<7.68701172] yes=391,no=392,missing=392
									391:leaf=0.0110139754
									392:leaf=-0.0500000007
					36:[SkimBToKEE_fit_l2_pt_over_mass<1.48092604] yes=73,no=74,missing=74
						73:[SkimBToKEE_l2_iso04<10.21875] yes=145,no=146,missing=146
							145:[SkimBToKEE_fit_cos2D<0.990333557] yes=265,no=266,missing=266
								265:leaf=-0.0146106509
								266:leaf=0.0374359898
							146:leaf=-0.0500000007
						74:[SkimBToKEE_fit_k_pt_over_mass<0.0936213434] yes=147,no=148,missing=148
							147:[SkimBToKEE_fit_l1_pt_over_mass<1.99163997] yes=267,no=268,missing=268
								267:leaf=0.0197755955
								268:leaf=-0.0361147784
							148:[SkimBToKEE_b_iso04_dca<20.8969727] yes=269,no=270,missing=270
								269:[SkimBToKEE_l1_PFMvaID_retrained<-4.80443907] yes=393,no=394,missing=394
									393:[SkimBToKEE_D0_mass_LepToPi_KToK<2.78400898] yes=497,no=498,missing=498
										497:leaf=0.0203947648
										498:leaf=-0.0325795524
									394:leaf=0.0500000007
								270:[SkimBToKEE_D0_mass_LepToPi_KToK<2.63159204] yes=395,no=396,missing=396
									395:leaf=0.0377087966
									396:leaf=-0.0301533844
				18:[SkimBToKEE_fit_k_pt_over_mass<0.332599878] yes=37,no=38,missing=38
					37:[SkimBToKEE_fit_cos2D<0.99998945] yes=75,no=76,missing=76
						75:[SkimBToKEE_fit_k_pt_over_mass<0.323158771] yes=149,no=150,missing=150
							149:[SkimBToKEE_l2_iso04<4.76953125] yes=271,no=272,missing=272
								271:[SkimBToKEE_D0_mass_LepToPi_KToK<3.62668777] yes=397,no=398,missing=398
									397:[SkimBToKEE_fit_cos2D<0.996861815] yes=499,no=500,missing=500
										499:leaf=-0.014883603
										500:leaf=0.0500000007
									398:leaf=-0.0500000007
								272:leaf=-0.0500000007
							150:[SkimBToKEE_fit_cos2D<0.996861815] yes=273,no=274,missing=274
								273:[SkimBToKEE_D0_mass_LepToPi_KToK<3.31712317] yes=399,no=400,missing=400
									399:leaf=0.00688951416
									400:leaf=-0.0500000007
								274:[SkimBToKEE_fit_k_pt<1.82175934] yes=401,no=402,missing=402
									401:leaf=0.0462801047
									402:leaf=-0.0285604503
						76:[SkimBToKEE_l2_iso04<18.3823242] yes=151,no=152,missing=152
							151:[SkimBToKEE_lKDz<0.438232422] yes=275,no=276,missing=276
								275:[SkimBToKEE_svprob<0.000790896767] yes=403,no=404,missing=404
									403:[SkimBToKEE_fit_l1_pt<9.2132082] yes=501,no=502,missing=502
										501:leaf=0.00950043555
										502:leaf=-0.0500000007
									404:[SkimBToKEE_D0_mass_LepToPi_KToK<3.90786958] yes=503,no=504,missing=504
										503:leaf=0.0500000007
										504:leaf=-0.0133677749
								276:[SkimBToKEE_svprob<2.26781594e-05] yes=405,no=406,missing=406
									405:[SkimBToKEE_b_iso04<5.39160156] yes=505,no=506,missing=506
										505:leaf=0.0157123934
										506:leaf=-0.0500000007
									406:leaf=0.0378505662
							152:[SkimBToKEE_l1_iso04<17.6533203] yes=277,no=278,missing=278
								277:leaf=0.0196704865
								278:[SkimBToKEE_svprob<0.0796946436] yes=407,no=408,missing=408
									407:leaf=-0.0500000007
									408:[SkimBToKEE_fit_k_pt_over_mass<0.134880453] yes=507,no=508,missing=508
										507:leaf=-0.0128377024
										508:leaf=0.0410575271
					38:[SkimBToKEE_fit_l2_pt_over_mass<1.87831306] yes=77,no=78,missing=78
						77:[SkimBToKEE_fit_cos2D<0.999913037] yes=153,no=154,missing=154
							153:[SkimBToKEE_l1_iso04<5.3359375] yes=279,no=280,missing=280
								279:leaf=0.0142679978
								280:leaf=-0.0500000007
							154:[SkimBToKEE_l2_iso04<18.2553711] yes=281,no=282,missing=282
								281:leaf=0.0463693552
								282:leaf=-0.00913318247
						78:[SkimBToKEE_fit_cos2D<0.988638759] yes=155,no=156,missing=156
							155:[SkimBToKEE_b_iso04_dca<2.0625] yes=283,no=284,missing=284
								283:[SkimBToKEE_k_iso04_dca<2.27148438] yes=409,no=410,missing=410
									409:leaf=0.0413066074
									410:leaf=-0.0129124969
								284:leaf=-0.0500000007
							156:[SkimBToKEE_l2_iso04<25.6113281] yes=285,no=286,missing=286
								285:[SkimBToKEE_svprob<1.28091444e-11] yes=411,no=412,missing=412
									411:[SkimBToKEE_D0_mass_LepToPi_KToK<3.26291728] yes=509,no=510,missing=510
										509:leaf=0.0189690776
										510:leaf=-0.0500000007
									412:leaf=0.0500000007
								286:[SkimBToKEE_svprob<0.088683784] yes=413,no=414,missing=414
									413:leaf=-0.0500000007
									414:leaf=0.0309918113
		4:[SkimBToKEE_D0_mass_LepToPi_KToK<3.19328499] yes=9,no=10,missing=10
			9:[SkimBToKEE_l2_PFMvaID_Fall17<-0.477762043] yes=19,no=20,missing=20
				19:[SkimBToKEE_svprob<0.0633693784] yes=39,no=40,missing=40
					39:[SkimBToKEE_l2_PFMvaID_retrained<-0.00158951327] yes=79,no=80,missing=80
						79:[SkimBToKEE_l1_iso04<6.21533203] yes=157,no=158,missing=158
							157:[SkimBToKEE_fit_cos2D<0.997761071] yes=287,no=288,missing=288
								287:leaf=-0.0236526635
								288:leaf=0.0233222935
							158:[SkimBToKEE_fit_cos2D<0.999998808] yes=289,no=290,missing=290
								289:leaf=-0.0500000007
								290:leaf=0.00307125901
						80:[SkimBToKEE_lKDz<0.490478516] yes=159,no=160,missing=160
							159:leaf=0.0385155454
							160:leaf=-0.0423768125
					40:[SkimBToKEE_l_xy_sig<2.64275432] yes=81,no=82,missing=82
						81:[SkimBToKEE_fit_pt_over_mass<5.9646821] yes=161,no=162,missing=162
							161:[SkimBToKEE_l2_iso04<22.8354492] yes=291,no=292,missing=292
								291:leaf=0.0311488658
								292:leaf=-0.015990423
							162:leaf=-0.0500000007
						82:[SkimBToKEE_fit_cos2D<0.996295035] yes=163,no=164,missing=164
							163:leaf=-0.00489231851
							164:leaf=0.0500000007
				20:[SkimBToKEE_lKDz<0.883789062] yes=41,no=42,missing=42
					41:[SkimBToKEE_l1_PFMvaID_retrained<-5.21192217] yes=83,no=84,missing=84
						83:[SkimBToKEE_fit_cos2D<0.99960798] yes=165,no=166,missing=166
							165:leaf=-0.0500000007
							166:leaf=0.0186762493
						84:[SkimBToKEE_lKDz<0.6171875] yes=167,no=168,missing=168
							167:[SkimBToKEE_fit_l1_pt_over_mass<0.566262126] yes=293,no=294,missing=294
								293:leaf=-0.0228661411
								294:[SkimBToKEE_b_iso04_dca<36.4711914] yes=415,no=416,missing=416
									415:leaf=0.0500000007
									416:[SkimBToKEE_svprob<3.4029086e-12] yes=511,no=512,missing=512
										511:leaf=-0.0286374781
										512:leaf=0.0257848538
							168:[SkimBToKEE_fit_cos2D<0.997027934] yes=295,no=296,missing=296
								295:[SkimBToKEE_l2_PFMvaID_Fall17<3.7298615] yes=417,no=418,missing=418
									417:[SkimBToKEE_b_iso04_dca<0.604003906] yes=513,no=514,missing=514
										513:leaf=0.00853694603
										514:leaf=-0.0500000007
									418:[SkimBToKEE_D0_mass_LepToPi_KToK<2.9749732] yes=515,no=516,missing=516
										515:leaf=0.0479899608
										516:leaf=-0.0277592335
								296:[SkimBToKEE_b_iso04_dca<12.5126953] yes=419,no=420,missing=420
									419:[SkimBToKEE_l2_PFMvaID_Fall17<0.257178962] yes=517,no=518,missing=518
										517:leaf=-0.00233873236
										518:leaf=0.0500000007
									420:leaf=-0.0211694967
					42:[SkimBToKEE_fit_cos2D<0.999254346] yes=85,no=86,missing=86
						85:[SkimBToKEE_l_xy_sig<12.9701653] yes=169,no=170,missing=170
							169:[SkimBToKEE_fit_pt_over_mass<4.57870913] yes=297,no=298,missing=298
								297:leaf=-0.0354694463
								298:[SkimBToKEE_l2_PFMvaID_Fall17<3.13593817] yes=421,no=422,missing=422
									421:leaf=-0.00845914986
									422:leaf=0.03483155
							170:[SkimBToKEE_k_iso04_dca<13.1699219] yes=299,no=300,missing=300
								299:[SkimBToKEE_l2_PFMvaID_Fall17<4.71768618] yes=423,no=424,missing=424
									423:leaf=-0.0500000007
									424:[SkimBToKEE_fit_l1_eta<-0.38201797] yes=519,no=520,missing=520
										519:leaf=-0.0161767602
										520:leaf=0.0220856722
								300:leaf=0.0140075013
						86:[SkimBToKEE_b_iso04_dca<7.60742188] yes=171,no=172,missing=172
							171:[SkimBToKEE_l_xy_sig<180.681747] yes=301,no=302,missing=302
								301:leaf=0.0500000007
								302:leaf=-0.0262956209
							172:leaf=-0.0470132716
			10:[SkimBToKEE_l2_iso04<8.77099609] yes=21,no=22,missing=22
				21:[SkimBToKEE_fit_cos2D<0.998009861] yes=43,no=44,missing=44
					43:[SkimBToKEE_l2_PFMvaID_Fall17<4.14703369] yes=87,no=88,missing=88
						87:leaf=-0.0500000007
						88:[SkimBToKEE_fit_pt_over_mass<5.77670622] yes=173,no=174,missing=174
							173:leaf=0.0335152075
							174:[SkimBToKEE_l1_PFMvaID_Fall17<3.57570434] yes=303,no=304,missing=304
								303:leaf=0.0267712306
								304:leaf=-0.0500000007
					44:[SkimBToKEE_l1_PFMvaID_retrained<-1.97676373] yes=89,no=90,missing=90
						89:leaf=-0.0500000007
						90:[SkimBToKEE_l2_PFMvaID_Fall17<0.257178962] yes=175,no=176,missing=176
							175:leaf=-0.00411897618
							176:[SkimBToKEE_lKDz<0.855957031] yes=305,no=306,missing=306
								305:[SkimBToKEE_D0_mass_LepToPi_KToK<4.02023697] yes=425,no=426,missing=426
									425:leaf=0.0500000007
									426:leaf=0.00112081645
								306:leaf=-0.00266638398
				22:[SkimBToKEE_fit_k_pt_over_mass<0.43913424] yes=45,no=46,missing=46
					45:[SkimBToKEE_l1_iso04<8.34375] yes=91,no=92,missing=92
						91:[SkimBToKEE_lKDz<0.42578125] yes=177,no=178,missing=178
							177:[SkimBToKEE_l1_PFMvaID_Fall17<-1.49659967] yes=307,no=308,missing=308
								307:leaf=-0.0454122387
								308:[SkimBToKEE_D0_mass_LepToPi_KToK<3.77916527] yes=427,no=428,missing=428
									427:leaf=0.0500000007
									428:leaf=-0.00608215807
							178:leaf=-0.0500000007
						92:[SkimBToKEE_fit_l2_pt<13.9021101] yes=179,no=180,missing=180
							179:leaf=0.0500000007
							180:leaf=-0.0500000007
					46:[SkimBToKEE_fit_cos2D<0.999254346] yes=93,no=94,missing=94
						93:[SkimBToKEE_fit_k_pt<2.4292984] yes=181,no=182,missing=182
							181:leaf=0.0346274823
							182:leaf=-0.0500000007
						94:[SkimBToKEE_l1_PFMvaID_Fall17<-2.65158057] yes=183,no=184,missing=184
							183:leaf=-0.0500000007
							184:[SkimBToKEE_l1_iso04<39.9121094] yes=309,no=310,missing=310
								309:[SkimBToKEE_D0_mass_LepToPi_KToK<4.27896023] yes=429,no=430,missing=430
									429:leaf=0.0500000007
									430:leaf=-0.0040368163
								310:leaf=-0.0269284993
	2:[SkimBToKEE_l2_PFMvaID_retrained<-1.57582021] yes=5,no=6,missing=6
		5:[SkimBToKEE_fit_cos2D<0.999728858] yes=11,no=12,missing=12
			11:[SkimBToKEE_fit_cos2D<0.99940598] yes=23,no=24,missing=24
				23:[SkimBToKEE_l2_PFMvaID_Fall17<2.40454388] yes=47,no=48,missing=48
					47:[SkimBToKEE_fit_k_pt<3.0826292] yes=95,no=96,missing=96
						95:leaf=0.0500000007
						96:[SkimBToKEE_l1_iso04<4.78271484] yes=185,no=186,missing=186
							185:[SkimBToKEE_fit_pt_over_mass<4.6937604] yes=311,no=312,missing=312
								311:[SkimBToKEE_svprob<0.297038883] yes=431,no=432,missing=432
									431:leaf=-0.0500000007
									432:[SkimBToKEE_l2_PFMvaID_retrained<-3.69073772] yes=521,no=522,missing=522
										521:leaf=-0.0160106998
										522:leaf=0.0230577122
								312:leaf=0.0428427123
							186:leaf=-0.0500000007
					48:[SkimBToKEE_fit_cos2D<0.989796519] yes=97,no=98,missing=98
						97:[SkimBToKEE_l1_PFMvaID_Fall17<2.39455342] yes=187,no=188,missing=188
							187:leaf=-0.0500000007
							188:[SkimBToKEE_b_iso04_dca<9.41455078] yes=313,no=314,missing=314
								313:leaf=0.0212648008
								314:leaf=-0.028303707
						98:[SkimBToKEE_fit_l2_pt<8.45259094] yes=189,no=190,missing=190
							189:leaf=-0.00538839446
							190:leaf=0.0500000007
				24:[SkimBToKEE_l1_PFMvaID_retrained<-1.08302593] yes=49,no=50,missing=50
					49:[SkimBToKEE_l1_iso04<10.8588867] yes=99,no=100,missing=100
						99:[SkimBToKEE_l2_PFMvaID_Fall17<-1.69812489] yes=191,no=192,missing=192
							191:leaf=-0.0300546773
							192:leaf=0.0350655727
						100:[SkimBToKEE_l2_PFMvaID_Fall17<1.36264873] yes=193,no=194,missing=194
							193:leaf=-0.0500000007
							194:leaf=0.0273042358
					50:[SkimBToKEE_fit_l2_pt_over_mass<0.914214432] yes=101,no=102,missing=102
						101:[SkimBToKEE_b_iso04_dca<4.58544922] yes=195,no=196,missing=196
							195:[SkimBToKEE_lKDz<0.09375] yes=315,no=316,missing=316
								315:leaf=0.0293793809
								316:leaf=-0.0145592215
							196:[SkimBToKEE_l2_iso04<19.4384766] yes=317,no=318,missing=318
								317:leaf=0.00174069649
								318:leaf=-0.0500000007
						102:[SkimBToKEE_b_iso04_dca<11.8447266] yes=197,no=198,missing=198
							197:[SkimBToKEE_lKDz<0.154724121] yes=319,no=320,missing=320
								319:[SkimBToKEE_svprob<2.05984809e-30] yes=433,no=434,missing=434
									433:leaf=-0.0127526419
									434:leaf=0.0500000007
								320:leaf=-0.0400120914
							198:[SkimBToKEE_fit_pt_over_mass<6.19063377] yes=321,no=322,missing=322
								321:[SkimBToKEE_fit_l1_pt<8.63523388] yes=435,no=436,missing=436
									435:leaf=0.0111466283
									436:leaf=-0.0500000007
								322:leaf=0.0058461884
			12:[SkimBToKEE_l1_PFMvaID_retrained<-2.35473347] yes=25,no=26,missing=26
				25:[SkimBToKEE_l2_PFMvaID_Fall17<0.541084051] yes=51,no=52,missing=52
					51:[SkimBToKEE_fit_l2_pt_over_mass<2.93420887] yes=103,no=104,missing=104
						103:[SkimBToKEE_l1_PFMvaID_Fall17<1.30218565] yes=199,no=200,missing=200
							199:leaf=-0.0500000007
							200:[SkimBToKEE_b_iso04_dca<6.06591797] yes=323,no=324,missing=324
								323:leaf=0.0311772358
								324:leaf=-0.0367088579
						104:leaf=0.00260655745
					52:[SkimBToKEE_l1_iso04<25.8061523] yes=105,no=106,missing=106
						105:leaf=0.0500000007
						106:[SkimBToKEE_fit_k_pt<8.82836056] yes=201,no=202,missing=202
							201:leaf=-0.0417373925
							202:leaf=0.0136810793
				26:[SkimBToKEE_svprob<6.93068714e-08] yes=53,no=54,missing=54
					53:[SkimBToKEE_fit_l2_pt_over_mass<2.2106092] yes=107,no=108,missing=108
						107:[SkimBToKEE_fit_l1_phi<-2.90587807] yes=203,no=204,missing=204
							203:leaf=0.00570655381
							204:leaf=-0.0500000007
						108:leaf=0.0271204319
					54:[SkimBToKEE_l_xy_sig<2.22448206] yes=109,no=110,missing=110
						109:[SkimBToKEE_l2_PFMvaID_Fall17<0.143356845] yes=205,no=206,missing=206
							205:[SkimBToKEE_l1_iso04<17.3828125] yes=325,no=326,missing=326
								325:[SkimBToKEE_l2_PFMvaID_Fall17<-2.10592484] yes=437,no=438,missing=438
									437:leaf=-0.0216344334
									438:leaf=0.0197718348
								326:leaf=-0.0500000007
							206:leaf=0.0322457217
						110:[SkimBToKEE_b_iso04_dca<23.2626953] yes=207,no=208,missing=208
							207:[SkimBToKEE_fit_l2_pt_over_mass<0.491140813] yes=327,no=328,missing=328
								327:leaf=-0.0210191719
								328:leaf=0.0500000007
							208:[SkimBToKEE_fit_l2_pt_over_mass<1.021456] yes=329,no=330,missing=330
								329:leaf=-0.0355191343
								330:leaf=0.0349212661
		6:[SkimBToKEE_svprob<1.49594864e-10] yes=13,no=14,missing=14
			13:[SkimBToKEE_fit_l2_pt_over_mass<1.97373462] yes=27,no=28,missing=28
				27:[SkimBToKEE_fit_cos2D<0.999913037] yes=55,no=56,missing=56
					55:[SkimBToKEE_fit_k_pt<3.0826292] yes=111,no=112,missing=112
						111:leaf=0.0500000007
						112:[SkimBToKEE_l1_iso04<4.11572266] yes=209,no=210,missing=210
							209:[SkimBToKEE_k_iso04<6.57275391] yes=331,no=332,missing=332
								331:leaf=0.0361328833
								332:leaf=-0.0377168059
							210:[SkimBToKEE_b_iso04<4.84326172] yes=333,no=334,missing=334
								333:[SkimBToKEE_D0_mass_LepToPi_KToK<3.56083441] yes=439,no=440,missing=440
									439:leaf=0.0191510599
									440:leaf=-0.0282935649
								334:leaf=-0.0500000007
					56:[SkimBToKEE_b_iso04_dca<5.31054688] yes=113,no=114,missing=114
						113:[SkimBToKEE_lKDz<0.379882812] yes=211,no=212,missing=212
							211:[SkimBToKEE_l_xy_sig<12.7547922] yes=335,no=336,missing=336
								335:leaf=-0.0202101078
								336:leaf=0.0500000007
							212:[SkimBToKEE_fit_l1_pt_over_mass<1.52836335] yes=337,no=338,missing=338
								337:leaf=-0.0500000007
								338:[SkimBToKEE_l2_n_isotrk_dca<3] yes=441,no=442,missing=442
									441:leaf=0.0283128172
									442:leaf=-0.0118689639
						114:[SkimBToKEE_fit_pt_over_mass<6.19063377] yes=213,no=214,missing=214
							213:[SkimBToKEE_fit_l2_pt_over_mass<1.87831306] yes=339,no=340,missing=340
								339:leaf=-0.0500000007
								340:leaf=0.011167909
							214:[SkimBToKEE_k_iso04<35.4838867] yes=341,no=342,missing=342
								341:leaf=0.0265793055
								342:leaf=-0.0187697075
				28:[SkimBToKEE_D0_mass_LepToPi_KToK<3.41782379] yes=57,no=58,missing=58
					57:[SkimBToKEE_fit_pt_over_mass<4.17997169] yes=115,no=116,missing=116
						115:[SkimBToKEE_lKDz<0.259765625] yes=215,no=216,missing=216
							215:leaf=0.0112440092
							216:leaf=-0.0500000007
						116:[SkimBToKEE_l2_iso04<52.9331055] yes=217,no=218,missing=218
							217:[SkimBToKEE_fit_cos2D<-0.998549104] yes=343,no=344,missing=344
								343:leaf=-0.00960996747
								344:[SkimBToKEE_fit_l1_pt_over_mass<0.675053716] yes=443,no=444,missing=444
									443:leaf=-0.00528345257
									444:leaf=0.0500000007
							218:leaf=-0.019220423
					58:[SkimBToKEE_b_iso04_dca<2.97705078] yes=117,no=118,missing=118
						117:[SkimBToKEE_l_xy_sig<105.964203] yes=219,no=220,missing=220
							219:leaf=0.0320127718
							220:leaf=-0.0326869041
						118:[SkimBToKEE_fit_k_pt_over_mass<1.68078232] yes=221,no=222,missing=222
							221:leaf=-0.0500000007
							222:leaf=0.0195333678
			14:[SkimBToKEE_l1_PFMvaID_retrained<-3.88562822] yes=29,no=30,missing=30
				29:[SkimBToKEE_fit_cos2D<0.99949348] yes=59,no=60,missing=60
					59:[SkimBToKEE_fit_l2_pt_over_mass<2.3596766] yes=119,no=120,missing=120
						119:leaf=-0.0500000007
						120:[SkimBToKEE_fit_cos2D<0.977700353] yes=223,no=224,missing=224
							223:leaf=-0.0471945368
							224:leaf=0.0398957543
					60:[SkimBToKEE_l_xy_sig<4.34411573] yes=121,no=122,missing=122
						121:[SkimBToKEE_b_iso04_dca<2.39306641] yes=225,no=226,missing=226
							225:leaf=0.0150553808
							226:leaf=-0.0500000007
						122:[SkimBToKEE_l2_PFMvaID_Fall17<-3.48089075] yes=227,no=228,missing=228
							227:leaf=-0.0037952594
							228:leaf=0.0500000007
				30:[SkimBToKEE_fit_pt_over_mass<2.66150832] yes=61,no=62,missing=62
					61:[SkimBToKEE_fit_cos2D<0.99608624] yes=123,no=124,missing=124
						123:leaf=-0.0500000007
						124:[SkimBToKEE_l_xy_sig<1.84525311] yes=229,no=230,missing=230
							229:leaf=-0.0500000007
							230:[SkimBToKEE_fit_l2_eta<-0.946908951] yes=345,no=346,missing=346
								345:leaf=-0.0120552322
								346:[SkimBToKEE_svprob<0.00214400957] yes=445,no=446,missing=446
									445:leaf=-0.0118397931
									446:leaf=0.0500000007
					62:[SkimBToKEE_b_iso04_dca<25.9267578] yes=125,no=126,missing=126
						125:[SkimBToKEE_fit_l2_pt<2.90363359] yes=231,no=232,missing=232
							231:[SkimBToKEE_fit_pt_over_mass<4.82327795] yes=347,no=348,missing=348
								347:[SkimBToKEE_fit_l2_pt_over_mass<0.509879768] yes=447,no=448,missing=448
									447:leaf=-0.0500000007
									448:leaf=0.0261312015
								348:[SkimBToKEE_fit_cos2D<-0.912824154] yes=449,no=450,missing=450
									449:leaf=-0.0236526635
									450:leaf=0.0304256119
							232:[SkimBToKEE_fit_cos2D<0.908482909] yes=349,no=350,missing=350
								349:[SkimBToKEE_fit_l2_pt_over_mass<1.24947405] yes=451,no=452,missing=452
									451:[SkimBToKEE_b_iso04<9.54541016] yes=523,no=524,missing=524
										523:leaf=0.0186810251
										524:leaf=-0.0500000007
									452:[SkimBToKEE_b_iso04_dca<9.59228516] yes=525,no=526,missing=526
										525:leaf=0.0500000007
										526:leaf=-0.0387471654
								350:[SkimBToKEE_D0_mass_LepToPi_KToK<4.7621007] yes=453,no=454,missing=454
									453:leaf=0.0500000007
									454:[SkimBToKEE_fit_cos2D<0.999800563] yes=527,no=528,missing=528
										527:leaf=-0.0500000007
										528:leaf=0.0379576124
						126:[SkimBToKEE_fit_cos2D<0.99940598] yes=233,no=234,missing=234
							233:[SkimBToKEE_fit_l2_pt_over_mass<2.27922225] yes=351,no=352,missing=352
								351:leaf=-0.0500000007
								352:[SkimBToKEE_l2_n_isotrk_dca<16] yes=455,no=456,missing=456
									455:leaf=0.0311681908
									456:leaf=-0.0244859196
							234:[SkimBToKEE_l_xy_sig<4.34411573] yes=353,no=354,missing=354
								353:[SkimBToKEE_fit_l2_pt_over_mass<2.05341411] yes=457,no=458,missing=458
									457:leaf=-0.0483866148
									458:leaf=0.0142801972
								354:[SkimBToKEE_svprob<1.26109371e-05] yes=459,no=460,missing=460
									459:leaf=-0.00322515401
									460:leaf=0.0500000007
booster[3]:
0:[SkimBToKEE_fit_k_pt_over_mass<0.569124401] yes=1,no=2,missing=2
	1:[SkimBToKEE_l2_PFMvaID_Fall17<4.14703369] yes=3,no=4,missing=4
		3:[SkimBToKEE_D0_mass_LepToPi_KToK<1.79247308] yes=7,no=8,missing=8
			7:[SkimBToKEE_fit_l2_pt_over_mass<0.953640878] yes=15,no=16,missing=16
				15:leaf=-0.0500000007
				16:[SkimBToKEE_k_svip3d_sig<86.188118] yes=31,no=32,missing=32
					31:[SkimBToKEE_l1l2Dr<0.189518526] yes=59,no=60,missing=60
						59:[SkimBToKEE_l1_iso04_dca<0.500976562] yes=111,no=112,missing=112
							111:leaf=0.00860773493
							112:leaf=-0.0500000007
						60:[SkimBToKEE_fit_l1_pt_over_mass<0.516059339] yes=113,no=114,missing=114
							113:leaf=-0.0500000007
							114:leaf=0.0500000007
					32:[SkimBToKEE_l2_PFMvaID_retrained<0.363685995] yes=61,no=62,missing=62
						61:leaf=-0.0500000007
						62:[SkimBToKEE_fit_l2_pt<14.6485367] yes=115,no=116,missing=116
							115:[SkimBToKEE_l_xy_sig<244.426559] yes=207,no=208,missing=208
								207:leaf=0.0463210493
								208:leaf=-0.0134524051
							116:leaf=-0.0360832699
			8:[SkimBToKEE_l2_PFMvaID_Fall17<3.7298615] yes=17,no=18,missing=18
				17:[SkimBToKEE_l2_iso04<3.1171875] yes=33,no=34,missing=34
					33:[SkimBToKEE_fit_cos2D<0.99949348] yes=63,no=64,missing=64
						63:[SkimBToKEE_fit_pt_over_mass<3.98415613] yes=117,no=118,missing=118
							117:[SkimBToKEE_l1l2Dr<0.426451892] yes=209,no=210,missing=210
								209:[SkimBToKEE_fit_k_pt_over_mass<0.417899638] yes=319,no=320,missing=320
									319:[SkimBToKEE_D0_mass_LepToPi_KToK<2.40587044] yes=423,no=424,missing=424
										423:leaf=0.00461663632
										424:leaf=-0.0500000007
									320:[SkimBToKEE_l2_PFMvaID_Fall17<1.09866774] yes=425,no=426,missing=426
										425:leaf=-0.0500000007
										426:leaf=0.0500000007
								210:[SkimBToKEE_fit_pt_over_mass<2.23614788] yes=321,no=322,missing=322
									321:[SkimBToKEE_fit_l2_pt_over_mass<1.07028675] yes=427,no=428,missing=428
										427:leaf=-0.0500000007
										428:leaf=0.00332880951
									322:leaf=0.0500000007
							118:[SkimBToKEE_l2_PFMvaID_Fall17<-0.0874141827] yes=211,no=212,missing=212
								211:[SkimBToKEE_fit_l1_pt<10.8594275] yes=323,no=324,missing=324
									323:leaf=0.0258837976
									324:[SkimBToKEE_l1l2Dr<0.234172732] yes=429,no=430,missing=430
										429:leaf=-0.0500000007
										430:leaf=0.0152583038
								212:[SkimBToKEE_lKDz<0.08984375] yes=325,no=326,missing=326
									325:[SkimBToKEE_l1l2Dr<0.168620512] yes=431,no=432,missing=432
										431:leaf=-0.0500000007
										432:leaf=0.0500000007
									326:[SkimBToKEE_l1l2Dz<0.0317382812] yes=433,no=434,missing=434
										433:leaf=-0.0500000007
										434:leaf=0.0199917946
						64:[SkimBToKEE_svprob<0.000790896767] yes=119,no=120,missing=120
							119:[SkimBToKEE_l1l2Dr<0.387567669] yes=213,no=214,missing=214
								213:[SkimBToKEE_fit_k_pt_over_mass<0.29925558] yes=327,no=328,missing=328
									327:[SkimBToKEE_l1l2Dz<0.189453125] yes=435,no=436,missing=436
										435:leaf=-0.0500000007
										436:leaf=0.0068411394
									328:[SkimBToKEE_k_iso04_dca<3.87109375] yes=437,no=438,missing=438
										437:leaf=0.0397964232
										438:leaf=-0.0212769639
								214:[SkimBToKEE_fit_pt_over_mass<2.23614788] yes=329,no=330,missing=330
									329:leaf=-0.0500000007
									330:leaf=0.0500000007
							120:[SkimBToKEE_fit_pt_over_mass<2.16770101] yes=215,no=216,missing=216
								215:[SkimBToKEE_fit_l1_pt<5.17592287] yes=331,no=332,missing=332
									331:leaf=0.0183623563
									332:leaf=-0.0500000007
								216:[SkimBToKEE_fit_k_pt_over_mass<0.0955592021] yes=333,no=334,missing=334
									333:leaf=-0.0500000007
									334:[SkimBToKEE_l_xy_sig<1.92307842] yes=439,no=440,missing=440
										439:leaf=-0.0246295352
										440:leaf=0.0500000007
					34:leaf=-0.0500000007
				18:[SkimBToKEE_k_svip3d_sig<2.90278983] yes=35,no=36,missing=36
					35:[SkimBToKEE_fit_cos2D<0.983262122] yes=65,no=66,missing=66
						65:[SkimBToKEE_fit_l2_pt_over_mass<2.27922225] yes=121,no=122,missing=122
							121:[SkimBToKEE_l2_iso04<6.55957031] yes=217,no=218,missing=218
								217:[SkimBToKEE_l1l2Dr<0.264367402] yes=335,no=336,missing=336
									335:[SkimBToKEE_fit_l2_pt_over_mass<1.70213675] yes=441,no=442,missing=442
										441:leaf=-0.0500000007
										442:leaf=0.00110646279
									336:[SkimBToKEE_D0_mass_LepToPi_KToK<3.92200112] yes=443,no=444,missing=444
										443:leaf=0.0500000007
										444:leaf=-0.0231257379
								218:[SkimBToKEE_l1l2Dr<0.357647151] yes=337,no=338,missing=338
									337:[SkimBToKEE_D0_mass_LepToPi_KToK<2.78400898] yes=445,no=446,missing=446
										445:leaf=0.0121913515
										446:leaf=-0.0500000007
									338:[SkimBToKEE_fit_l2_pt_over_mass<1.0654031] yes=447,no=448,missing=448
										447:leaf=-0.0221288241
										448:leaf=0.0500000007
							122:[SkimBToKEE_fit_l1_pt<13.6942987] yes=219,no=220,missing=220
								219:leaf=0.0500000007
								220:[SkimBToKEE_l1l2Dr<0.176189646] yes=339,no=340,missing=340
									339:leaf=-0.0500000007
									340:leaf=0.0204076599
						66:[SkimBToKEE_fit_l2_pt_over_mass<1.37411118] yes=123,no=124,missing=124
							123:[SkimBToKEE_l2_iso04<6.18505859] yes=221,no=222,missing=222
								221:leaf=0.0481572747
								222:[SkimBToKEE_l1l2Dr<0.317128509] yes=341,no=342,missing=342
									341:leaf=-0.0500000007
									342:leaf=0.0361770056
							124:[SkimBToKEE_l_xy_sig<2.32153273] yes=223,no=224,missing=224
								223:[SkimBToKEE_l1l2Dr<0.22284767] yes=343,no=344,missing=344
									343:[SkimBToKEE_fit_l2_pt_over_mass<2.57454681] yes=449,no=450,missing=450
										449:leaf=-0.0500000007
										450:leaf=0.0151080331
									344:[SkimBToKEE_D0_mass_LepToPi_KToK<3.66583681] yes=451,no=452,missing=452
										451:leaf=0.0500000007
										452:leaf=-0.0223941971
								224:[SkimBToKEE_fit_k_pt_over_mass<0.0950079337] yes=345,no=346,missing=346
									345:leaf=-0.0500000007
									346:[SkimBToKEE_D0_mass_LepToPi_KToK<4.07690096] yes=453,no=454,missing=454
										453:leaf=0.0500000007
										454:leaf=-0.0463742539
					36:[SkimBToKEE_l1l2Dr<0.375818998] yes=67,no=68,missing=68
						67:[SkimBToKEE_fit_l2_pt_over_mass<3.23826218] yes=125,no=126,missing=126
							125:[SkimBToKEE_l1l2Dr<0.322396487] yes=225,no=226,missing=226
								225:leaf=-0.0500000007
								226:[SkimBToKEE_fit_pt_over_mass<2.84443021] yes=347,no=348,missing=348
									347:leaf=-0.0500000007
									348:leaf=0.0500000007
							126:[SkimBToKEE_l1l2Dr<0.170552313] yes=227,no=228,missing=228
								227:[SkimBToKEE_svprob<4.61123691e-20] yes=349,no=350,missing=350
									349:leaf=-0.0500000007
									350:leaf=0.0144827142
								228:[SkimBToKEE_fit_l1_pt_over_mass<1.08030868] yes=351,no=352,missing=352
									351:leaf=-0.0154672889
									352:leaf=0.0500000007
						68:[SkimBToKEE_fit_pt_over_mass<2.47078204] yes=127,no=128,missing=128
							127:leaf=-0.0500000007
							128:leaf=0.0500000007
		4:[SkimBToKEE_D0_mass_LepToPi_KToK<3.29558754] yes=9,no=10,missing=10
			9:[SkimBToKEE_fit_l2_pt_over_mass<1.8264128] yes=19,no=20,missing=20
				19:[SkimBToKEE_svprob<0.162774131] yes=37,no=38,missing=38
					37:[SkimBToKEE_l1l2Dr<0.346246481] yes=69,no=70,missing=70
						69:leaf=-0.0500000007
						70:[SkimBToKEE_fit_l2_pt_over_mass<1.23723435] yes=129,no=130,missing=130
							129:leaf=-0.0301103424
							130:leaf=0.0500000007
					38:[SkimBToKEE_l1l2Dr<0.270247847] yes=71,no=72,missing=72
						71:[SkimBToKEE_l2_PFMvaID_retrained<1.9538126] yes=131,no=132,missing=132
							131:leaf=-0.0500000007
							132:[SkimBToKEE_fit_cos2D<0.937168777] yes=229,no=230,missing=230
								229:leaf=-0.0302736294
								230:leaf=0.0270345192
						72:[SkimBToKEE_fit_l2_pt<6.28306293] yes=133,no=134,missing=134
							133:leaf=-0.0134713072
							134:leaf=0.0500000007
				20:[SkimBToKEE_svprob<6.51063048e-33] yes=39,no=40,missing=40
					39:[SkimBToKEE_l1l2Dr<0.176189646] yes=73,no=74,missing=74
						73:[SkimBToKEE_fit_l2_pt_over_mass<3.77802134] yes=135,no=136,missing=136
							135:[SkimBToKEE_l2_iso04<7.50585938] yes=231,no=232,missing=232
								231:[SkimBToKEE_fit_k_phi<1.03231275] yes=353,no=354,missing=354
									353:leaf=0.027132405
									354:leaf=-0.0236635301
								232:leaf=-0.0500000007
							136:[SkimBToKEE_lKDz<0.855957031] yes=233,no=234,missing=234
								233:[SkimBToKEE_l1_iso04<29.4321289] yes=355,no=356,missing=356
									355:leaf=0.0500000007
									356:[SkimBToKEE_l2_PFMvaID_retrained<1.80803573] yes=455,no=456,missing=456
										455:leaf=-0.0295068529
										456:leaf=0.0196185652
								234:[SkimBToKEE_fit_phi<1.3974185] yes=357,no=358,missing=358
									357:leaf=-0.027028
									358:leaf=0.0137364483
						74:[SkimBToKEE_l1l2Dr<0.200772926] yes=137,no=138,missing=138
							137:[SkimBToKEE_fit_pt_over_mass<5.1478548] yes=235,no=236,missing=236
								235:leaf=-0.0500000007
								236:[SkimBToKEE_fit_l1_pt_over_mass<1.34881878] yes=359,no=360,missing=360
									359:leaf=-0.0106912022
									360:leaf=0.0500000007
							138:[SkimBToKEE_lKDz<1.33789062] yes=237,no=238,missing=238
								237:[SkimBToKEE_l1_n_isotrk_dca<8] yes=361,no=362,missing=362
									361:leaf=0.0500000007
									362:[SkimBToKEE_D0_mass_LepToPi_KToK<2.80341125] yes=457,no=458,missing=458
										457:leaf=0.0239482988
										458:leaf=-0.0393365622
								238:[SkimBToKEE_fit_l2_phi<0.0967114344] yes=363,no=364,missing=364
									363:leaf=0.00982767064
									364:leaf=-0.0394348279
					40:leaf=0.0500000007
			10:[SkimBToKEE_svprob<0.200260535] yes=21,no=22,missing=22
				21:[SkimBToKEE_l2_iso04<4.76953125] yes=41,no=42,missing=42
					41:[SkimBToKEE_k_svip3d_sig<8.87829494] yes=75,no=76,missing=76
						75:[SkimBToKEE_fit_pt_over_mass<3.61648035] yes=139,no=140,missing=140
							139:leaf=-0.0250937287
							140:[SkimBToKEE_fit_cos2D<-0.998676836] yes=239,no=240,missing=240
								239:leaf=-0.00985468086
								240:leaf=0.0500000007
						76:[SkimBToKEE_fit_l2_pt_over_mass<2.2106092] yes=141,no=142,missing=142
							141:leaf=-0.0500000007
							142:leaf=0.0275532734
					42:[SkimBToKEE_l1l2Dr<0.337784857] yes=77,no=78,missing=78
						77:[SkimBToKEE_fit_l2_pt_over_mass<3.77802134] yes=143,no=144,missing=144
							143:leaf=-0.0500000007
							144:[SkimBToKEE_l1l2Dr<0.124445356] yes=241,no=242,missing=242
								241:[SkimBToKEE_l2_iso04_dca<0.500488281] yes=365,no=366,missing=366
									365:leaf=0.00888972357
									366:leaf=-0.0500000007
								242:leaf=0.0500000007
						78:[SkimBToKEE_fit_l2_pt_over_mass<1.17384779] yes=145,no=146,missing=146
							145:leaf=-0.0500000007
							146:leaf=0.0500000007
				22:[SkimBToKEE_l1l2Dz<0.00793457031] yes=43,no=44,missing=44
					43:[SkimBToKEE_l1_iso04<13.7631836] yes=79,no=80,missing=80
						79:[SkimBToKEE_fit_pt_over_mass<4.52564526] yes=147,no=148,missing=148
							147:[SkimBToKEE_fit_cos2D<0.997027934] yes=243,no=244,missing=244
								243:[SkimBToKEE_fit_l2_pt<12.8507109] yes=367,no=368,missing=368
									367:[SkimBToKEE_D0_mass_LepToPi_KToK<3.56083441] yes=459,no=460,missing=460
										459:leaf=0.0136768986
										460:leaf=-0.0500000007
									368:leaf=0.0174223762
								244:[SkimBToKEE_fit_k_pt_over_mass<0.14846243] yes=369,no=370,missing=370
									369:leaf=-0.0336473435
									370:leaf=0.0500000007
							148:[SkimBToKEE_l_xy_sig<2.04754066] yes=245,no=246,missing=246
								245:[SkimBToKEE_fit_l1_pt<12.7187843] yes=371,no=372,missing=372
									371:leaf=0.0333914235
									372:[SkimBToKEE_l1l2Dr<0.19558841] yes=461,no=462,missing=462
										461:leaf=-0.0500000007
										462:leaf=0.0332700014
								246:leaf=0.0500000007
						80:[SkimBToKEE_b_iso04<12.8862305] yes=149,no=150,missing=150
							149:leaf=0.02860987
							150:[SkimBToKEE_l_xy_sig<6.13696384] yes=247,no=248,missing=248
								247:leaf=-0.0500000007
								248:[SkimBToKEE_l1_iso04<24.0092773] yes=373,no=374,missing=374
									373:leaf=0.0500000007
									374:leaf=-0.0117818406
					44:[SkimBToKEE_fit_cos2D<0.99913764] yes=81,no=82,missing=82
						81:[SkimBToKEE_l1_iso04_dca<1.64453125] yes=151,no=152,missing=152
							151:[SkimBToKEE_l_xy_sig<1.84525311] yes=249,no=250,missing=250
								249:leaf=-0.0187699925
								250:leaf=0.022862874
							152:[SkimBToKEE_k_iso04<24.5424805] yes=251,no=252,missing=252
								251:[SkimBToKEE_fit_k_pt_over_mass<0.192069694] yes=375,no=376,missing=376
									375:leaf=-0.0500000007
									376:[SkimBToKEE_D0_mass_LepToPi_KToK<3.68146658] yes=463,no=464,missing=464
										463:leaf=0.019602349
										464:leaf=-0.0231257379
								252:leaf=0.00444936147
						82:[SkimBToKEE_b_iso04<28.1425781] yes=153,no=154,missing=154
							153:[SkimBToKEE_lKDz<0.50390625] yes=253,no=254,missing=254
								253:leaf=0.0500000007
								254:[SkimBToKEE_l2_iso04<12.7548828] yes=377,no=378,missing=378
									377:leaf=0.0317252688
									378:[SkimBToKEE_D0_mass_LepToPi_KToK<3.53533936] yes=465,no=466,missing=466
										465:leaf=0.0133447871
										466:leaf=-0.0399678461
							154:[SkimBToKEE_fit_pt_over_mass<4.63431025] yes=255,no=256,missing=256
								255:leaf=-0.0316369347
								256:leaf=0.0231357794
	2:[SkimBToKEE_fit_cos2D<0.995394945] yes=5,no=6,missing=6
		5:[SkimBToKEE_l2_PFMvaID_Fall17<1.86741412] yes=11,no=12,missing=12
			11:[SkimBToKEE_fit_k_pt<3.0826292] yes=23,no=24,missing=24
				23:leaf=0.0500000007
				24:[SkimBToKEE_l2_PFMvaID_retrained<0.509888172] yes=45,no=46,missing=46
					45:[SkimBToKEE_l1_iso04<4.78271484] yes=83,no=84,missing=84
						83:[SkimBToKEE_svprob<0.088683784] yes=155,no=156,missing=156
							155:[SkimBToKEE_l2_PFMvaID_Fall17<1.51908994] yes=257,no=258,missing=258
								257:leaf=-0.0500000007
								258:leaf=0.00848954823
							156:[SkimBToKEE_l1l2Dr<0.272649229] yes=259,no=260,missing=260
								259:[SkimBToKEE_fit_pt_over_mass<4.6937604] yes=379,no=380,missing=380
									379:leaf=-0.0412990078
									380:leaf=0.0141286245
								260:leaf=0.0500000007
						84:[SkimBToKEE_l2_PFMvaID_Fall17<1.41524446] yes=157,no=158,missing=158
							157:leaf=-0.0500000007
							158:[SkimBToKEE_svprob<0.162774131] yes=261,no=262,missing=262
								261:[SkimBToKEE_l1l2Dr<0.337784857] yes=381,no=382,missing=382
									381:leaf=-0.0500000007
									382:[SkimBToKEE_fit_pt<16.8240814] yes=467,no=468,missing=468
										467:leaf=-0.0500000007
										468:leaf=0.0348668471
								262:[SkimBToKEE_l2_iso04_dca<6.54882812] yes=383,no=384,missing=384
									383:[SkimBToKEE_l1l2Dr<0.199019268] yes=469,no=470,missing=470
										469:leaf=-0.0144000417
										470:leaf=0.0500000007
									384:[SkimBToKEE_fit_l2_pt_over_mass<1.41549432] yes=471,no=472,missing=472
										471:leaf=-0.0500000007
										472:leaf=0.0185060389
					46:[SkimBToKEE_svprob<0.0028924034] yes=85,no=86,missing=86
						85:[SkimBToKEE_fit_l2_pt_over_mass<1.62333536] yes=159,no=160,missing=160
							159:leaf=-0.0500000007
							160:[SkimBToKEE_l2_iso04<18.6474609] yes=263,no=264,missing=264
								263:leaf=0.041919969
								264:[SkimBToKEE_l1l2Dr<0.251221597] yes=385,no=386,missing=386
									385:leaf=-0.0500000007
									386:leaf=0.0130165638
						86:[SkimBToKEE_fit_l2_pt_over_mass<1.021456] yes=161,no=162,missing=162
							161:[SkimBToKEE_l1_iso04_dca<2.44628906] yes=265,no=266,missing=266
								265:[SkimBToKEE_fit_l2_pt<3.15278316] yes=387,no=388,missing=388
									387:leaf=-0.0321121737
									388:[SkimBToKEE_k_iso04_dca<5.79150391] yes=473,no=474,missing=474
										473:leaf=0.044199761
										474:leaf=-0.0209667273
								266:[SkimBToKEE_fit_pt_over_mass<4.89588928] yes=389,no=390,missing=390
									389:leaf=-0.0500000007
									390:leaf=0.00413667876
							162:[SkimBToKEE_k_iso04<32.0092773] yes=267,no=268,missing=268
								267:[SkimBToKEE_l1l2Dr<0.209427267] yes=391,no=392,missing=392
									391:[SkimBToKEE_k_iso04<16.3359375] yes=475,no=476,missing=476
										475:leaf=0.0273874756
										476:leaf=-0.0344807394
									392:[SkimBToKEE_D0_mass_LepToPi_KToK<4.21665192] yes=477,no=478,missing=478
										477:leaf=0.0500000007
										478:leaf=-0.0245295689
								268:[SkimBToKEE_l1l2Dr<0.304068565] yes=393,no=394,missing=394
									393:leaf=-0.0500000007
									394:leaf=0.0186804403
			12:[SkimBToKEE_svprob<0.00111829955] yes=25,no=26,missing=26
				25:[SkimBToKEE_fit_l2_pt<11.1418896] yes=47,no=48,missing=48
					47:[SkimBToKEE_l1l2Dr<0.378690511] yes=87,no=88,missing=88
						87:[SkimBToKEE_fit_l2_pt_over_mass<1.97373462] yes=163,no=164,missing=164
							163:[SkimBToKEE_fit_pt_over_mass<7.34863091] yes=269,no=270,missing=270
								269:leaf=-0.0500000007
								270:[SkimBToKEE_l2_iso04<23.402832] yes=395,no=396,missing=396
									395:leaf=0.0268046409
									396:leaf=-0.0269728005
							164:[SkimBToKEE_l1l2Dr<0.188655183] yes=271,no=272,missing=272
								271:leaf=-0.00184134103
								272:leaf=0.0500000007
						88:[SkimBToKEE_fit_l2_pt_over_mass<1.05067372] yes=165,no=166,missing=166
							165:leaf=-0.0500000007
							166:[SkimBToKEE_fit_l1_pt_over_mass<0.923596919] yes=273,no=274,missing=274
								273:leaf=-0.0144647211
								274:leaf=0.0500000007
					48:[SkimBToKEE_l1l2Dr<0.175267547] yes=89,no=90,missing=90
						89:[SkimBToKEE_svprob<0.000376540615] yes=167,no=168,missing=168
							167:leaf=-0.0500000007
							168:leaf=0.00710074976
						90:[SkimBToKEE_fit_pt_over_mass<4.63431025] yes=169,no=170,missing=170
							169:[SkimBToKEE_l1_n_isotrk_dca<3] yes=275,no=276,missing=276
								275:leaf=0.0159316827
								276:leaf=-0.0457058363
							170:[SkimBToKEE_l_xy_sig<29.8030567] yes=277,no=278,missing=278
								277:leaf=0.0500000007
								278:[SkimBToKEE_k_n_isotrk_dca<6] yes=397,no=398,missing=398
									397:leaf=0.0190931894
									398:leaf=-0.0284892414
				26:[SkimBToKEE_k_iso04_dca<14.1899414] yes=49,no=50,missing=50
					49:[SkimBToKEE_b_iso04_dca<12.0634766] yes=91,no=92,missing=92
						91:[SkimBToKEE_fit_l2_pt_over_mass<1.04102552] yes=171,no=172,missing=172
							171:[SkimBToKEE_l1l2Dr<0.384552389] yes=279,no=280,missing=280
								279:leaf=-0.0500000007
								280:leaf=0.0276319738
							172:[SkimBToKEE_l1l2Dr<0.180706695] yes=281,no=282,missing=282
								281:[SkimBToKEE_k_iso04<15.4702148] yes=399,no=400,missing=400
									399:[SkimBToKEE_fit_l2_pt_over_mass<1.65329027] yes=479,no=480,missing=480
										479:leaf=0.00658788532
										480:leaf=0.0500000007
									400:[SkimBToKEE_fit_l2_pt_over_mass<1.80282545] yes=481,no=482,missing=482
										481:leaf=-0.0500000007
										482:leaf=0.0258257333
								282:leaf=0.0500000007
						92:[SkimBToKEE_fit_l2_pt_over_mass<2.05341411] yes=173,no=174,missing=174
							173:[SkimBToKEE_l1l2Dr<0.331827521] yes=283,no=284,missing=284
								283:[SkimBToKEE_fit_k_pt_over_mass<1.39566684] yes=401,no=402,missing=402
									401:leaf=-0.0500000007
									402:leaf=0.0051151244
								284:leaf=0.0226793084
							174:leaf=0.0408477411
					50:[SkimBToKEE_fit_l2_pt<11.1418896] yes=93,no=94,missing=94
						93:[SkimBToKEE_l1l2Dr<0.339874864] yes=175,no=176,missing=176
							175:leaf=-0.0500000007
							176:[SkimBToKEE_fit_pt<19.1617928] yes=285,no=286,missing=286
								285:leaf=-0.014630354
								286:leaf=0.0249194913
						94:[SkimBToKEE_l1l2Dr<0.153658256] yes=177,no=178,missing=178
							177:[SkimBToKEE_fit_l1_eta<-0.367004216] yes=287,no=288,missing=288
								287:leaf=0.00521759596
								288:leaf=-0.0500000007
							178:leaf=0.0484272577
		6:[SkimBToKEE_k_svip3d_sig<7.96785355] yes=13,no=14,missing=14
			13:[SkimBToKEE_l2_PFMvaID_retrained<-3.92940617] yes=27,no=28,missing=28
				27:[SkimBToKEE_b_iso04_dca<5.11083984] yes=51,no=52,missing=52
					51:[SkimBToKEE_l1l2Dr<0.229345828] yes=95,no=96,missing=96
						95:[SkimBToKEE_fit_pt_over_mass<6.47354078] yes=179,no=180,missing=180
							179:[SkimBToKEE_l_xy_sig<3.46221232] yes=289,no=290,missing=290
								289:leaf=-0.0500000007
								290:[SkimBToKEE_svprob<0.088683784] yes=403,no=404,missing=404
									403:leaf=-0.0270902645
									404:leaf=0.0371110626
							180:[SkimBToKEE_l_xy_sig<3.96858335] yes=291,no=292,missing=292
								291:leaf=-0.0242567435
								292:leaf=0.0433615595
						96:[SkimBToKEE_fit_pt_over_mass<3.19441843] yes=181,no=182,missing=182
							181:[SkimBToKEE_l2_iso04<16.9453125] yes=293,no=294,missing=294
								293:leaf=0.00683899689
								294:leaf=-0.0500000007
							182:[SkimBToKEE_l_xy_sig<2.47461343] yes=295,no=296,missing=296
								295:leaf=-0.0249983352
								296:leaf=0.0500000007
					52:[SkimBToKEE_fit_l2_pt<15.6744909] yes=97,no=98,missing=98
						97:[SkimBToKEE_l1_iso04<12.8632812] yes=183,no=184,missing=184
							183:[SkimBToKEE_l1l2Dr<0.242046013] yes=297,no=298,missing=298
								297:[SkimBToKEE_lKDz<0.019744873] yes=405,no=406,missing=406
									405:leaf=-0.0500000007
									406:leaf=0.00494299503
								298:leaf=0.0334202312
							184:[SkimBToKEE_l_xy_sig<19.4579868] yes=299,no=300,missing=300
								299:leaf=-0.0500000007
								300:[SkimBToKEE_svprob<0.000549289689] yes=407,no=408,missing=408
									407:leaf=-0.0500000007
									408:[SkimBToKEE_fit_cos2D<0.9997015] yes=483,no=484,missing=484
										483:leaf=-0.00367756747
										484:leaf=0.0500000007
						98:[SkimBToKEE_l1l2Dr<0.105465308] yes=185,no=186,missing=186
							185:leaf=-0.0356231034
							186:leaf=0.0387355201
				28:[SkimBToKEE_fit_l2_pt<2.98544049] yes=53,no=54,missing=54
					53:[SkimBToKEE_l2_iso04_dca<1.86279297] yes=99,no=100,missing=100
						99:[SkimBToKEE_fit_l2_pt_over_mass<0.486561716] yes=187,no=188,missing=188
							187:leaf=-0.0320069268
							188:leaf=0.0443587825
						100:[SkimBToKEE_fit_l2_pt_over_mass<0.54352951] yes=189,no=190,missing=190
							189:leaf=-0.0500000007
							190:leaf=0.0452898405
					54:[SkimBToKEE_l2_iso04_dca<21.0585938] yes=101,no=102,missing=102
						101:[SkimBToKEE_fit_l2_pt_over_mass<0.568307757] yes=191,no=192,missing=192
							191:[SkimBToKEE_l_xy_sig<7.07735968] yes=301,no=302,missing=302
								301:leaf=-0.0500000007
								302:leaf=0.0203123093
							192:[SkimBToKEE_svprob<4.992689e-14] yes=303,no=304,missing=304
								303:[SkimBToKEE_fit_pt_over_mass<3.82114482] yes=409,no=410,missing=410
									409:leaf=-0.0500000007
									410:[SkimBToKEE_l1_n_isotrk_dca<5] yes=485,no=486,missing=486
										485:leaf=0.0458283611
										486:leaf=-0.024430817
								304:[SkimBToKEE_l2_PFMvaID_Fall17<-5.71067429] yes=411,no=412,missing=412
									411:[SkimBToKEE_l1l2Dr<0.288038492] yes=487,no=488,missing=488
										487:leaf=-0.0338352546
										488:leaf=0.0475045964
									412:[SkimBToKEE_D0_mass_LepToPi_KToK<4.67917109] yes=489,no=490,missing=490
										489:leaf=0.0500000007
										490:leaf=-0.0258682277
						102:[SkimBToKEE_l2_PFMvaID_Fall17<0.935890377] yes=193,no=194,missing=194
							193:[SkimBToKEE_l_xy_sig<9.25700855] yes=305,no=306,missing=306
								305:leaf=-0.0500000007
								306:[SkimBToKEE_svprob<0.0560942739] yes=413,no=414,missing=414
									413:[SkimBToKEE_k_iso04_dca<24.7612305] yes=491,no=492,missing=492
										491:leaf=-0.0491986834
										492:leaf=0.017789783
									414:leaf=0.0500000007
							194:[SkimBToKEE_fit_cos2D<0.998707354] yes=307,no=308,missing=308
								307:[SkimBToKEE_fit_l1_pt_over_mass<2.88080144] yes=415,no=416,missing=416
									415:[SkimBToKEE_fit_l2_pt_over_mass<1.90730679] yes=493,no=494,missing=494
										493:leaf=-0.0500000007
										494:leaf=0.0081777703
									416:leaf=0.0256608333
								308:[SkimBToKEE_svprob<4.00722389e-09] yes=417,no=418,missing=418
									417:leaf=-0.032171376
									418:[SkimBToKEE_l_xy_sig<5.29157829] yes=495,no=496,missing=496
										495:leaf=-0.0096041169
										496:leaf=0.0500000007
			14:[SkimBToKEE_fit_l2_pt_over_mass<2.15137458] yes=29,no=30,missing=30
				29:[SkimBToKEE_l2_iso04<8.99609375] yes=55,no=56,missing=56
					55:[SkimBToKEE_l2_PFMvaID_retrained<-0.615978539] yes=103,no=104,missing=104
						103:[SkimBToKEE_l2_PFMvaID_Fall17<1.71883154] yes=195,no=196,missing=196
							195:leaf=-0.0500000007
							196:leaf=0.0104114143
						104:[SkimBToKEE_fit_pt_over_mass<3.41141176] yes=197,no=198,missing=198
							197:[SkimBToKEE_l1l2Dz<0.1171875] yes=309,no=310,missing=310
								309:leaf=-0.0485787578
								310:leaf=0.00641242741
							198:[SkimBToKEE_k_iso04<20.8637695] yes=311,no=312,missing=312
								311:[SkimBToKEE_lKDz<0.418945312] yes=419,no=420,missing=420
									419:leaf=0.0500000007
									420:leaf=-0.0012808399
								312:leaf=-0.0152909402
					56:[SkimBToKEE_l1_iso04<7.24902344] yes=105,no=106,missing=106
						105:[SkimBToKEE_l2_PFMvaID_Fall17<-0.532325447] yes=199,no=200,missing=200
							199:leaf=-0.0370858721
							200:leaf=0.0219034832
						106:[SkimBToKEE_l2_PFMvaID_Fall17<4.71768618] yes=201,no=202,missing=202
							201:leaf=-0.0500000007
							202:leaf=0.0032899424
				30:[SkimBToKEE_l2_PFMvaID_retrained<-0.615978539] yes=57,no=58,missing=58
					57:[SkimBToKEE_fit_l2_pt<11.8404732] yes=107,no=108,missing=108
						107:leaf=0.0155396657
						108:[SkimBToKEE_l2_PFMvaID_Fall17<3.43944645] yes=203,no=204,missing=204
							203:[SkimBToKEE_l1l2Dr<0.235142171] yes=313,no=314,missing=314
								313:leaf=-0.0500000007
								314:[SkimBToKEE_lKDz<0.814941406] yes=421,no=422,missing=422
									421:leaf=0.0202834457
									422:leaf=-0.0233212076
							204:leaf=0.0162122939
					58:[SkimBToKEE_k_svip3d_sig<124.699516] yes=109,no=110,missing=110
						109:[SkimBToKEE_l1l2Dr<0.139014438] yes=205,no=206,missing=206
							205:[SkimBToKEE_fit_l2_pt<19.9375324] yes=315,no=316,missing=316
								315:leaf=-0.0440306291
								316:leaf=0.012987907
							206:[SkimBToKEE_l_xy_sig<244.426559] yes=317,no=318,missing=318
								317:leaf=0.0500000007
								318:leaf=-0.00370045379
						110:leaf=-0.0279835295
booster[4]:
0:[SkimBToKEE_fit_k_pt<3.0826292] yes=1,no=2,missing=2
	1:[SkimBToKEE_l2_PFMvaID_Fall17<4.14703369] yes=3,no=4,missing=4
		3:[SkimBToKEE_D0_mass_LepToPi_KToK<1.88973999] yes=7,no=8,missing=8
			7:[SkimBToKEE_fit_l2_pt<5.08508253] yes=15,no=16,missing=16
				15:[SkimBToKEE_fit_k_pt_over_mass<0.569124401] yes=31,no=32,missing=32
					31:leaf=-0.0500000007
					32:leaf=0.0244486518
				16:[SkimBToKEE_fit_l1_pt<2.80667543] yes=33,no=34,missing=34
					33:[SkimBToKEE_lKDz<0.0472259521] yes=63,no=64,missing=64
						63:leaf=0.0130127687
						64:leaf=-0.0500000007
					34:[SkimBToKEE_l1l2Dr<0.203358859] yes=65,no=66,missing=66
						65:[SkimBToKEE_fit_k_pt_over_mass<0.528556406] yes=123,no=124,missing=124
							123:[SkimBToKEE_l2_PFMvaID_retrained<1.46971953] yes=221,no=222,missing=222
								221:leaf=-0.0500000007
								222:leaf=0.00157644041
							124:leaf=0.0226359461
						66:leaf=0.0500000007
			8:[SkimBToKEE_fit_k_pt_over_mass<0.528556406] yes=17,no=18,missing=18
				17:[SkimBToKEE_fit_k_pt_over_mass<0.464531004] yes=35,no=36,missing=36
					35:[SkimBToKEE_l1_iso04<3.14794922] yes=67,no=68,missing=68
						67:[SkimBToKEE_fit_cos2D<0.999197662] yes=125,no=126,missing=126
							125:[SkimBToKEE_fit_l2_pt_over_mass<1.62333536] yes=223,no=224,missing=224
								223:[SkimBToKEE_l1l2Dr<0.476601958] yes=343,no=344,missing=344
									343:[SkimBToKEE_D0_mass_LepToPi_KToK<2.52840209] yes=425,no=426,missing=426
										425:leaf=0.00451378524
										426:leaf=-0.0500000007
									344:[SkimBToKEE_fit_pt_over_mass<2.05959582] yes=427,no=428,missing=428
										427:leaf=-0.0500000007
										428:leaf=0.0500000007
								224:[SkimBToKEE_l1l2Dr<0.240066558] yes=345,no=346,missing=346
									345:[SkimBToKEE_l2_PFMvaID_retrained<2.77216625] yes=429,no=430,missing=430
										429:leaf=-0.0500000007
										430:leaf=0.00528226886
									346:[SkimBToKEE_D0_mass_LepToPi_KToK<3.59416676] yes=431,no=432,missing=432
										431:leaf=0.0500000007
										432:leaf=-0.0071415985
							126:[SkimBToKEE_lKDz<0.354003906] yes=225,no=226,missing=226
								225:[SkimBToKEE_fit_pt_over_mass<2.39234233] yes=347,no=348,missing=348
									347:[SkimBToKEE_D0_mass_LepToPi_KToK<3.09080577] yes=433,no=434,missing=434
										433:leaf=0.0248536523
										434:leaf=-0.0500000007
									348:[SkimBToKEE_l1_PFMvaID_retrained<-2.44515991] yes=435,no=436,missing=436
										435:leaf=-0.0500000007
										436:leaf=0.0500000007
								226:[SkimBToKEE_fit_cos2D<0.999997973] yes=349,no=350,missing=350
									349:[SkimBToKEE_k_svip3d_sig<2.98020005] yes=437,no=438,missing=438
										437:leaf=0.0469283722
										438:leaf=-0.0500000007
									350:[SkimBToKEE_l1l2Dz<0.046875] yes=439,no=440,missing=440
										439:leaf=-0.0500000007
										440:leaf=0.0440090559
						68:[SkimBToKEE_l2_PFMvaID_Fall17<3.91824985] yes=127,no=128,missing=128
							127:leaf=-0.0500000007
							128:[SkimBToKEE_l1l2Dr<0.2678653] yes=227,no=228,missing=228
								227:[SkimBToKEE_fit_cos2D<0.999950945] yes=351,no=352,missing=352
									351:[SkimBToKEE_D0_mass_LepToPi_KToK<2.80341125] yes=441,no=442,missing=442
										441:leaf=0.0261019412
										442:leaf=-0.0500000007
									352:[SkimBToKEE_k_svip3d_sig<4.37676811] yes=443,no=444,missing=444
										443:leaf=0.0500000007
										444:leaf=-0.0500000007
								228:[SkimBToKEE_fit_pt_over_mass<3.19441843] yes=353,no=354,missing=354
									353:[SkimBToKEE_D0_mass_LepToPi_KToK<2.8935442] yes=445,no=446,missing=446
										445:leaf=0.0311002415
										446:leaf=-0.0500000007
									354:[SkimBToKEE_D0_mass_LepToPi_KToK<3.90786958] yes=447,no=448,missing=448
										447:leaf=0.0500000007
										448:leaf=-0.0250175875
					36:[SkimBToKEE_fit_cos2D<0.998789668] yes=69,no=70,missing=70
						69:[SkimBToKEE_fit_k_pt<2.55865431] yes=129,no=130,missing=130
							129:leaf=0.0500000007
							130:[SkimBToKEE_l2_PFMvaID_retrained<1.80803573] yes=229,no=230,missing=230
								229:leaf=-0.0500000007
								230:[SkimBToKEE_fit_cos2D<0.963527024] yes=355,no=356,missing=356
									355:[SkimBToKEE_D0_mass_LepToPi_KToK<2.74329734] yes=449,no=450,missing=450
										449:leaf=0.0224100929
										450:leaf=-0.0500000007
									356:[SkimBToKEE_D0_mass_LepToPi_KToK<3.74225593] yes=451,no=452,missing=452
										451:leaf=0.0475586392
										452:leaf=-0.0500000007
						70:[SkimBToKEE_l1_PFMvaID_retrained<-2.26255369] yes=131,no=132,missing=132
							131:[SkimBToKEE_fit_k_pt<2.55865431] yes=231,no=232,missing=232
								231:leaf=0.0500000007
								232:[SkimBToKEE_l2_PFMvaID_retrained<1.15725708] yes=357,no=358,missing=358
									357:[SkimBToKEE_l1_PFMvaID_Fall17<2.66183639] yes=453,no=454,missing=454
										453:leaf=-0.0500000007
										454:leaf=0.0187285244
									358:[SkimBToKEE_k_svip3d_sig<3.31805754] yes=455,no=456,missing=456
										455:leaf=0.0409700535
										456:leaf=-0.0446296856
							132:[SkimBToKEE_fit_k_pt<2.87883663] yes=233,no=234,missing=234
								233:[SkimBToKEE_fit_l2_pt<4.07296228] yes=359,no=360,missing=360
									359:[SkimBToKEE_k_svip3d_sig<2.18016553] yes=457,no=458,missing=458
										457:leaf=0.0281998012
										458:leaf=-0.0500000007
									360:[SkimBToKEE_l2_PFMvaID_retrained<-4.20798397] yes=459,no=460,missing=460
										459:leaf=-0.0485760868
										460:leaf=0.0500000007
								234:[SkimBToKEE_fit_l2_pt<11.8404732] yes=361,no=362,missing=362
									361:leaf=-0.0500000007
									362:leaf=0.026303634
				18:[SkimBToKEE_l2_PFMvaID_Fall17<-0.847067833] yes=37,no=38,missing=38
					37:[SkimBToKEE_fit_cos2D<0.999197662] yes=71,no=72,missing=72
						71:[SkimBToKEE_fit_k_pt_over_mass<0.569124401] yes=133,no=134,missing=134
							133:[SkimBToKEE_fit_k_pt<2.87883663] yes=235,no=236,missing=236
								235:leaf=0.0467129126
								236:leaf=-0.0500000007
							134:leaf=0.0474112034
						72:[SkimBToKEE_l1_PFMvaID_retrained<-0.877693951] yes=135,no=136,missing=136
							135:[SkimBToKEE_fit_k_pt<2.87883663] yes=237,no=238,missing=238
								237:leaf=0.0214174595
								238:[SkimBToKEE_l2_PFMvaID_retrained<-1.27257788] yes=363,no=364,missing=364
									363:leaf=-0.0500000007
									364:leaf=0.00259008957
							136:[SkimBToKEE_lKDz<0.229492188] yes=239,no=240,missing=240
								239:leaf=0.0500000007
								240:leaf=-0.0310150664
					38:[SkimBToKEE_l1_PFMvaID_retrained<-3.01484728] yes=73,no=74,missing=74
						73:[SkimBToKEE_fit_k_pt<2.87883663] yes=137,no=138,missing=138
							137:leaf=0.0440362655
							138:[SkimBToKEE_b_iso04_dca<3.04101562] yes=241,no=242,missing=242
								241:[SkimBToKEE_fit_cos2D<0.99913764] yes=365,no=366,missing=366
									365:[SkimBToKEE_D0_mass_LepToPi_KToK<3.68146658] yes=461,no=462,missing=462
										461:leaf=0.00728333509
										462:leaf=-0.0382693596
									366:leaf=0.0415264554
								242:leaf=-0.0500000007
						74:[SkimBToKEE_fit_l2_pt_over_mass<0.953640878] yes=139,no=140,missing=140
							139:[SkimBToKEE_fit_k_pt<2.87883663] yes=243,no=244,missing=244
								243:leaf=0.019036876
								244:leaf=-0.0500000007
							140:[SkimBToKEE_fit_cos2D<-0.333509058] yes=245,no=246,missing=246
								245:[SkimBToKEE_b_iso04<17.9003906] yes=367,no=368,missing=368
									367:[SkimBToKEE_D0_mass_LepToPi_KToK<3.68918991] yes=463,no=464,missing=464
										463:leaf=0.0488771833
										464:leaf=-0.0282218792
									368:[SkimBToKEE_l_xy_sig<0.850256562] yes=465,no=466,missing=466
										465:leaf=0.0144507503
										466:leaf=-0.0500000007
								246:[SkimBToKEE_l2_n_isotrk_dca<11] yes=369,no=370,missing=370
									369:[SkimBToKEE_k_svip3d_sig<11.4949713] yes=467,no=468,missing=468
										467:leaf=0.0500000007
										468:leaf=-0.027797481
									370:[SkimBToKEE_k_svip3d_sig<3.70632648] yes=469,no=470,missing=470
										469:leaf=0.0269488785
										470:leaf=-0.0270324443
		4:[SkimBToKEE_k_svip3d_sig<3.60365367] yes=9,no=10,missing=10
			9:[SkimBToKEE_D0_mass_LepToPi_KToK<3.61058021] yes=19,no=20,missing=20
				19:[SkimBToKEE_fit_l2_pt<8.09594822] yes=39,no=40,missing=40
					39:[SkimBToKEE_l_xy_sig<6.39643145] yes=75,no=76,missing=76
						75:[SkimBToKEE_l2_PFMvaID_retrained<2.4980731] yes=141,no=142,missing=142
							141:leaf=-0.0500000007
							142:leaf=0.00432721851
						76:[SkimBToKEE_b_iso04_dca<5.17675781] yes=143,no=144,missing=144
							143:leaf=0.0500000007
							144:leaf=-0.0288280528
					40:[SkimBToKEE_l1_PFMvaID_retrained<-4.90483952] yes=77,no=78,missing=78
						77:[SkimBToKEE_D0_mass_LepToPi_KToK<2.78400898] yes=145,no=146,missing=146
							145:leaf=0.0384312123
							146:leaf=-0.0500000007
						78:[SkimBToKEE_fit_k_pt_over_mass<0.0922391191] yes=147,no=148,missing=148
							147:[SkimBToKEE_l1_iso04<14.3496094] yes=247,no=248,missing=248
								247:leaf=-0.000733223103
								248:leaf=-0.0500000007
							148:[SkimBToKEE_fit_l2_pt_over_mass<1.80282545] yes=249,no=250,missing=250
								249:[SkimBToKEE_l1l2Dr<0.254398763] yes=371,no=372,missing=372
									371:[SkimBToKEE_fit_cos2D<0.999970138] yes=471,no=472,missing=472
										471:leaf=-0.0500000007
										472:leaf=0.009663417
									372:leaf=0.0500000007
								250:leaf=0.0500000007
				20:[SkimBToKEE_l_xy_sig<10.3246822] yes=41,no=42,missing=42
					41:[SkimBToKEE_fit_k_pt_over_mass<0.494283974] yes=79,no=80,missing=80
						79:leaf=-0.0500000007
						80:[SkimBToKEE_fit_cos2D<0.958494544] yes=149,no=150,missing=150
							149:leaf=-0.0135222813
							150:leaf=0.0464020334
					42:[SkimBToKEE_fit_cos2D<0.99960798] yes=81,no=82,missing=82
						81:[SkimBToKEE_lKDz<0.0313415527] yes=151,no=152,missing=152
							151:leaf=0.0087080244
							152:leaf=-0.0500000007
						82:[SkimBToKEE_l1_PFMvaID_retrained<-2.12177157] yes=153,no=154,missing=154
							153:leaf=-0.0416474454
							154:[SkimBToKEE_l1_iso04<27.3945312] yes=251,no=252,missing=252
								251:[SkimBToKEE_fit_k_pt<0.541419923] yes=373,no=374,missing=374
									373:leaf=-0.00234129257
									374:leaf=0.0500000007
								252:[SkimBToKEE_lKDz<0.154724121] yes=375,no=376,missing=376
									375:leaf=0.0166858323
									376:leaf=-0.0382766947
			10:[SkimBToKEE_D0_mass_LepToPi_KToK<2.80341125] yes=21,no=22,missing=22
				21:[SkimBToKEE_fit_l2_pt<9.15525532] yes=43,no=44,missing=44
					43:[SkimBToKEE_fit_l1_pt<8.85394001] yes=83,no=84,missing=84
						83:leaf=0.0122025702
						84:[SkimBToKEE_fit_l2_pt_over_mass<1.65329027] yes=155,no=156,missing=156
							155:[SkimBToKEE_l1l2Dr<0.355272412] yes=253,no=254,missing=254
								253:leaf=-0.0500000007
								254:leaf=0.00160863751
							156:leaf=0.0163303968
					44:[SkimBToKEE_lKDz<1.59960938] yes=85,no=86,missing=86
						85:[SkimBToKEE_fit_l1_pt<27.8340149] yes=157,no=158,missing=158
							157:[SkimBToKEE_l1l2Dr<0.110035025] yes=255,no=256,missing=256
								255:leaf=-0.00391139649
								256:leaf=0.0500000007
							158:[SkimBToKEE_l1l2Dr<0.134172276] yes=257,no=258,missing=258
								257:leaf=-0.0500000007
								258:leaf=0.0384916514
						86:leaf=-0.0329984799
				22:[SkimBToKEE_fit_l2_pt<19.9375324] yes=45,no=46,missing=46
					45:[SkimBToKEE_l1l2Dr<0.33577475] yes=87,no=88,missing=88
						87:[SkimBToKEE_D0_mass_LepToPi_KToK<3.03519773] yes=159,no=160,missing=160
							159:[SkimBToKEE_fit_l2_pt_over_mass<2.2106092] yes=259,no=260,missing=260
								259:[SkimBToKEE_l1l2Dr<0.286685705] yes=377,no=378,missing=378
									377:[SkimBToKEE_k_svip3d_sig<4.37676811] yes=473,no=474,missing=474
										473:leaf=-0.00082882616
										474:leaf=-0.0500000007
									378:[SkimBToKEE_fit_pt<18.7327747] yes=475,no=476,missing=476
										475:leaf=-0.0352776647
										476:leaf=0.0299902614
								260:[SkimBToKEE_fit_cos2D<0.97896874] yes=379,no=380,missing=380
									379:[SkimBToKEE_l1_iso04_dca<1.98193359] yes=477,no=478,missing=478
										477:leaf=0.0260595419
										478:leaf=-0.0305302497
									380:[SkimBToKEE_l1_iso04_dca<6.58105469] yes=479,no=480,missing=480
										479:leaf=0.0500000007
										480:leaf=0.00132709963
							160:[SkimBToKEE_l1_iso04<4.78271484] yes=261,no=262,missing=262
								261:[SkimBToKEE_fit_l2_pt<9.47769833] yes=381,no=382,missing=382
									381:leaf=-0.0500000007
									382:[SkimBToKEE_l1l2Dz<0.00610351562] yes=481,no=482,missing=482
										481:leaf=-0.035196472
										482:leaf=0.0500000007
								262:leaf=-0.0500000007
						88:[SkimBToKEE_fit_l2_pt_over_mass<1.4242245] yes=161,no=162,missing=162
							161:leaf=-0.0500000007
							162:leaf=0.0500000007
					46:[SkimBToKEE_l1l2Dr<0.141987845] yes=89,no=90,missing=90
						89:[SkimBToKEE_b_iso04<9.54541016] yes=163,no=164,missing=164
							163:leaf=0.0216377974
							164:[SkimBToKEE_fit_l1_phi<-2.39024544] yes=263,no=264,missing=264
								263:leaf=0.00326429307
								264:[SkimBToKEE_l2_n_isotrk_dca<1] yes=383,no=384,missing=384
