booster[0]:
0:[BToKEE_fit_l2_pt<13.5379171] yes=1,no=2,missing=2
	1:leaf=-0.0500000007
	2:[BToKEE_l1_PFMvaID_retrained<-1.33371854] yes=3,no=4,missing=4
		3:[BToKEE_l2_PFMvaID_retrained<1.33061397] yes=5,no=6,missing=6
			5:leaf=-0.0500000007
			6:[BToKEE_l1_PFMvaID_retrained<-3.18348432] yes=9,no=10,missing=10
				9:[BToKEE_l1_PFMvaID_retrained<-3.95380116] yes=11,no=12,missing=12
					11:leaf=-0.0500000007
					12:[BToKEE_l2_PFMvaID_retrained<2.36438608] yes=13,no=14,missing=14
						13:leaf=0.0113635547
						14:leaf=-0.023475986
				10:leaf=0.0478927158
		4:[BToKEE_l2_PFMvaID_retrained<-0.831082761] yes=7,no=8,missing=8
			7:leaf=-0.0500000007
			8:leaf=0.0500000007
booster[1]:
0:[BToKEE_l2_PFMvaID_retrained<1.93283916] yes=1,no=2,missing=2
	1:[BToKEE_l2_PFMvaID_retrained<1.51641285] yes=3,no=4,missing=4
		3:leaf=-0.0500000007
		4:[BToKEE_fit_pt<22.1492405] yes=7,no=8,missing=8
			7:[BToKEE_fit_pt<19.5351601] yes=13,no=14,missing=14
				13:leaf=-0.0500000007
				14:[BToKEE_l1_PFMvaID_retrained<-1.52603996] yes=25,no=26,missing=26
					25:leaf=-0.0500000007
					26:[BToKEE_l1_PFMvaID_retrained<-1.14053106] yes=43,no=44,missing=44
						43:leaf=0.019407101
						44:[BToKEE_l1_PFMvaID_retrained<0.184866816] yes=61,no=62,missing=62
							61:leaf=-0.0294363089
							62:[BToKEE_fit_pt<19.6281471] yes=73,no=74,missing=74
								73:leaf=0.00166800234
								74:[BToKEE_l1_PFMvaID_retrained<0.925014496] yes=89,no=90,missing=90
									89:[BToKEE_l1_PFMvaID_retrained<0.560558617] yes=107,no=108,missing=108
										107:leaf=-0.0155754313
										108:leaf=0.00844188873
									90:leaf=-0.0229500718
			8:[BToKEE_fit_pt<29.3311386] yes=15,no=16,missing=16
				15:[BToKEE_l1_PFMvaID_retrained<-2.59495974] yes=27,no=28,missing=28
					27:leaf=-0.0500000007
					28:[BToKEE_l1_PFMvaID_retrained<2.48919749] yes=45,no=46,missing=46
						45:[BToKEE_l1_PFMvaID_retrained<-1.6709578] yes=63,no=64,missing=64
							63:leaf=-0.00665159104
							64:[BToKEE_fit_pt<23.6410618] yes=75,no=76,missing=76
								75:[BToKEE_l1_PFMvaID_retrained<2.16694927] yes=91,no=92,missing=92
									91:[BToKEE_l1_PFMvaID_retrained<1.99831557] yes=109,no=110,missing=110
										109:leaf=0.00234531518
										110:leaf=-0.0242140982
									92:leaf=0.0418243706
								76:[BToKEE_l1_PFMvaID_retrained<1.99831557] yes=93,no=94,missing=94
									93:leaf=0.0297228303
									94:leaf=0.0139561091
						46:[BToKEE_l1_PFMvaID_retrained<2.56536198] yes=65,no=66,missing=66
							65:leaf=-0.0260987431
							66:[BToKEE_fit_pt<25.7438202] yes=77,no=78,missing=78
								77:leaf=0.000813095307
								78:leaf=0.0291026589
				16:[BToKEE_l1_PFMvaID_retrained<-2.68088818] yes=29,no=30,missing=30
					29:leaf=-0.0500000007
					30:leaf=0.0499551408
	2:[BToKEE_l2_PFMvaID_retrained<2.59834456] yes=5,no=6,missing=6
		5:[BToKEE_fit_pt<20.525547] yes=9,no=10,missing=10
			9:[BToKEE_fit_pt<18.3529968] yes=17,no=18,missing=18
				17:leaf=-0.0500000007
				18:[BToKEE_l1_PFMvaID_retrained<-1.33371854] yes=31,no=32,missing=32
					31:leaf=-0.0500000007
					32:[BToKEE_l1_PFMvaID_retrained<2.65200329] yes=47,no=48,missing=48
						47:[BToKEE_l1_PFMvaID_retrained<2.56536198] yes=67,no=68,missing=68
							67:[BToKEE_fit_pt<18.9202785] yes=79,no=80,missing=80
								79:leaf=-0.0159644764
								80:[BToKEE_l1_PFMvaID_retrained<2.41810822] yes=95,no=96,missing=96
									95:[BToKEE_l1_PFMvaID_retrained<1.74950755] yes=111,no=112,missing=112
										111:leaf=-0.00487468252
										112:leaf=-0.0176611003
									96:leaf=0.0157927349
							68:leaf=0.0123778749
						48:leaf=-0.0293501951
			10:[BToKEE_fit_pt<23.8368931] yes=19,no=20,missing=20
				19:[BToKEE_l1_PFMvaID_retrained<-2.1875546] yes=33,no=34,missing=34
					33:leaf=-0.0500000007
					34:[BToKEE_l1_PFMvaID_retrained<3.41922045] yes=49,no=50,missing=50
						49:[BToKEE_l1_PFMvaID_retrained<-0.0535900071] yes=69,no=70,missing=70
							69:[BToKEE_fit_pt<22.1492405] yes=81,no=82,missing=82
								81:leaf=-0.0112044131
								82:[BToKEE_l1_PFMvaID_retrained<-1.43038511] yes=97,no=98,missing=98
									97:leaf=0.0276840758
									98:[BToKEE_l1_PFMvaID_retrained<-0.843853533] yes=113,no=114,missing=114
										113:leaf=-0.0217137448
										114:leaf=0.00454495056
							70:[BToKEE_fit_pt<22.4429665] yes=83,no=84,missing=84
								83:[BToKEE_l1_PFMvaID_retrained<1.47091758] yes=99,no=100,missing=100
									99:leaf=0.0149065573
									100:[BToKEE_l1_PFMvaID_retrained<1.51738262] yes=115,no=116,missing=116
										115:leaf=-0.0263375137
										116:leaf=0.000155880392
								84:[BToKEE_l1_PFMvaID_retrained<3.15766859] yes=101,no=102,missing=102
									101:[BToKEE_l1_PFMvaID_retrained<1.56386912] yes=117,no=118,missing=118
										117:leaf=0.0146984747
										118:leaf=0.0307846703
									102:leaf=-0.0137234675
						50:leaf=-0.0319176428
				20:[BToKEE_l1_PFMvaID_retrained<-2.63809156] yes=35,no=36,missing=36
					35:[BToKEE_l1_PFMvaID_retrained<-2.89259791] yes=51,no=52,missing=52
						51:leaf=-0.0500000007
						52:leaf=-0.00675715134
					36:[BToKEE_l1_PFMvaID_retrained<-2.32652283] yes=53,no=54,missing=54
						53:leaf=0.00532801216
						54:[BToKEE_l1_PFMvaID_retrained<2.7480669] yes=71,no=72,missing=72
							71:[BToKEE_fit_pt<29.9479198] yes=85,no=86,missing=86
								85:[BToKEE_l1_PFMvaID_retrained<0.232302293] yes=103,no=104,missing=104
									103:[BToKEE_l1_PFMvaID_retrained<0.184866816] yes=119,no=120,missing=120
										119:leaf=0.0306685511
										120:leaf=-0.0056415163
									104:leaf=0.0407841243
								86:leaf=0.0500000007
							72:[BToKEE_fit_pt<27.4049549] yes=87,no=88,missing=88
								87:[BToKEE_l1_PFMvaID_retrained<3.41922045] yes=105,no=106,missing=106
									105:leaf=0.0217473879
									106:leaf=-0.0121287843
								88:leaf=0.0455000401
		6:[BToKEE_fit_pt<20.6341896] yes=11,no=12,missing=12
			11:[BToKEE_fit_pt<17.1348629] yes=21,no=22,missing=22
				21:leaf=-0.0500000007
				22:[BToKEE_l1_PFMvaID_retrained<-1.19041204] yes=37,no=38,missing=38
					37:leaf=-0.0500000007
					38:[BToKEE_l1_PFMvaID_retrained<3.15766859] yes=55,no=56,missing=56
						55:leaf=-0.00755820423
						56:leaf=0.00501787756
			12:[BToKEE_fit_pt<23.2695351] yes=23,no=24,missing=24
				23:[BToKEE_l1_PFMvaID_retrained<-2.00177526] yes=39,no=40,missing=40
					39:leaf=-0.0500000007
					40:leaf=0.0176344048
				24:[BToKEE_l1_PFMvaID_retrained<-2.59495974] yes=41,no=42,missing=42
					41:[BToKEE_l1_PFMvaID_retrained<-3.22291732] yes=57,no=58,missing=58
						57:leaf=-0.0500000007
						58:leaf=-0.00270023942
					42:[BToKEE_l1_PFMvaID_retrained<-2.14068389] yes=59,no=60,missing=60
						59:leaf=0.00937735196
						60:leaf=0.0500000007
booster[2]:
0:[BToKEE_l2_PFMvaID_retrained<1.85892892] yes=1,no=2,missing=2
	1:[BToKEE_l2_PFMvaID_retrained<1.33061397] yes=3,no=4,missing=4
		3:leaf=-0.0500000007
		4:[BToKEE_l2_PFMvaID_retrained<1.51641285] yes=7,no=8,missing=8
			7:leaf=-0.0448684059
			8:leaf=-0.0407140218
	2:[BToKEE_l2_PFMvaID_retrained<2.59834456] yes=5,no=6,missing=6
		5:[BToKEE_l2_PFMvaID_retrained<2.01007199] yes=9,no=10,missing=10
			9:leaf=-0.0303378254
			10:[BToKEE_l2_PFMvaID_retrained<2.36438608] yes=13,no=14,missing=14
				13:[BToKEE_fit_pt<21.3477612] yes=17,no=18,missing=18
					17:[BToKEE_fit_pt<18.3529968] yes=25,no=26,missing=26
						25:[BToKEE_fit_l2_pt<8.92037582] yes=41,no=42,missing=42
							41:[BToKEE_fit_l2_pt<8.44021034] yes=69,no=70,missing=70
								69:leaf=-0.0500000007
								70:leaf=-0.0192824919
							42:[BToKEE_fit_l2_pt<11.3293705] yes=71,no=72,missing=72
								71:leaf=0.0316064432
								72:leaf=-0.00672429008
						26:[BToKEE_fit_l2_pt<10.0392284] yes=43,no=44,missing=44
							43:[BToKEE_fit_l2_pt<9.62362003] yes=73,no=74,missing=74
								73:[BToKEE_l2_PFMvaID_retrained<2.09053755] yes=107,no=108,missing=108
									107:leaf=-0.0264259968
									108:leaf=-0.0425520204
								74:[BToKEE_l2_PFMvaID_retrained<2.26465011] yes=109,no=110,missing=110
									109:[BToKEE_fit_pt<20.0144577] yes=117,no=118,missing=118
										117:leaf=0.0203985106
										118:leaf=-0.0273584928
									110:leaf=-0.0315058604
							44:[BToKEE_fit_l2_pt<11.1058712] yes=75,no=76,missing=76
								75:leaf=0.0265905559
								76:leaf=0.0500000007
					18:[BToKEE_fit_pt<24.2540417] yes=27,no=28,missing=28
						27:[BToKEE_fit_l2_pt<11.3293705] yes=45,no=46,missing=46
							45:[BToKEE_fit_l2_pt<7.96147108] yes=77,no=78,missing=78
								77:leaf=-0.00405516522
								78:leaf=-0.0146801621
							46:leaf=0.0500000007
						28:[BToKEE_fit_l2_pt<13.5379171] yes=47,no=48,missing=48
							47:[BToKEE_fit_l2_pt<7.96147108] yes=79,no=80,missing=80
								79:leaf=0.00542059354
								80:leaf=0.032160297
							48:leaf=0.0500000007
				14:[BToKEE_fit_pt<20.525547] yes=19,no=20,missing=20
					19:[BToKEE_fit_pt<18.3529968] yes=29,no=30,missing=30
						29:[BToKEE_fit_l2_pt<8.78795528] yes=49,no=50,missing=50
							49:leaf=-0.0500000007
							50:[BToKEE_fit_l2_pt<9.05600834] yes=81,no=82,missing=82
								81:[BToKEE_l2_PFMvaID_retrained<2.47527456] yes=111,no=112,missing=112
									111:leaf=0.0201053079
									112:leaf=-0.0131353736
								82:leaf=0.0416209176
						30:[BToKEE_fit_l2_pt<9.44297981] yes=51,no=52,missing=52
							51:leaf=-0.0364403203
							52:[BToKEE_fit_l2_pt<10.1563959] yes=83,no=84,missing=84
								83:leaf=0.0120650446
								84:leaf=0.044500526
					20:[BToKEE_fit_pt<27.4049549] yes=31,no=32,missing=32
						31:[BToKEE_fit_l2_pt<11.5616913] yes=53,no=54,missing=54
							53:[BToKEE_fit_l2_pt<5.78883123] yes=85,no=86,missing=86
								85:leaf=-0.0444661155
								86:leaf=-0.00280276267
							54:leaf=0.0500000007
						32:leaf=0.0500000007
		6:[BToKEE_l2_PFMvaID_retrained<3.2320857] yes=11,no=12,missing=12
			11:[BToKEE_l2_PFMvaID_retrained<2.93434834] yes=15,no=16,missing=16
				15:[BToKEE_fit_pt<20.751461] yes=21,no=22,missing=22
					21:[BToKEE_fit_pt<17.477356] yes=33,no=34,missing=34
						33:[BToKEE_fit_l2_pt<8.44021034] yes=55,no=56,missing=56
							55:[BToKEE_fit_l2_pt<8.18666267] yes=87,no=88,missing=88
								87:leaf=-0.0500000007
								88:leaf=-0.0129741346
							56:[BToKEE_fit_l2_pt<10.7347927] yes=89,no=90,missing=90
								89:leaf=0.0309809577
								90:leaf=-0.00935387518
						34:[BToKEE_fit_l2_pt<9.28075409] yes=57,no=58,missing=58
							57:[BToKEE_fit_l2_pt<8.33557034] yes=91,no=92,missing=92
								91:leaf=-0.049134966
								92:leaf=-0.0258323997
							58:[BToKEE_fit_l2_pt<9.92709732] yes=93,no=94,missing=94
								93:leaf=0.00401378004
								94:leaf=0.0416069366
					22:[BToKEE_fit_pt<25.7438202] yes=35,no=36,missing=36
						35:[BToKEE_fit_l2_pt<11.1058712] yes=59,no=60,missing=60
							59:[BToKEE_fit_l2_pt<7.59140921] yes=95,no=96,missing=96
								95:[BToKEE_l2_PFMvaID_retrained<2.74810934] yes=113,no=114,missing=114
									113:leaf=-0.0346370265
									114:leaf=-0.000665034459
								96:leaf=-0.00228351704
							60:[BToKEE_fit_l2_pt<11.5616913] yes=97,no=98,missing=98
								97:[BToKEE_l2_PFMvaID_retrained<2.74810934] yes=115,no=116,missing=116
									115:[BToKEE_fit_pt<23.4552345] yes=119,no=120,missing=120
										119:leaf=0.0282567088
										120:leaf=-0.0254155844
									116:leaf=0.030747598
								98:leaf=0.0500000007
						36:[BToKEE_fit_l2_pt<11.8377886] yes=61,no=62,missing=62
							61:[BToKEE_fit_l2_pt<11.3293705] yes=99,no=100,missing=100
								99:leaf=0.0387126356
								100:leaf=0.00764599675
							62:leaf=0.0500000007
				16:[BToKEE_fit_pt<23.1000557] yes=23,no=24,missing=24
					23:[BToKEE_fit_pt<17.1348629] yes=37,no=38,missing=38
						37:[BToKEE_fit_l2_pt<8.38784885] yes=63,no=64,missing=64
							63:leaf=-0.0500000007
							64:leaf=0.0200232547
						38:[BToKEE_fit_l2_pt<9.92709732] yes=65,no=66,missing=66
							65:[BToKEE_fit_l2_pt<8.78795528] yes=101,no=102,missing=102
								101:leaf=-0.0423000753
								102:leaf=-0.0175141823
							66:[BToKEE_fit_l2_pt<10.4288445] yes=103,no=104,missing=104
								103:leaf=0.00858706888
								104:leaf=0.0495719984
					24:[BToKEE_fit_pt<31.4829235] yes=39,no=40,missing=40
						39:[BToKEE_fit_l2_pt<11.3293705] yes=67,no=68,missing=68
							67:[BToKEE_fit_l2_pt<10.1563959] yes=105,no=106,missing=106
								105:leaf=0.0280617531
								106:leaf=0.00805328321
							68:leaf=0.0500000007
						40:leaf=0.0500000007
			12:leaf=0.0181148928
booster[3]:
0:[BToKEE_l1_PFMvaID_retrained<2.98778105] yes=1,no=2,missing=2
	1:[BToKEE_fit_l2_pt<13.5379171] yes=3,no=4,missing=4
		3:leaf=-0.0500000007
		4:[BToKEE_l1_PFMvaID_retrained<-1.6709578] yes=7,no=8,missing=8
			7:[BToKEE_l2_PFMvaID_retrained<1.33061397] yes=11,no=12,missing=12
				11:leaf=-0.0500000007
				12:leaf=-0.00438710488
			8:[BToKEE_l2_PFMvaID_retrained<-0.831082761] yes=13,no=14,missing=14
				13:[BToKEE_l2_PFMvaID_retrained<-2.24037671] yes=19,no=20,missing=20
					19:leaf=-0.0500000007
					20:[BToKEE_fit_l2_pt<15.3337784] yes=29,no=30,missing=30
						29:[BToKEE_l2_PFMvaID_retrained<-1.32741344] yes=39,no=40,missing=40
							39:leaf=-0.011694557
							40:leaf=-0.0448817424
						30:[BToKEE_l2_PFMvaID_retrained<-1.68948209] yes=41,no=42,missing=42
							41:leaf=-0.0276372638
							42:leaf=0.00968896504
				14:[BToKEE_l2_PFMvaID_retrained<0.139462739] yes=21,no=22,missing=22
					21:leaf=0.0134826498
					22:leaf=0.0500000007
	2:[BToKEE_fit_l2_pt<9.1267767] yes=5,no=6,missing=6
		5:leaf=-0.0500000007
		6:[BToKEE_l1_PFMvaID_retrained<3.15766859] yes=9,no=10,missing=10
			9:[BToKEE_l2_PFMvaID_retrained<-0.125578031] yes=15,no=16,missing=16
				15:leaf=-0.0500000007
				16:[BToKEE_l2_PFMvaID_retrained<0.507429719] yes=23,no=24,missing=24
					23:[BToKEE_fit_l2_pt<12.1422081] yes=31,no=32,missing=32
						31:[BToKEE_l2_PFMvaID_retrained<0.460718483] yes=43,no=44,missing=44
							43:leaf=0.027300356
							44:leaf=-0.0130242435
						32:leaf=-0.0168377124
					24:[BToKEE_fit_l2_pt<9.62362003] yes=33,no=34,missing=34
						33:leaf=0.00094140874
						34:leaf=0.0500000007
			10:[BToKEE_l2_PFMvaID_retrained<0.183649823] yes=17,no=18,missing=18
				17:[BToKEE_l2_PFMvaID_retrained<-0.410540104] yes=25,no=26,missing=26
					25:leaf=-0.0500000007
					26:[BToKEE_fit_l2_pt<10.9128437] yes=35,no=36,missing=36
						35:[BToKEE_l2_PFMvaID_retrained<-0.290806502] yes=45,no=46,missing=46
							45:leaf=0.0139221875
							46:leaf=-0.0390913673
						36:leaf=0.0171130486
				18:[BToKEE_l2_PFMvaID_retrained<2.93434834] yes=27,no=28,missing=28
					27:[BToKEE_fit_l2_pt<10.2900391] yes=37,no=38,missing=38
						37:[BToKEE_l2_PFMvaID_retrained<0.507429719] yes=47,no=48,missing=48
							47:leaf=-0.0240060501
							48:[BToKEE_fit_l2_pt<10.1563959] yes=51,no=52,missing=52
								51:leaf=0.00696000038
								52:leaf=-0.018031789
						38:[BToKEE_l2_PFMvaID_retrained<0.981136084] yes=49,no=50,missing=50
							49:leaf=0.0124713173
							50:leaf=0.0370849594
					28:leaf=0.0467799865
booster[4]:
0:[BToKEE_l1_PFMvaID_retrained<2.85434389] yes=1,no=2,missing=2
	1:leaf=-0.0500000007
	2:[BToKEE_l1_PFMvaID_retrained<3.41922045] yes=3,no=4,missing=4
		3:leaf=-0.0422816798
		4:leaf=-0.035878554
booster[5]:
0:[BToKEE_l2_PFMvaID_retrained<1.85892892] yes=1,no=2,missing=2
	1:[BToKEE_fit_pt<37.4389915] yes=3,no=4,missing=4
		3:leaf=-0.0500000007
		4:[BToKEE_fit_pt<41.2353172] yes=7,no=8,missing=8
			7:[BToKEE_fit_l2_pt<7.47447491] yes=13,no=14,missing=14
				13:[BToKEE_l2_PFMvaID_retrained<-0.490143359] yes=25,no=26,missing=26
					25:leaf=-0.0500000007
					26:[BToKEE_fit_l2_pt<3.56417155] yes=39,no=40,missing=40
						39:leaf=-0.0354468189
						40:[BToKEE_fit_l2_pt<7.22094917] yes=55,no=56,missing=56
							55:leaf=0.0342545882
							56:leaf=-0.0126861995
				14:[BToKEE_l2_PFMvaID_retrained<-1.08621013] yes=27,no=28,missing=28
					27:leaf=-0.0500000007
					28:[BToKEE_fit_l2_pt<11.8377886] yes=41,no=42,missing=42
						41:[BToKEE_fit_l2_pt<10.1563959] yes=57,no=58,missing=58
							57:leaf=0.033456888
							58:leaf=0.0106674954
						42:leaf=0.0486651473
			8:[BToKEE_fit_l2_pt<7.43854332] yes=15,no=16,missing=16
				15:[BToKEE_l2_PFMvaID_retrained<0.411824226] yes=29,no=30,missing=30
					29:leaf=-0.0500000007
					30:[BToKEE_fit_l2_pt<4.47724104] yes=43,no=44,missing=44
						43:leaf=-0.0122274365
						44:leaf=0.0347155519
				16:[BToKEE_l2_PFMvaID_retrained<-0.869351983] yes=31,no=32,missing=32
					31:leaf=-0.0500000007
					32:leaf=0.0374812558
	2:[BToKEE_fit_pt<20.525547] yes=5,no=6,missing=6
		5:[BToKEE_fit_pt<17.477356] yes=9,no=10,missing=10
			9:[BToKEE_fit_l2_pt<8.28548908] yes=17,no=18,missing=18
				17:leaf=-0.0500000007
				18:[BToKEE_l2_PFMvaID_retrained<2.59834456] yes=33,no=34,missing=34
					33:[BToKEE_fit_l2_pt<8.60430527] yes=45,no=46,missing=46
						45:leaf=-0.00682265265
						46:[BToKEE_fit_l2_pt<10.2900391] yes=59,no=60,missing=60
							59:[BToKEE_fit_l2_pt<9.36170483] yes=71,no=72,missing=72
								71:leaf=0.0138544012
								72:leaf=0.0396449529
							60:leaf=-0.0119291721
					34:[BToKEE_fit_l2_pt<8.78795528] yes=47,no=48,missing=48
						47:leaf=0.0063649565
						48:[BToKEE_fit_l2_pt<11.3293705] yes=61,no=62,missing=62
							61:leaf=0.0416260734
							62:leaf=-0.00528224139
			10:[BToKEE_fit_l2_pt<9.53027153] yes=19,no=20,missing=20
				19:leaf=-0.0368980914
				20:leaf=0.0428358056
		6:[BToKEE_fit_pt<24.9472446] yes=11,no=12,missing=12
			11:[BToKEE_fit_l2_pt<11.3293705] yes=21,no=22,missing=22
				21:[BToKEE_l2_PFMvaID_retrained<2.74810934] yes=35,no=36,missing=36
					35:[BToKEE_fit_l2_pt<5.78883123] yes=49,no=50,missing=50
						49:leaf=-0.0430789441
						50:[BToKEE_fit_l2_pt<11.1058712] yes=63,no=64,missing=64
							63:[BToKEE_fit_l2_pt<7.70798016] yes=73,no=74,missing=74
								73:[BToKEE_fit_l2_pt<7.62888575] yes=79,no=80,missing=80
									79:[BToKEE_fit_l2_pt<7.39987612] yes=87,no=88,missing=88
										87:leaf=0.00141722779
										88:leaf=-0.0118477074
									80:leaf=0.0194378458
								74:[BToKEE_fit_l2_pt<10.9128437] yes=81,no=82,missing=82
									81:[BToKEE_fit_l2_pt<10.7347927] yes=89,no=90,missing=90
										89:leaf=-0.00898863375
										90:leaf=0.0131604327
									82:leaf=-0.0213585403
							64:leaf=0.0125447689
					36:[BToKEE_fit_l2_pt<10.4288445] yes=51,no=52,missing=52
						51:[BToKEE_fit_l2_pt<6.67396307] yes=65,no=66,missing=66
							65:leaf=-0.0376522355
							66:[BToKEE_fit_l2_pt<8.92037582] yes=75,no=76,missing=76
								75:[BToKEE_fit_l2_pt<8.66408825] yes=83,no=84,missing=84
									83:[BToKEE_fit_l2_pt<8.60430527] yes=91,no=92,missing=92
										91:leaf=0.000849195116
										92:leaf=-0.0193647705
									84:leaf=0.0147791235
								76:[BToKEE_fit_l2_pt<9.05600834] yes=85,no=86,missing=86
									85:leaf=-0.0238468815
									86:leaf=-0.00379900192
						52:[BToKEE_fit_l2_pt<10.9128437] yes=67,no=68,missing=68
							67:leaf=0.0143498844
							68:leaf=0.0406193174
				22:leaf=0.0500000007
			12:[BToKEE_fit_l2_pt<12.5116377] yes=23,no=24,missing=24
				23:[BToKEE_l2_PFMvaID_retrained<2.74810934] yes=37,no=38,missing=38
					37:[BToKEE_fit_l2_pt<6.64388657] yes=53,no=54,missing=54
						53:[BToKEE_fit_l2_pt<5.39423275] yes=69,no=70,missing=70
							69:leaf=-0.0252686143
							70:[BToKEE_fit_l2_pt<6.40791702] yes=77,no=78,missing=78
								77:leaf=0.0185382906
								78:leaf=-0.0167818144
						54:leaf=0.0325533412
					38:leaf=0.0422886424
				24:leaf=0.0500000007
booster[6]:
0:[BToKEE_l2_PFMvaID_retrained<1.51641285] yes=1,no=2,missing=2
	1:[BToKEE_l2_PFMvaID_retrained<1.09385622] yes=3,no=4,missing=4
		3:[BToKEE_fit_l2_pt<17.3617249] yes=7,no=8,missing=8
			7:leaf=-0.0500000007
			8:leaf=-0.0365798995
		4:[BToKEE_fit_l2_pt<9.36170483] yes=9,no=10,missing=10
			9:[BToKEE_fit_l2_pt<8.13883018] yes=15,no=16,missing=16
				15:[BToKEE_fit_l2_pt<7.22094917] yes=27,no=28,missing=28
					27:leaf=-0.0500000007
					28:[BToKEE_l2_PFMvaID_retrained<1.27206969] yes=47,no=48,missing=48
						47:[BToKEE_l1_PFMvaID_retrained<-0.297841758] yes=65,no=66,missing=66
							65:leaf=-0.0500000007
							66:leaf=-0.0289465636
						48:[BToKEE_l1_PFMvaID_retrained<-1.09150445] yes=67,no=68,missing=68
							67:leaf=-0.0500000007
							68:[BToKEE_fit_l2_pt<7.25691938] yes=101,no=102,missing=102
								101:leaf=0.00134479243
								102:[BToKEE_l2_PFMvaID_retrained<1.45255494] yes=119,no=120,missing=120
									119:[BToKEE_fit_l2_pt<7.59140921] yes=129,no=130,missing=130
										129:leaf=-0.026911689
										130:leaf=-0.0119109312
									120:leaf=-0.0304888636
				16:[BToKEE_fit_l2_pt<8.98765945] yes=29,no=30,missing=30
					29:leaf=-0.0258323792
					30:leaf=-0.0157036912
			10:[BToKEE_fit_l2_pt<10.7347927] yes=17,no=18,missing=18
				17:[BToKEE_fit_l2_pt<10.0392284] yes=31,no=32,missing=32
					31:[BToKEE_l2_PFMvaID_retrained<1.39073884] yes=49,no=50,missing=50
						49:[BToKEE_l1_PFMvaID_retrained<-2.00177526] yes=69,no=70,missing=70
							69:leaf=-0.0500000007
							70:[BToKEE_fit_l2_pt<9.92709732] yes=103,no=104,missing=104
								103:[BToKEE_l2_PFMvaID_retrained<1.15215003] yes=121,no=122,missing=122
									121:[BToKEE_fit_l2_pt<9.62362003] yes=131,no=132,missing=132
										131:leaf=0.0173561983
										132:leaf=-0.0235110633
									122:[BToKEE_fit_l2_pt<9.62362003] yes=133,no=134,missing=134
										133:leaf=0.00453486573
										134:leaf=0.0244147647
								104:leaf=-0.00910279807
						50:[BToKEE_l1_PFMvaID_retrained<-3.26264358] yes=71,no=72,missing=72
							71:leaf=-0.0500000007
							72:[BToKEE_fit_l2_pt<9.81945801] yes=105,no=106,missing=106
								105:leaf=0.0221791863
								106:leaf=-0.00666580349
					32:leaf=0.00759669906
				18:[BToKEE_fit_l2_pt<12.9680758] yes=33,no=34,missing=34
					33:[BToKEE_l2_PFMvaID_retrained<1.21183801] yes=51,no=52,missing=52
						51:[BToKEE_l1_PFMvaID_retrained<-2.50809503] yes=73,no=74,missing=74
							73:leaf=-0.0500000007
							74:leaf=0.0229401421
						52:[BToKEE_l1_PFMvaID_retrained<-2.32652283] yes=75,no=76,missing=76
							75:leaf=-0.0500000007
							76:leaf=0.0410263054
					34:leaf=0.0500000007
	2:[BToKEE_l2_PFMvaID_retrained<2.59834456] yes=5,no=6,missing=6
		5:[BToKEE_fit_l2_pt<8.49251938] yes=11,no=12,missing=12
			11:[BToKEE_fit_l2_pt<7.11850262] yes=19,no=20,missing=20
				19:leaf=-0.0500000007
				20:[BToKEE_fit_l2_pt<7.79034281] yes=35,no=36,missing=36
					35:[BToKEE_l2_PFMvaID_retrained<1.78843391] yes=53,no=54,missing=54
						53:[BToKEE_l1_PFMvaID_retrained<0.879762471] yes=77,no=78,missing=78
							77:leaf=-0.0500000007
							78:leaf=-0.0212447979
						54:[BToKEE_l1_PFMvaID_retrained<-0.892344058] yes=79,no=80,missing=80
							79:leaf=-0.0500000007
							80:[BToKEE_fit_l2_pt<7.36375237] yes=107,no=108,missing=108
								107:leaf=-0.0240677539
								108:leaf=-0.0147420913
					36:[BToKEE_l2_PFMvaID_retrained<1.71718252] yes=55,no=56,missing=56
						55:[BToKEE_l1_PFMvaID_retrained<-1.04095662] yes=81,no=82,missing=82
							81:leaf=-0.0500000007
							82:[BToKEE_fit_l2_pt<8.09220219] yes=109,no=110,missing=110
								109:leaf=-0.0285941157
								110:[BToKEE_l2_PFMvaID_retrained<1.58341205] yes=123,no=124,missing=124
									123:[BToKEE_fit_l2_pt<8.38784885] yes=135,no=136,missing=136
										135:leaf=0.0165867042
										136:leaf=-0.00924113393
									124:[BToKEE_fit_l2_pt<8.38784885] yes=137,no=138,missing=138
										137:leaf=-0.0193030685
										138:leaf=0.00588022731
						56:[BToKEE_l1_PFMvaID_retrained<-1.62371969] yes=83,no=84,missing=84
							83:leaf=-0.0500000007
							84:leaf=-0.0099509079
			12:[BToKEE_fit_l2_pt<11.1058712] yes=21,no=22,missing=22
				21:[BToKEE_fit_l2_pt<9.53027153] yes=37,no=38,missing=38
					37:[BToKEE_l2_PFMvaID_retrained<2.17407751] yes=57,no=58,missing=58
						57:[BToKEE_l1_PFMvaID_retrained<-2.14068389] yes=85,no=86,missing=86
							85:leaf=-0.0500000007
							86:[BToKEE_fit_l2_pt<9.36170483] yes=111,no=112,missing=112
								111:[BToKEE_l2_PFMvaID_retrained<1.65155327] yes=125,no=126,missing=126
									125:[BToKEE_fit_l2_pt<9.1267767] yes=139,no=140,missing=140
										139:leaf=-0.0010744239
										140:leaf=-0.0328026973
									126:[BToKEE_fit_l2_pt<8.60430527] yes=141,no=142,missing=142
										141:leaf=-0.0092463959
										142:leaf=0.00329315662
								112:leaf=0.00823730323
						58:[BToKEE_l1_PFMvaID_retrained<-1.90908873] yes=87,no=88,missing=88
							87:leaf=-0.0500000007
							88:[BToKEE_fit_l2_pt<9.20122147] yes=113,no=114,missing=114
								113:leaf=0.0100146709
								114:leaf=0.019306317
					38:[BToKEE_l2_PFMvaID_retrained<2.01007199] yes=59,no=60,missing=60
						59:[BToKEE_l1_PFMvaID_retrained<-2.55073953] yes=89,no=90,missing=90
							89:leaf=-0.0500000007
							90:[BToKEE_fit_l2_pt<10.2900391] yes=115,no=116,missing=116
								115:leaf=0.0124009633
								116:leaf=0.0271423366
						60:[BToKEE_l1_PFMvaID_retrained<-2.68088818] yes=91,no=92,missing=92
							91:leaf=-0.0500000007
							92:leaf=0.0264661498
				22:[BToKEE_fit_l2_pt<12.5116377] yes=39,no=40,missing=40
					39:[BToKEE_l2_PFMvaID_retrained<2.01007199] yes=61,no=62,missing=62
						61:[BToKEE_l1_PFMvaID_retrained<-2.76860476] yes=93,no=94,missing=94
							93:leaf=-0.0500000007
							94:leaf=0.0379782729
						62:[BToKEE_l1_PFMvaID_retrained<-2.63809156] yes=95,no=96,missing=96
							95:leaf=-0.0500000007
							96:leaf=0.0454910435
					40:leaf=0.0500000007
		6:[BToKEE_fit_l2_pt<9.05600834] yes=13,no=14,missing=14
			13:[BToKEE_fit_l2_pt<7.51261568] yes=23,no=24,missing=24
				23:[BToKEE_fit_l2_pt<6.70475912] yes=41,no=42,missing=42
					41:leaf=-0.0500000007
					42:leaf=-0.0355112888
				24:[BToKEE_fit_l2_pt<8.13883018] yes=43,no=44,missing=44
					43:leaf=-0.0186161175
					44:[BToKEE_l2_PFMvaID_retrained<3.2320857] yes=63,no=64,missing=64
						63:[BToKEE_l1_PFMvaID_retrained<-1.57490468] yes=97,no=98,missing=98
							97:leaf=-0.0500000007
							98:[BToKEE_fit_l2_pt<8.98765945] yes=117,no=118,missing=118
								117:leaf=0.00611428777
								118:[BToKEE_l2_PFMvaID_retrained<2.93434834] yes=127,no=128,missing=128
									127:leaf=-0.028274266
									128:leaf=0.0133672897
						64:[BToKEE_l1_PFMvaID_retrained<-3.49951553] yes=99,no=100,missing=100
							99:leaf=-0.0500000007
							100:leaf=0.0235830508
			14:[BToKEE_fit_l2_pt<11.3293705] yes=25,no=26,missing=26
				25:[BToKEE_fit_l2_pt<9.92709732] yes=45,no=46,missing=46
					45:leaf=0.0141056357
					46:leaf=0.0296621919
				26:leaf=0.0500000007
booster[7]:
0:[BToKEE_l2_PFMvaID_retrained<1.45255494] yes=1,no=2,missing=2
	1:leaf=-0.0500000007
	2:[BToKEE_fit_pt<20.3119202] yes=3,no=4,missing=4
		3:[BToKEE_l2_PFMvaID_retrained<2.59834456] yes=5,no=6,missing=6
			5:[BToKEE_fit_pt<17.477356] yes=9,no=10,missing=10
				9:leaf=-0.0500000007
				10:[BToKEE_fit_pt<19.2639866] yes=17,no=18,missing=18
					17:[BToKEE_fit_pt<18.3529968] yes=31,no=32,missing=32
						31:[BToKEE_l1_PFMvaID_retrained<-1.86119282] yes=45,no=46,missing=46
							45:leaf=-0.0500000007
							46:[BToKEE_l2_PFMvaID_retrained<2.17407751] yes=71,no=72,missing=72
								71:[BToKEE_l1_PFMvaID_retrained<0.513605595] yes=93,no=94,missing=94
									93:leaf=-0.0192482006
									94:[BToKEE_fit_pt<17.5473499] yes=123,no=124,missing=124
										123:leaf=-0.00311436201
										124:leaf=-0.0334419124
								72:[BToKEE_l1_PFMvaID_retrained<0.232302293] yes=95,no=96,missing=96
									95:[BToKEE_fit_pt<17.9730911] yes=125,no=126,missing=126
										125:leaf=0.0174593907
										126:leaf=-0.0123860566
									96:[BToKEE_fit_pt<17.8978825] yes=127,no=128,missing=128
										127:leaf=-0.0102683371
										128:leaf=-0.0276519191
						32:[BToKEE_l1_PFMvaID_retrained<-1.43038511] yes=47,no=48,missing=48
							47:leaf=-0.0500000007
							48:[BToKEE_l2_PFMvaID_retrained<2.01007199] yes=73,no=74,missing=74
								73:leaf=-0.0250714459
								74:[BToKEE_l1_PFMvaID_retrained<2.7480669] yes=97,no=98,missing=98
									97:[BToKEE_fit_pt<18.6758537] yes=129,no=130,missing=130
										129:leaf=-0.00697854627
										130:leaf=0.0057264925
									98:leaf=-0.0306537785
					18:[BToKEE_fit_pt<20.0144577] yes=33,no=34,missing=34
						33:[BToKEE_l1_PFMvaID_retrained<-1.33371854] yes=49,no=50,missing=50
							49:leaf=-0.0500000007
							50:[BToKEE_l2_PFMvaID_retrained<1.78843391] yes=75,no=76,missing=76
								75:[BToKEE_l1_PFMvaID_retrained<1.94708025] yes=99,no=100,missing=100
									99:[BToKEE_fit_pt<19.3555183] yes=131,no=132,missing=132
										131:leaf=0.0280677583
										132:leaf=-0.00837298762
									100:[BToKEE_fit_pt<19.5351601] yes=133,no=134,missing=134
										133:leaf=-0.0418793038
										134:leaf=-0.0128528271
								76:[BToKEE_l1_PFMvaID_retrained<2.35191345] yes=101,no=102,missing=102
									101:leaf=0.00311026745
									102:[BToKEE_fit_pt<19.912035] yes=135,no=136,missing=136
										135:leaf=-0.0172708761
										136:leaf=0.010653344
						34:[BToKEE_l1_PFMvaID_retrained<-0.449019909] yes=51,no=52,missing=52
							51:leaf=-0.0500000007
							52:[BToKEE_l2_PFMvaID_retrained<2.47527456] yes=77,no=78,missing=78
								77:leaf=-0.0146100586
								78:leaf=0.0094584683
			6:[BToKEE_fit_pt<17.1348629] yes=11,no=12,missing=12
				11:[BToKEE_fit_pt<15.1734142] yes=19,no=20,missing=20
					19:leaf=-0.0500000007
					20:[BToKEE_fit_pt<15.2304659] yes=35,no=36,missing=36
						35:leaf=0.000169560342
						36:[BToKEE_l1_PFMvaID_retrained<-0.547493398] yes=53,no=54,missing=54
							53:leaf=-0.0500000007
							54:leaf=-0.0290191956
				12:[BToKEE_fit_pt<19.4467831] yes=21,no=22,missing=22
					21:leaf=-0.0179810375
					22:[BToKEE_fit_pt<19.912035] yes=37,no=38,missing=38
						37:[BToKEE_l1_PFMvaID_retrained<0.0919102952] yes=55,no=56,missing=56
							55:leaf=-0.0363379717
							56:leaf=0.0235390775
						38:[BToKEE_l1_PFMvaID_retrained<0.232302293] yes=57,no=58,missing=58
							57:leaf=-0.0458130389
							58:[BToKEE_l2_PFMvaID_retrained<2.93434834] yes=79,no=80,missing=80
								79:[BToKEE_l1_PFMvaID_retrained<2.22688222] yes=103,no=104,missing=104
									103:leaf=0.0110032735
									104:leaf=-0.0266999137
								80:leaf=0.0164197907
		4:[BToKEE_l2_PFMvaID_retrained<2.36438608] yes=7,no=8,missing=8
			7:[BToKEE_fit_pt<25.464386] yes=13,no=14,missing=14
				13:[BToKEE_fit_pt<22.1492405] yes=23,no=24,missing=24
					23:[BToKEE_fit_pt<22.0096836] yes=39,no=40,missing=40
						39:[BToKEE_l1_PFMvaID_retrained<-1.52603996] yes=59,no=60,missing=60
							59:leaf=-0.0500000007
							60:[BToKEE_l2_PFMvaID_retrained<1.85892892] yes=81,no=82,missing=82
								81:[BToKEE_l1_PFMvaID_retrained<1.37934148] yes=105,no=106,missing=106
									105:[BToKEE_fit_pt<20.751461] yes=137,no=138,missing=138
										137:leaf=0.019975137
										138:leaf=0.0002386696
									106:leaf=-0.0180572383
								82:[BToKEE_l1_PFMvaID_retrained<2.7480669] yes=107,no=108,missing=108
									107:leaf=0.00909729954
									108:leaf=-0.0117058791
						40:[BToKEE_l1_PFMvaID_retrained<1.19780838] yes=61,no=62,missing=62
							61:leaf=-0.0500000007
							62:[BToKEE_l2_PFMvaID_retrained<2.01007199] yes=83,no=84,missing=84
								83:[BToKEE_l1_PFMvaID_retrained<1.47091758] yes=109,no=110,missing=110
									109:leaf=0.0325863697
									110:leaf=-0.000129473876
								84:[BToKEE_l1_PFMvaID_retrained<2.05174017] yes=111,no=112,missing=112
									111:leaf=0.00119419955
									112:leaf=-0.0447577201
					24:[BToKEE_fit_pt<23.8368931] yes=41,no=42,missing=42
						41:[BToKEE_l1_PFMvaID_retrained<-2.63809156] yes=63,no=64,missing=64
							63:leaf=-0.0500000007
							64:[BToKEE_l2_PFMvaID_retrained<1.85892892] yes=85,no=86,missing=86
								85:[BToKEE_l1_PFMvaID_retrained<2.48919749] yes=113,no=114,missing=114
									113:leaf=0.0147287566
									114:[BToKEE_fit_pt<22.2968082] yes=139,no=140,missing=140
										139:leaf=0.01889145
										140:leaf=-0.0161690991
								86:[BToKEE_l1_PFMvaID_retrained<3.15766859] yes=115,no=116,missing=116
									115:[BToKEE_fit_pt<22.9255199] yes=141,no=142,missing=142
										141:leaf=0.0155703863
										142:leaf=0.0281389337
									116:[BToKEE_fit_pt<22.9255199] yes=143,no=144,missing=144
										143:leaf=-0.0305602551
										144:leaf=0.0118380096
						42:[BToKEE_l1_PFMvaID_retrained<-1.6709578] yes=65,no=66,missing=66
							65:leaf=-0.0500000007
							66:[BToKEE_l2_PFMvaID_retrained<2.01007199] yes=87,no=88,missing=88
								87:[BToKEE_l1_PFMvaID_retrained<2.10929394] yes=117,no=118,missing=118
									117:leaf=0.0244378522
									118:[BToKEE_fit_pt<24.0451202] yes=145,no=146,missing=146
										145:leaf=0.0288123991
										146:leaf=-3.89955094e-05
								88:[BToKEE_l1_PFMvaID_retrained<0.0437548384] yes=119,no=120,missing=120
									119:[BToKEE_fit_pt<24.2540417] yes=147,no=148,missing=148
										147:leaf=-0.0125762522
										148:leaf=0.0207169801
									120:leaf=0.0370830148
				14:[BToKEE_fit_pt<29.3311386] yes=25,no=26,missing=26
					25:leaf=0.0249421429
					26:leaf=0.0451851822
			8:[BToKEE_fit_pt<23.8368931] yes=15,no=16,missing=16
				15:[BToKEE_fit_pt<23.1000557] yes=27,no=28,missing=28
					27:[BToKEE_fit_pt<20.6341896] yes=43,no=44,missing=44
						43:[BToKEE_l1_PFMvaID_retrained<-2.1875546] yes=67,no=68,missing=68
							67:leaf=-0.0500000007
							68:[BToKEE_l2_PFMvaID_retrained<2.47527456] yes=89,no=90,missing=90
								89:leaf=0.024162909
								90:leaf=-0.00213033031
						44:[BToKEE_l1_PFMvaID_retrained<-2.14068389] yes=69,no=70,missing=70
							69:leaf=-0.0500000007
							70:[BToKEE_l2_PFMvaID_retrained<3.2320857] yes=91,no=92,missing=92
								91:[BToKEE_l1_PFMvaID_retrained<2.65200329] yes=121,no=122,missing=122
									121:[BToKEE_fit_pt<22.4429665] yes=149,no=150,missing=150
										149:leaf=0.0124709411
										150:leaf=0.0257972572
									122:[BToKEE_fit_pt<22.5991211] yes=151,no=152,missing=152
										151:leaf=0.00255238288
										152:leaf=-0.0163868591
								92:leaf=0.0274856724
					28:leaf=0.0217306633
				16:[BToKEE_fit_pt<29.3311386] yes=29,no=30,missing=30
					29:leaf=0.0311812069
					30:leaf=0.0500000007
booster[8]:
0:[BToKEE_fit_pt<29.9479198] yes=1,no=2,missing=2
	1:[BToKEE_l2_PFMvaID_retrained<1.71718252] yes=3,no=4,missing=4
		3:leaf=-0.0500000007
		4:[BToKEE_l1_PFMvaID_retrained<-1.86119282] yes=7,no=8,missing=8
			7:leaf=-0.0500000007
			8:[BToKEE_fit_pt<18.1219616] yes=13,no=14,missing=14
				13:[BToKEE_fit_pt<15.8198938] yes=17,no=18,missing=18
					17:leaf=-0.0500000007
					18:[BToKEE_l1_PFMvaID_retrained<1.33316672] yes=21,no=22,missing=22
						21:[BToKEE_fit_pt<17.477356] yes=27,no=28,missing=28
							27:[BToKEE_l1_PFMvaID_retrained<-0.401315004] yes=39,no=40,missing=40
								39:leaf=-0.0451071188
								40:[BToKEE_l2_PFMvaID_retrained<2.36438608] yes=51,no=52,missing=52
									51:[BToKEE_l1_PFMvaID_retrained<-0.0535900071] yes=71,no=72,missing=72
										71:leaf=-0.00628907187
										72:leaf=-0.0287149847
									52:[BToKEE_l1_PFMvaID_retrained<-0.0535900071] yes=73,no=74,missing=74
										73:leaf=0.00876373425
										74:leaf=-0.014230812
							28:[BToKEE_l1_PFMvaID_retrained<0.513605595] yes=41,no=42,missing=42
								41:[BToKEE_l2_PFMvaID_retrained<1.85892892] yes=53,no=54,missing=54
									53:[BToKEE_l1_PFMvaID_retrained<-0.249029338] yes=75,no=76,missing=76
										75:leaf=-0.0271771904
										76:leaf=0.018876221
									54:[BToKEE_l1_PFMvaID_retrained<-1.33371854] yes=77,no=78,missing=78
										77:leaf=-0.0149141466
										78:leaf=0.0138179203
								42:[BToKEE_l2_PFMvaID_retrained<2.93434834] yes=55,no=56,missing=56
									55:[BToKEE_l1_PFMvaID_retrained<1.28786612] yes=79,no=80,missing=80
										79:leaf=-0.0253983121
										80:leaf=0.0101981424
									56:leaf=0.00612393068
						22:[BToKEE_fit_pt<17.0664577] yes=29,no=30,missing=30
							29:leaf=-0.0404078551
							30:leaf=-0.0263148528
				14:[BToKEE_fit_pt<22.7556553] yes=19,no=20,missing=20
					19:[BToKEE_l1_PFMvaID_retrained<2.7480669] yes=23,no=24,missing=24
						23:[BToKEE_fit_pt<20.3119202] yes=31,no=32,missing=32
							31:[BToKEE_l1_PFMvaID_retrained<-1.23745203] yes=43,no=44,missing=44
								43:leaf=-0.0222336967
								44:[BToKEE_l2_PFMvaID_retrained<2.01007199] yes=57,no=58,missing=58
									57:[BToKEE_l1_PFMvaID_retrained<-0.249029338] yes=81,no=82,missing=82
										81:leaf=0.000955455878
										82:leaf=-0.0153649244
									58:[BToKEE_l1_PFMvaID_retrained<0.879762471] yes=83,no=84,missing=84
										83:leaf=-0.00604427233
										84:leaf=0.0018002115
							32:[BToKEE_l1_PFMvaID_retrained<-0.843853533] yes=45,no=46,missing=46
								45:[BToKEE_l2_PFMvaID_retrained<1.93283916] yes=59,no=60,missing=60
									59:leaf=-0.0370134637
									60:leaf=0.00558022317
								46:[BToKEE_l2_PFMvaID_retrained<1.85892892] yes=61,no=62,missing=62
									61:[BToKEE_l1_PFMvaID_retrained<1.37934148] yes=85,no=86,missing=86
										85:leaf=0.00687802676
										86:leaf=-0.0161376074
									62:[BToKEE_l1_PFMvaID_retrained<2.41810822] yes=87,no=88,missing=88
										87:leaf=0.0108449329
										88:leaf=0.022796914
						24:[BToKEE_fit_pt<19.4467831] yes=33,no=34,missing=34
							33:leaf=-0.0245956425
							34:leaf=-0.00567505043
					20:[BToKEE_l1_PFMvaID_retrained<3.15766859] yes=25,no=26,missing=26
						25:[BToKEE_fit_pt<23.8368931] yes=35,no=36,missing=36
							35:[BToKEE_l1_PFMvaID_retrained<1.47091758] yes=47,no=48,missing=48
								47:[BToKEE_l2_PFMvaID_retrained<2.59834456] yes=63,no=64,missing=64
									63:[BToKEE_l1_PFMvaID_retrained<1.37934148] yes=89,no=90,missing=90
										89:leaf=0.0100832433
										90:leaf=-0.0149724353
									64:leaf=0.0329047181
								48:[BToKEE_l2_PFMvaID_retrained<1.85892892] yes=65,no=66,missing=66
									65:[BToKEE_l1_PFMvaID_retrained<1.94708025] yes=91,no=92,missing=92
										91:leaf=0.0242204703
										92:leaf=-0.00405226648
									66:leaf=0.0364500135
							36:[BToKEE_l1_PFMvaID_retrained<-1.71753538] yes=49,no=50,missing=50
								49:[BToKEE_l2_PFMvaID_retrained<2.09053755] yes=67,no=68,missing=68
									67:leaf=-0.024855433
									68:leaf=0.0120506687
								50:[BToKEE_l2_PFMvaID_retrained<2.93434834] yes=69,no=70,missing=70
									69:leaf=0.0356908888
									70:leaf=0.0466708019
						26:[BToKEE_fit_pt<25.464386] yes=37,no=38,missing=38
							37:leaf=0.00463724602
							38:leaf=0.0303206202
	2:[BToKEE_l2_PFMvaID_retrained<-0.208999917] yes=5,no=6,missing=6
		5:[BToKEE_l1_PFMvaID_retrained<0.513605595] yes=9,no=10,missing=10
			9:leaf=-0.0500000007
			10:[BToKEE_fit_pt<32.4813995] yes=15,no=16,missing=16
				15:leaf=-0.0465481989
				16:leaf=-0.0261818897
		6:[BToKEE_l1_PFMvaID_retrained<-2.27861118] yes=11,no=12,missing=12
			11:leaf=-0.0500000007
			12:leaf=0.0500000007
booster[9]:
0:[BToKEE_l1_PFMvaID_retrained<1.79921997] yes=1,no=2,missing=2
	1:leaf=-0.0500000007
	2:[BToKEE_l1_PFMvaID_retrained<2.85434389] yes=3,no=4,missing=4
		3:[BToKEE_l1_PFMvaID_retrained<2.28869629] yes=5,no=6,missing=6
			5:leaf=-0.0426572338
			6:leaf=-0.0385753326
		4:[BToKEE_l1_PFMvaID_retrained<3.41922045] yes=7,no=8,missing=8
			7:leaf=-0.0335259549
			8:leaf=-0.0288031977
booster[10]:
0:[BToKEE_l1_PFMvaID_retrained<1.79921997] yes=1,no=2,missing=2
	1:[BToKEE_l2_PFMvaID_retrained<1.27206969] yes=3,no=4,missing=4
		3:leaf=-0.0500000007
		4:[BToKEE_l1_PFMvaID_retrained<-1.71753538] yes=7,no=8,missing=8
			7:leaf=-0.0500000007
			8:[BToKEE_l2_PFMvaID_retrained<2.47527456] yes=11,no=12,missing=12
				11:[BToKEE_fit_l2_pt<8.44021034] yes=17,no=18,missing=18
					17:[BToKEE_l2_PFMvaID_retrained<1.78843391] yes=29,no=30,missing=30
						29:[BToKEE_l1_PFMvaID_retrained<-0.348393708] yes=39,no=40,missing=40
							39:[BToKEE_fit_l2_pt<7.11850262] yes=51,no=52,missing=52
								51:leaf=-0.0500000007
								52:leaf=-0.0274259653
							40:[BToKEE_fit_l2_pt<6.70475912] yes=53,no=54,missing=54
								53:leaf=-0.0500000007
								54:[BToKEE_fit_l2_pt<7.59140921] yes=75,no=76,missing=76
									75:leaf=-0.0307867508
									76:[BToKEE_fit_l2_pt<7.66891861] yes=99,no=100,missing=100
										99:leaf=0.00939416885
										100:leaf=-0.0170053579
						30:leaf=-0.0390535407
					18:leaf=0.0288448073
				12:[BToKEE_fit_l2_pt<7.96147108] yes=19,no=20,missing=20
					19:leaf=-0.0370354019
					20:[BToKEE_l2_PFMvaID_retrained<2.59834456] yes=31,no=32,missing=32
						31:[BToKEE_l1_PFMvaID_retrained<-0.449019909] yes=41,no=42,missing=42
							41:[BToKEE_fit_l2_pt<10.9128437] yes=55,no=56,missing=56
								55:[BToKEE_fit_l2_pt<8.92037582] yes=77,no=78,missing=78
									77:leaf=-0.0358586721
									78:[BToKEE_fit_l2_pt<9.81945801] yes=101,no=102,missing=102
										101:leaf=0.0131148994
										102:leaf=-0.0165242907
								56:leaf=0.0369291306
							42:[BToKEE_fit_l2_pt<11.1058712] yes=57,no=58,missing=58
								57:[BToKEE_fit_l2_pt<8.38784885] yes=79,no=80,missing=80
									79:leaf=-0.0115301115
									80:[BToKEE_fit_l2_pt<10.5765676] yes=103,no=104,missing=104
										103:leaf=0.0242673662
										104:leaf=-0.00273014582
								58:leaf=0.0497355051
						32:leaf=0.0411967598
	2:[BToKEE_l2_PFMvaID_retrained<0.659556806] yes=5,no=6,missing=6
		5:leaf=-0.0500000007
		6:[BToKEE_l1_PFMvaID_retrained<2.98778105] yes=9,no=10,missing=10
			9:[BToKEE_l2_PFMvaID_retrained<2.01007199] yes=13,no=14,missing=14
				13:[BToKEE_fit_l2_pt<7.47447491] yes=21,no=22,missing=22
					21:leaf=-0.0489785671
					22:[BToKEE_l2_PFMvaID_retrained<1.27206969] yes=33,no=34,missing=34
						33:[BToKEE_l1_PFMvaID_retrained<1.99831557] yes=43,no=44,missing=44
							43:[BToKEE_fit_l2_pt<9.20122147] yes=59,no=60,missing=60
								59:leaf=-0.00308336923
								60:[BToKEE_fit_l2_pt<11.3293705] yes=81,no=82,missing=82
									81:[BToKEE_fit_l2_pt<10.4288445] yes=105,no=106,missing=106
										105:leaf=0.0326360874
										106:leaf=0.00240293774
									82:[BToKEE_fit_l2_pt<17.3617249] yes=107,no=108,missing=108
										107:leaf=0.0500000007
										108:leaf=0.00499817962
							44:[BToKEE_fit_l2_pt<9.92709732] yes=61,no=62,missing=62
								61:[BToKEE_fit_l2_pt<8.60430527] yes=83,no=84,missing=84
									83:leaf=-0.0209725574
									84:[BToKEE_fit_l2_pt<9.53027153] yes=109,no=110,missing=110
										109:leaf=0.00820381939
										110:leaf=-0.0164916031
								62:[BToKEE_fit_l2_pt<11.8377886] yes=85,no=86,missing=86
									85:[BToKEE_fit_l2_pt<10.5765676] yes=111,no=112,missing=112
										111:leaf=0.0297618695
										112:leaf=0.013040565
									86:leaf=0.0500000007
						34:[BToKEE_l1_PFMvaID_retrained<2.7480669] yes=45,no=46,missing=46
							45:[BToKEE_fit_l2_pt<10.9128437] yes=63,no=64,missing=64
								63:[BToKEE_fit_l2_pt<9.36170483] yes=87,no=88,missing=88
									87:[BToKEE_fit_l2_pt<8.28548908] yes=113,no=114,missing=114
										113:leaf=-0.00621659542
										114:leaf=0.00582610583
									88:leaf=0.0198224187
								64:leaf=0.0500000007
							46:[BToKEE_fit_l2_pt<9.28075409] yes=65,no=66,missing=66
								65:leaf=-0.0170628037
								66:leaf=0.0325377434
				14:[BToKEE_fit_l2_pt<7.62888575] yes=23,no=24,missing=24
					23:leaf=-0.0413945988
					24:[BToKEE_l2_PFMvaID_retrained<2.47527456] yes=35,no=36,missing=36
						35:[BToKEE_l1_PFMvaID_retrained<2.7480669] yes=47,no=48,missing=48
							47:[BToKEE_fit_l2_pt<9.92709732] yes=67,no=68,missing=68
								67:[BToKEE_fit_l2_pt<8.66408825] yes=89,no=90,missing=90
									89:[BToKEE_fit_l2_pt<7.87388277] yes=115,no=116,missing=116
										115:leaf=0.0200121645
										116:leaf=0.00216611917
									90:leaf=0.0209380593
								68:[BToKEE_fit_l2_pt<11.1058712] yes=91,no=92,missing=92
									91:leaf=0.0318716541
									92:leaf=0.0500000007
							48:[BToKEE_fit_l2_pt<9.05600834] yes=69,no=70,missing=70
								69:leaf=-0.0176033173
								70:leaf=0.0207668245
						36:[BToKEE_l1_PFMvaID_retrained<2.85434389] yes=49,no=50,missing=50
							49:[BToKEE_fit_l2_pt<9.05600834] yes=71,no=72,missing=72
								71:[BToKEE_fit_l2_pt<8.78795528] yes=93,no=94,missing=94
									93:[BToKEE_fit_l2_pt<7.74908876] yes=117,no=118,missing=118
										117:leaf=0.0250112899
										118:leaf=0.00139801798
									94:leaf=0.0205967594
								72:[BToKEE_fit_l2_pt<10.9128437] yes=95,no=96,missing=96
									95:leaf=0.031183023
									96:leaf=0.0500000007
							50:[BToKEE_fit_l2_pt<9.20122147] yes=73,no=74,missing=74
								73:[BToKEE_fit_l2_pt<8.28548908] yes=97,no=98,missing=98
									97:leaf=0.0138652874
									98:leaf=-0.0207269695
								74:leaf=0.0334739611
			10:[BToKEE_l2_PFMvaID_retrained<2.74810934] yes=15,no=16,missing=16
				15:[BToKEE_fit_l2_pt<7.01942158] yes=25,no=26,missing=26
					25:leaf=-0.0500000007
					26:leaf=0.0152182505
				16:[BToKEE_fit_l2_pt<8.18666267] yes=27,no=28,missing=28
					27:leaf=-0.0138683161
					28:[BToKEE_l2_PFMvaID_retrained<3.2320857] yes=37,no=38,missing=38
						37:leaf=0.0290128496
						38:leaf=0.0473286621
booster[11]:
0:[BToKEE_fit_l2_pt<12.5116377] yes=1,no=2,missing=2
	1:[BToKEE_l1_PFMvaID_retrained<1.79921997] yes=3,no=4,missing=4
		3:[BToKEE_fit_l2_pt<11.8377886] yes=7,no=8,missing=8
			7:leaf=-0.0500000007
			8:leaf=-0.0410311446
		4:[BToKEE_fit_l2_pt<7.83255816] yes=9,no=10,missing=10
			9:[BToKEE_fit_l2_pt<6.92270756] yes=13,no=14,missing=14
				13:[BToKEE_l2_PFMvaID_retrained<2.93434834] yes=17,no=18,missing=18
					17:[BToKEE_fit_l2_pt<6.73509693] yes=25,no=26,missing=26
						25:leaf=-0.0500000007
						26:[BToKEE_l2_PFMvaID_retrained<-0.490143359] yes=35,no=36,missing=36
							35:leaf=-0.0500000007
							36:leaf=-0.0275002122
					18:[BToKEE_fit_l2_pt<5.84361601] yes=27,no=28,missing=28
						27:leaf=-0.0500000007
						28:leaf=-0.0163416304
				14:[BToKEE_l2_PFMvaID_retrained<-0.208999917] yes=19,no=20,missing=20
					19:leaf=-0.0500000007
					20:[BToKEE_fit_l2_pt<7.47447491] yes=29,no=30,missing=30
						29:[BToKEE_l2_PFMvaID_retrained<1.15215003] yes=37,no=38,missing=38
							37:[BToKEE_l1_PFMvaID_retrained<2.41810822] yes=49,no=50,missing=50
								49:leaf=-0.0358277857
								50:leaf=-0.0191014465
							38:[BToKEE_l1_PFMvaID_retrained<3.41922045] yes=51,no=52,missing=52
								51:leaf=-0.0181529429
								52:leaf=0.0054750382
						30:[BToKEE_l2_PFMvaID_retrained<1.27206969] yes=39,no=40,missing=40
							39:[BToKEE_l1_PFMvaID_retrained<2.10929394] yes=53,no=54,missing=54
								53:[BToKEE_l2_PFMvaID_retrained<0.609855115] yes=65,no=66,missing=66
									65:leaf=-0.0272384267
									66:leaf=-0.000646192755
								54:leaf=-0.0321744196
							40:leaf=-0.00401309272
			10:[BToKEE_fit_l2_pt<9.20122147] yes=15,no=16,missing=16
				15:[BToKEE_l2_PFMvaID_retrained<-0.371203929] yes=21,no=22,missing=22
					21:leaf=-0.0500000007
					22:[BToKEE_fit_l2_pt<8.13883018] yes=31,no=32,missing=32
						31:[BToKEE_l2_PFMvaID_retrained<1.71718252] yes=41,no=42,missing=42
							41:[BToKEE_l1_PFMvaID_retrained<2.7480669] yes=55,no=56,missing=56
								55:[BToKEE_l2_PFMvaID_retrained<0.411824226] yes=67,no=68,missing=68
									67:leaf=-0.0348386243
									68:leaf=-0.0182676185
								56:leaf=-0.00526006147
							42:[BToKEE_l1_PFMvaID_retrained<2.05174017] yes=57,no=58,missing=58
								57:[BToKEE_l2_PFMvaID_retrained<2.59834456] yes=69,no=70,missing=70
									69:[BToKEE_fit_l2_pt<8.00580978] yes=81,no=82,missing=82
										81:leaf=0.01118905
										82:leaf=-0.0149610555
									70:leaf=-0.0358470492
								58:[BToKEE_l2_PFMvaID_retrained<3.2320857] yes=71,no=72,missing=72
									71:leaf=0.0061206338
									72:leaf=-0.0120511958
						32:[BToKEE_l2_PFMvaID_retrained<0.762249589] yes=43,no=44,missing=44
							43:leaf=-0.0101914583
							44:[BToKEE_l1_PFMvaID_retrained<2.48919749] yes=59,no=60,missing=60
								59:[BToKEE_l2_PFMvaID_retrained<1.09385622] yes=73,no=74,missing=74
									73:[BToKEE_fit_l2_pt<8.60430527] yes=83,no=84,missing=84
										83:leaf=-0.0197103303
										84:leaf=0.00257270201
									74:[BToKEE_fit_l2_pt<8.98765945] yes=85,no=86,missing=86
										85:leaf=0.00813890714
										86:leaf=0.0199029408
								60:[BToKEE_l2_PFMvaID_retrained<2.93434834] yes=75,no=76,missing=76
									75:leaf=-0.000663906045
									76:leaf=0.0224132165
				16:[BToKEE_l2_PFMvaID_retrained<-0.869351983] yes=23,no=24,missing=24
					23:leaf=-0.0500000007
					24:[BToKEE_fit_l2_pt<10.9128437] yes=33,no=34,missing=34
						33:[BToKEE_l2_PFMvaID_retrained<-0.0422570892] yes=45,no=46,missing=46
							45:[BToKEE_l1_PFMvaID_retrained<2.05174017] yes=61,no=62,missing=62
								61:leaf=-0.0249267202
								62:[BToKEE_l2_PFMvaID_retrained<-0.681992769] yes=77,no=78,missing=78
									77:[BToKEE_fit_l2_pt<9.36170483] yes=87,no=88,missing=88
										87:leaf=-0.0189722348
										88:leaf=0.0216093846
									78:[BToKEE_fit_l2_pt<9.53027153] yes=89,no=90,missing=90
										89:leaf=0.0183101743
										90:leaf=-0.0195584949
							46:[BToKEE_l1_PFMvaID_retrained<1.8484776] yes=63,no=64,missing=64
								63:leaf=0.00703321397
								64:[BToKEE_l2_PFMvaID_retrained<3.2320857] yes=79,no=80,missing=80
									79:[BToKEE_fit_l2_pt<9.81945801] yes=91,no=92,missing=92
										91:leaf=0.0137366448
										92:leaf=0.0243143197
									80:leaf=0.0421246365
						34:[BToKEE_l2_PFMvaID_retrained<-0.167252868] yes=47,no=48,missing=48
							47:leaf=0.00607695151
							48:leaf=0.0384412222
	2:[BToKEE_l1_PFMvaID_retrained<-1.43038511] yes=5,no=6,missing=6
		5:leaf=-0.0500000007
		6:[BToKEE_fit_l2_pt<15.3337784] yes=11,no=12,missing=12
			11:leaf=0.0311399158
			12:leaf=0.0495637655
booster[12]:
0:[BToKEE_fit_l2_pt<11.8377886] yes=1,no=2,missing=2
	1:[BToKEE_fit_l2_pt<10.7347927] yes=3,no=4,missing=4
		3:[BToKEE_fit_l2_pt<10.4288445] yes=7,no=8,missing=8
			7:[BToKEE_fit_pt<29.3311386] yes=15,no=16,missing=16
				15:[BToKEE_fit_pt<27.8361378] yes=31,no=32,missing=32
					31:[BToKEE_l2_PFMvaID_retrained<1.51641285] yes=63,no=64,missing=64
						63:[BToKEE_l2_PFMvaID_retrained<1.09385622] yes=119,no=120,missing=120
							119:leaf=-0.0500000007
							120:leaf=-0.0433299392
						64:[BToKEE_l2_PFMvaID_retrained<1.93283916] yes=121,no=122,missing=122
							121:leaf=-0.0386737362
							122:[BToKEE_l2_PFMvaID_retrained<2.47527456] yes=185,no=186,missing=186
								185:[BToKEE_fit_pt<17.0664577] yes=237,no=238,missing=238
									237:leaf=-0.0500000007
									238:leaf=-0.0123431217
								186:[BToKEE_fit_pt<17.0030117] yes=239,no=240,missing=240
									239:[BToKEE_l2_PFMvaID_retrained<3.2320857] yes=291,no=292,missing=292
										291:leaf=-0.0500000007
										292:leaf=-0.035971459
									240:leaf=-0.00687363837
					32:[BToKEE_l2_PFMvaID_retrained<-0.33163172] yes=65,no=66,missing=66
						65:[BToKEE_l2_PFMvaID_retrained<-1.01558936] yes=123,no=124,missing=124
							123:leaf=-0.0500000007
							124:leaf=-0.0251477957
						66:[BToKEE_l2_PFMvaID_retrained<0.557944834] yes=125,no=126,missing=126
							125:[BToKEE_l2_PFMvaID_retrained<0.317298412] yes=187,no=188,missing=188
								187:leaf=-0.0110034114
								188:[BToKEE_fit_pt<28.2689209] yes=241,no=242,missing=242
									241:[BToKEE_l2_PFMvaID_retrained<0.411824226] yes=293,no=294,missing=294
										293:leaf=0.0130456686
										294:leaf=-0.0225542542
									242:[BToKEE_l2_PFMvaID_retrained<0.411824226] yes=295,no=296,missing=296
										295:leaf=0.0393299572
										296:leaf=-0.00334702316
							126:[BToKEE_l2_PFMvaID_retrained<1.93283916] yes=189,no=190,missing=190
								189:leaf=0.0335113816
								190:leaf=0.0207065921
				16:[BToKEE_fit_pt<32.4813995] yes=33,no=34,missing=34
					33:[BToKEE_l2_PFMvaID_retrained<-0.681992769] yes=67,no=68,missing=68
						67:[BToKEE_l2_PFMvaID_retrained<-1.01558936] yes=127,no=128,missing=128
							127:leaf=-0.0500000007
							128:[BToKEE_l2_PFMvaID_retrained<-0.941649675] yes=191,no=192,missing=192
								191:leaf=0.0126367165
								192:leaf=-0.0248854607
						68:[BToKEE_l2_PFMvaID_retrained<0.317298412] yes=129,no=130,missing=130
							129:[BToKEE_l2_PFMvaID_retrained<-0.0837781504] yes=193,no=194,missing=194
								193:leaf=-0.00537320506
								194:[BToKEE_fit_pt<29.9479198] yes=243,no=244,missing=244
									243:leaf=-0.00505645107
									244:leaf=0.0179602839
							130:leaf=0.0395555682
					34:[BToKEE_l2_PFMvaID_retrained<-0.490143359] yes=69,no=70,missing=70
						69:[BToKEE_l2_PFMvaID_retrained<-1.46135867] yes=131,no=132,missing=132
							131:leaf=-0.0500000007
							132:[BToKEE_l2_PFMvaID_retrained<-1.39417994] yes=195,no=196,missing=196
								195:leaf=0.00595620601
								196:leaf=-0.0216502864
						70:[BToKEE_l2_PFMvaID_retrained<0.317298412] yes=133,no=134,missing=134
							133:leaf=0.0143806729
							134:leaf=0.0461820252
			8:[BToKEE_fit_pt<20.9853878] yes=17,no=18,missing=18
				17:[BToKEE_fit_pt<16.1231327] yes=35,no=36,missing=36
					35:leaf=-0.0388008691
					36:[BToKEE_l2_PFMvaID_retrained<-0.793483317] yes=71,no=72,missing=72
						71:leaf=-0.0500000007
						72:[BToKEE_l2_PFMvaID_retrained<0.762249589] yes=135,no=136,missing=136
							135:[BToKEE_l2_PFMvaID_retrained<0.227569357] yes=197,no=198,missing=198
								197:[BToKEE_fit_pt<19.5351601] yes=245,no=246,missing=246
									245:leaf=0.0344404504
									246:leaf=-0.00232026097
								198:leaf=-0.0144719454
							136:leaf=0.0459361933
				18:[BToKEE_fit_pt<29.9479198] yes=37,no=38,missing=38
					37:[BToKEE_l2_PFMvaID_retrained<-0.0837781504] yes=73,no=74,missing=74
						73:leaf=-0.0500000007
						74:[BToKEE_l2_PFMvaID_retrained<1.27206969] yes=137,no=138,missing=138
							137:[BToKEE_l2_PFMvaID_retrained<0.00168635545] yes=199,no=200,missing=200
								199:[BToKEE_fit_pt<21.7348442] yes=247,no=248,missing=248
									247:leaf=0.0266611129
									248:leaf=-0.00729006156
								200:[BToKEE_fit_pt<21.4714317] yes=249,no=250,missing=250
									249:[BToKEE_l2_PFMvaID_retrained<0.925420523] yes=297,no=298,missing=298
										297:leaf=-0.0105725275
										298:leaf=0.0336166732
									250:leaf=-0.0272886939
							138:[BToKEE_l2_PFMvaID_retrained<2.26465011] yes=201,no=202,missing=202
								201:[BToKEE_fit_pt<25.1965542] yes=251,no=252,missing=252
									251:[BToKEE_l2_PFMvaID_retrained<1.93283916] yes=299,no=300,missing=300
										299:leaf=-0.0132157877
										300:leaf=0.00776990736
									252:leaf=0.0334981568
								202:[BToKEE_fit_pt<23.4552345] yes=253,no=254,missing=254
									253:[BToKEE_l2_PFMvaID_retrained<2.74810934] yes=301,no=302,missing=302
										301:leaf=-0.0449681878
										302:leaf=0.00781937316
									254:[BToKEE_l2_PFMvaID_retrained<2.59834456] yes=303,no=304,missing=304
										303:leaf=-0.00562019832
										304:leaf=0.0132996989
					38:[BToKEE_l2_PFMvaID_retrained<-1.29231358] yes=75,no=76,missing=76
						75:leaf=-0.0500000007
						76:[BToKEE_l2_PFMvaID_retrained<0.227569357] yes=139,no=140,missing=140
							139:[BToKEE_l2_PFMvaID_retrained<-0.756894469] yes=203,no=204,missing=204
								203:leaf=0.0231837593
								204:[BToKEE_fit_pt<41.2353172] yes=255,no=256,missing=256
									255:leaf=-0.0206134953
									256:leaf=0.016492134
							140:leaf=0.0500000007
		4:[BToKEE_fit_l2_pt<11.1058712] yes=9,no=10,missing=10
			9:[BToKEE_fit_pt<21.4714317] yes=19,no=20,missing=20
				19:[BToKEE_fit_pt<15.9414558] yes=39,no=40,missing=40
					39:leaf=-0.0495270267
					40:[BToKEE_l2_PFMvaID_retrained<-0.208999917] yes=77,no=78,missing=78
						77:[BToKEE_l2_PFMvaID_retrained<-2.1501689] yes=141,no=142,missing=142
							141:leaf=-0.0500000007
							142:[BToKEE_l2_PFMvaID_retrained<-1.65705478] yes=205,no=206,missing=206
								205:leaf=0.00782149564
								206:leaf=-0.0297766216
						78:leaf=0.0413296781
				20:[BToKEE_fit_pt<28.7545414] yes=41,no=42,missing=42
					41:[BToKEE_l2_PFMvaID_retrained<0.411824226] yes=79,no=80,missing=80
						79:leaf=-0.0500000007
						80:[BToKEE_l2_PFMvaID_retrained<1.51641285] yes=143,no=144,missing=144
							143:[BToKEE_l2_PFMvaID_retrained<1.09385622] yes=207,no=208,missing=208
								207:[BToKEE_fit_pt<23.6410618] yes=257,no=258,missing=258
									257:leaf=-0.020974325
									258:leaf=0.0129892845
								208:[BToKEE_fit_pt<26.0436573] yes=259,no=260,missing=260
									259:leaf=0.00976533815
									260:leaf=0.0444223545
							144:[BToKEE_l2_PFMvaID_retrained<2.01007199] yes=209,no=210,missing=210
								209:[BToKEE_fit_pt<26.0436573] yes=261,no=262,missing=262
									261:leaf=-0.0304457732
									262:leaf=0.0293975063
								210:[BToKEE_fit_pt<21.8725262] yes=263,no=264,missing=264
									263:leaf=0.0354513787
									264:[BToKEE_l2_PFMvaID_retrained<2.17407751] yes=305,no=306,missing=306
										305:leaf=0.0128349802
										306:leaf=-0.0055031362
					42:[BToKEE_l2_PFMvaID_retrained<-1.96984434] yes=81,no=82,missing=82
						81:leaf=-0.0500000007
						82:[BToKEE_l2_PFMvaID_retrained<-0.4505907] yes=145,no=146,missing=146
							145:leaf=0.00245827972
							146:leaf=0.0429515801
			10:[BToKEE_fit_pt<22.4429665] yes=21,no=22,missing=22
				21:[BToKEE_fit_pt<17.2028332] yes=43,no=44,missing=44
					43:leaf=-0.0500000007
					44:[BToKEE_l2_PFMvaID_retrained<-0.793483317] yes=83,no=84,missing=84
						83:[BToKEE_l2_PFMvaID_retrained<-1.15605474] yes=147,no=148,missing=148
							147:leaf=-0.0500000007
							148:leaf=-0.00196144218
						84:[BToKEE_l2_PFMvaID_retrained<0.139462739] yes=149,no=150,missing=150
							149:leaf=0.00918715261
							150:leaf=0.0496250242
				22:[BToKEE_fit_pt<28.7545414] yes=45,no=46,missing=46
					45:[BToKEE_l2_PFMvaID_retrained<0.00168635545] yes=85,no=86,missing=86
						85:[BToKEE_l2_PFMvaID_retrained<-0.33163172] yes=151,no=152,missing=152
							151:leaf=-0.0500000007
							152:leaf=-0.0233956836
						86:[BToKEE_l2_PFMvaID_retrained<1.15215003] yes=153,no=154,missing=154
							153:[BToKEE_l2_PFMvaID_retrained<0.227569357] yes=211,no=212,missing=212
								211:[BToKEE_fit_pt<23.6410618] yes=265,no=266,missing=266
									265:leaf=0.025353739
									266:[BToKEE_l2_PFMvaID_retrained<0.183649823] yes=307,no=308,missing=308
										307:leaf=-0.0200353004
										308:leaf=0.0275823716
								212:[BToKEE_fit_pt<23.4552345] yes=267,no=268,missing=268
									267:[BToKEE_l2_PFMvaID_retrained<0.659556806] yes=309,no=310,missing=310
										309:leaf=-0.0145559013
										310:leaf=0.0141190952
									268:[BToKEE_l2_PFMvaID_retrained<0.925420523] yes=311,no=312,missing=312
										311:leaf=-0.0274247527
										312:leaf=-0.00839681085
							154:[BToKEE_l2_PFMvaID_retrained<3.2320857] yes=213,no=214,missing=214
								213:[BToKEE_fit_pt<23.2695351] yes=269,no=270,missing=270
									269:leaf=0.0352307409
									270:[BToKEE_l2_PFMvaID_retrained<2.74810934] yes=313,no=314,missing=314
										313:leaf=0.0100163398
										314:leaf=0.0238105077
								214:[BToKEE_fit_pt<25.464386] yes=271,no=272,missing=272
									271:leaf=-0.014616278
									272:leaf=0.0134189492
					46:[BToKEE_l2_PFMvaID_retrained<-0.125578031] yes=87,no=88,missing=88
						87:[BToKEE_l2_PFMvaID_retrained<-1.15605474] yes=155,no=156,missing=156
							155:leaf=-0.0500000007
							156:[BToKEE_l2_PFMvaID_retrained<-1.08621013] yes=215,no=216,missing=216
								215:leaf=0.0152135408
								216:[BToKEE_fit_pt<37.4389915] yes=273,no=274,missing=274
									273:leaf=-0.0279073901
									274:leaf=0.0200214386
						88:[BToKEE_l2_PFMvaID_retrained<1.03741896] yes=157,no=158,missing=158
							157:[BToKEE_l2_PFMvaID_retrained<0.048125729] yes=217,no=218,missing=218
								217:leaf=0.0500000007
								218:[BToKEE_fit_pt<35.2074127] yes=275,no=276,missing=276
									275:[BToKEE_l2_PFMvaID_retrained<0.460718483] yes=315,no=316,missing=316
										315:leaf=-0.0226853024
										316:leaf=0.00787291676
									276:leaf=0.0218733568
							158:leaf=0.0440995023
	2:[BToKEE_fit_l2_pt<15.3337784] yes=5,no=6,missing=6
		5:[BToKEE_fit_l2_pt<13.5379171] yes=11,no=12,missing=12
			11:[BToKEE_fit_pt<24.0451202] yes=23,no=24,missing=24
				23:[BToKEE_fit_pt<18.6758537] yes=47,no=48,missing=48
					47:[BToKEE_l2_PFMvaID_retrained<1.58341205] yes=89,no=90,missing=90
						89:leaf=-0.0500000007
						90:leaf=0.0207198039
					48:[BToKEE_l2_PFMvaID_retrained<-0.831082761] yes=91,no=92,missing=92
						91:[BToKEE_l2_PFMvaID_retrained<-1.65705478] yes=159,no=160,missing=160
							159:leaf=-0.0500000007
							160:[BToKEE_l2_PFMvaID_retrained<-1.49278963] yes=219,no=220,missing=220
								219:leaf=0.0194709562
								220:[BToKEE_fit_pt<21.102766] yes=277,no=278,missing=278
									277:leaf=0.00733645493
									278:leaf=-0.0377263911
						92:[BToKEE_l2_PFMvaID_retrained<0.869998693] yes=161,no=162,missing=162
							161:[BToKEE_l2_PFMvaID_retrained<0.139462739] yes=221,no=222,missing=222
								221:[BToKEE_fit_pt<21.6047897] yes=279,no=280,missing=280
									279:[BToKEE_l2_PFMvaID_retrained<-0.718322754] yes=317,no=318,missing=318
										317:leaf=0.0139204189
										318:leaf=-0.0214682948
									280:leaf=0.0206065085
								222:[BToKEE_fit_pt<21.3477612] yes=281,no=282,missing=282
									281:[BToKEE_l2_PFMvaID_retrained<0.609855115] yes=319,no=320,missing=320
										319:leaf=-0.008898478
										320:leaf=0.0199580323
									282:[BToKEE_l2_PFMvaID_retrained<0.659556806] yes=321,no=322,missing=322
										321:leaf=0.0442949869
										322:leaf=0.00047309394
							162:leaf=0.0500000007
				24:[BToKEE_fit_pt<33.7141762] yes=49,no=50,missing=50
					49:[BToKEE_l2_PFMvaID_retrained<0.00168635545] yes=93,no=94,missing=94
						93:[BToKEE_l2_PFMvaID_retrained<-0.904415131] yes=163,no=164,missing=164
							163:leaf=-0.0500000007
							164:leaf=-0.0269315336
						94:[BToKEE_l2_PFMvaID_retrained<2.26465011] yes=165,no=166,missing=166
							165:[BToKEE_l2_PFMvaID_retrained<0.411824226] yes=223,no=224,missing=224
								223:[BToKEE_fit_pt<32.4813995] yes=283,no=284,missing=284
									283:[BToKEE_l2_PFMvaID_retrained<0.227569357] yes=323,no=324,missing=324
										323:leaf=0.0200217869
										324:leaf=-0.00993190985
									284:leaf=-0.0236332286
								224:[BToKEE_fit_pt<25.464386] yes=285,no=286,missing=286
									285:leaf=0.0336398706
									286:[BToKEE_l2_PFMvaID_retrained<1.78843391] yes=325,no=326,missing=326
										325:leaf=0.0217219684
										326:leaf=0.00675415946
							166:leaf=0.0390705131
					50:[BToKEE_l2_PFMvaID_retrained<-1.05203342] yes=95,no=96,missing=96
						95:leaf=-0.0500000007
						96:leaf=0.0483881868
			12:[BToKEE_fit_pt<27.8361378] yes=25,no=26,missing=26
				25:[BToKEE_fit_pt<20.6341896] yes=51,no=52,missing=52
					51:[BToKEE_l2_PFMvaID_retrained<1.21183801] yes=97,no=98,missing=98
						97:leaf=-0.0500000007
						98:[BToKEE_l2_PFMvaID_retrained<2.36438608] yes=167,no=168,missing=168
							167:leaf=0.0222612526
							168:leaf=-0.0165051222
					52:[BToKEE_l2_PFMvaID_retrained<-0.718322754] yes=99,no=100,missing=100
						99:leaf=-0.0500000007
						100:[BToKEE_l2_PFMvaID_retrained<0.27173245] yes=169,no=170,missing=170
							169:[BToKEE_l2_PFMvaID_retrained<0.183649823] yes=225,no=226,missing=226
								225:[BToKEE_fit_pt<25.1965542] yes=287,no=288,missing=288
									287:leaf=0.00389024289
									288:leaf=0.0451216474
								226:leaf=-0.00970828626
							170:leaf=0.0500000007
				26:[BToKEE_fit_pt<37.4389915] yes=53,no=54,missing=54
					53:[BToKEE_l2_PFMvaID_retrained<0.0944965109] yes=101,no=102,missing=102
						101:[BToKEE_l2_PFMvaID_retrained<-0.756894469] yes=171,no=172,missing=172
							171:leaf=-0.0500000007
							172:[BToKEE_l2_PFMvaID_retrained<-0.718322754] yes=227,no=228,missing=228
								227:leaf=0.0129070608
								228:leaf=-0.0194266643
						102:[BToKEE_l2_PFMvaID_retrained<0.981136084] yes=173,no=174,missing=174
							173:leaf=0.0137244388
							174:[BToKEE_l2_PFMvaID_retrained<2.93434834] yes=229,no=230,missing=230
								229:leaf=0.037265528
								230:leaf=0.0185267888
					54:[BToKEE_l2_PFMvaID_retrained<-1.99996662] yes=103,no=104,missing=104
						103:leaf=-0.0500000007
						104:[BToKEE_l2_PFMvaID_retrained<-0.831082761] yes=175,no=176,missing=176
							175:leaf=0.00228887191
							176:leaf=0.0442413241
		6:[BToKEE_fit_l2_pt<17.3617249] yes=13,no=14,missing=14
			13:[BToKEE_fit_pt<31.4829235] yes=27,no=28,missing=28
				27:[BToKEE_fit_pt<22.5991211] yes=55,no=56,missing=56
					55:leaf=-0.0500000007
					56:[BToKEE_l2_PFMvaID_retrained<-1.68948209] yes=105,no=106,missing=106
						105:leaf=-0.0500000007
						106:leaf=0.0500000007
				28:[BToKEE_fit_pt<41.2353172] yes=57,no=58,missing=58
					57:[BToKEE_l2_PFMvaID_retrained<0.048125729] yes=107,no=108,missing=108
						107:[BToKEE_l2_PFMvaID_retrained<-1.52695191] yes=177,no=178,missing=178
							177:leaf=-0.0500000007
							178:[BToKEE_l2_PFMvaID_retrained<-1.18958688] yes=231,no=232,missing=232
								231:leaf=0.0144516099
								232:[BToKEE_fit_pt<37.4389915] yes=289,no=290,missing=290
									289:leaf=-0.0260716882
									290:leaf=0.0128949657
						108:leaf=0.0366771296
					58:[BToKEE_l2_PFMvaID_retrained<-0.0422570892] yes=109,no=110,missing=110
						109:[BToKEE_l2_PFMvaID_retrained<-2.51151085] yes=179,no=180,missing=180
							179:leaf=-0.0500000007
							180:leaf=-8.5572261e-05
						110:leaf=0.0500000007
			14:[BToKEE_fit_pt<26.3427658] yes=29,no=30,missing=30
				29:[BToKEE_fit_pt<25.1965542] yes=59,no=60,missing=60
					59:[BToKEE_l2_PFMvaID_retrained<1.71718252] yes=111,no=112,missing=112
						111:leaf=-0.0500000007
						112:leaf=0.00621277839
					60:[BToKEE_l2_PFMvaID_retrained<0.460718483] yes=113,no=114,missing=114
						113:leaf=-0.0436983518
						114:leaf=0.0287489537
				30:[BToKEE_fit_pt<37.4389915] yes=61,no=62,missing=62
					61:[BToKEE_l2_PFMvaID_retrained<-0.97899127] yes=115,no=116,missing=116
						115:leaf=-0.0500000007
						116:leaf=0.0500000007
					62:[BToKEE_l2_PFMvaID_retrained<-0.793483317] yes=117,no=118,missing=118
						117:[BToKEE_l2_PFMvaID_retrained<-1.68948209] yes=181,no=182,missing=182
							181:leaf=-0.0500000007
							182:[BToKEE_l2_PFMvaID_retrained<-1.25783598] yes=233,no=234,missing=234
								233:leaf=0.0230692886
								234:leaf=-0.0173463002
						118:[BToKEE_l2_PFMvaID_retrained<0.411824226] yes=183,no=184,missing=184
							183:[BToKEE_l2_PFMvaID_retrained<-0.371203929] yes=235,no=236,missing=236
								235:leaf=0.0301687662
								236:leaf=-0.00636323122
							184:leaf=0.0500000007
booster[13]:
0:[BToKEE_fit_pt<28.2689209] yes=1,no=2,missing=2
	1:[BToKEE_fit_pt<26.0436573] yes=3,no=4,missing=4
		3:[BToKEE_l1_PFMvaID_retrained<1.79921997] yes=7,no=8,missing=8
			7:leaf=-0.0500000007
			8:leaf=-0.0464403406
		4:[BToKEE_l1_PFMvaID_retrained<-0.499836415] yes=9,no=10,missing=10
			9:[BToKEE_l1_PFMvaID_retrained<-1.33371854] yes=15,no=16,missing=16
				15:leaf=-0.0500000007
				16:[BToKEE_l1_PFMvaID_retrained<-1.19041204] yes=27,no=28,missing=28
					27:leaf=-0.0108579267
					28:leaf=-0.0320224687
			10:[BToKEE_l1_PFMvaID_retrained<0.232302293] yes=17,no=18,missing=18
				17:leaf=-0.0122165475
				18:[BToKEE_l1_PFMvaID_retrained<1.06203687] yes=29,no=30,missing=30
					29:leaf=0.00590098882
					30:[BToKEE_l1_PFMvaID_retrained<3.41922045] yes=43,no=44,missing=44
						43:[BToKEE_fit_pt<27.4049549] yes=55,no=56,missing=56
							55:leaf=0.0122662587
							56:leaf=0.0177978519
						44:leaf=0.00379911228
	2:[BToKEE_fit_pt<30.6837444] yes=5,no=6,missing=6
		5:[BToKEE_l1_PFMvaID_retrained<-0.595778644] yes=11,no=12,missing=12
			11:[BToKEE_l1_PFMvaID_retrained<-1.71753538] yes=19,no=20,missing=20
				19:leaf=-0.0500000007
				20:[BToKEE_l1_PFMvaID_retrained<-1.23745203] yes=31,no=32,missing=32
					31:[BToKEE_l1_PFMvaID_retrained<-1.38267851] yes=45,no=46,missing=46
						45:leaf=-0.016194595
						46:leaf=0.00284800213
					32:leaf=-0.0239226874
			12:[BToKEE_l1_PFMvaID_retrained<0.513605595] yes=21,no=22,missing=22
				21:[BToKEE_l1_PFMvaID_retrained<0.0437548384] yes=33,no=34,missing=34
					33:leaf=-0.00380417379
					34:[BToKEE_l1_PFMvaID_retrained<0.373610377] yes=47,no=48,missing=48
						47:leaf=0.0143108843
						48:leaf=-0.00529521378
				22:[BToKEE_l1_PFMvaID_retrained<3.15766859] yes=35,no=36,missing=36
					35:[BToKEE_l1_PFMvaID_retrained<1.8484776] yes=49,no=50,missing=50
						49:[BToKEE_fit_pt<29.9479198] yes=57,no=58,missing=58
							57:[BToKEE_l1_PFMvaID_retrained<1.70262635] yes=63,no=64,missing=64
								63:[BToKEE_l2_PFMvaID_retrained<-1.01558936] yes=73,no=74,missing=74
									73:leaf=-0.0500000007
									74:leaf=0.0386680365
								64:[BToKEE_l2_PFMvaID_retrained<-0.167252868] yes=75,no=76,missing=76
									75:leaf=-0.0403674953
									76:leaf=0.0246660318
							58:leaf=0.0246555004
						50:leaf=0.0241825804
					36:leaf=0.00239652023
		6:[BToKEE_l1_PFMvaID_retrained<-1.04095662] yes=13,no=14,missing=14
			13:[BToKEE_l1_PFMvaID_retrained<-1.86119282] yes=23,no=24,missing=24
				23:leaf=-0.0500000007
				24:[BToKEE_l1_PFMvaID_retrained<-1.33371854] yes=37,no=38,missing=38
					37:leaf=-0.0347542576
					38:leaf=-0.0205858331
			14:[BToKEE_l1_PFMvaID_retrained<0.513605595] yes=25,no=26,missing=26
				25:[BToKEE_l1_PFMvaID_retrained<0.232302293] yes=39,no=40,missing=40
					39:[BToKEE_l1_PFMvaID_retrained<-0.449019909] yes=51,no=52,missing=52
						51:[BToKEE_fit_pt<31.4829235] yes=59,no=60,missing=60
							59:[BToKEE_l1_PFMvaID_retrained<-0.991358697] yes=65,no=66,missing=66
								65:leaf=0.0187688954
								66:[BToKEE_l2_PFMvaID_retrained<-0.125578031] yes=77,no=78,missing=78
									77:leaf=-0.0500000007
									78:leaf=0.0287411511
							60:[BToKEE_l1_PFMvaID_retrained<-0.499836415] yes=67,no=68,missing=68
								67:[BToKEE_l2_PFMvaID_retrained<-1.01558936] yes=79,no=80,missing=80
									79:leaf=-0.0500000007
									80:leaf=0.0500000007
								68:[BToKEE_l2_PFMvaID_retrained<-0.33163172] yes=81,no=82,missing=82
									81:leaf=-0.0469787754
									82:leaf=0.0238370132
						52:[BToKEE_fit_pt<37.4389915] yes=61,no=62,missing=62
							61:[BToKEE_l1_PFMvaID_retrained<-0.297841758] yes=69,no=70,missing=70
								69:[BToKEE_l2_PFMvaID_retrained<-2.8057456] yes=83,no=84,missing=84
									83:leaf=-0.0500000007
									84:leaf=0.0498019382
								70:[BToKEE_l2_PFMvaID_retrained<-1.49278963] yes=85,no=86,missing=86
									85:leaf=-0.0500000007
									86:leaf=0.0304791313
							62:[BToKEE_l1_PFMvaID_retrained<-0.00434609875] yes=71,no=72,missing=72
								71:[BToKEE_l2_PFMvaID_retrained<-3.00873804] yes=87,no=88,missing=88
									87:leaf=-0.0439145975
									88:leaf=0.0490819067
								72:[BToKEE_l2_PFMvaID_retrained<-1.65705478] yes=89,no=90,missing=90
									89:leaf=-0.0484670214
									90:leaf=0.0385435149
					40:leaf=0.0184586104
				26:[BToKEE_l1_PFMvaID_retrained<1.06203687] yes=41,no=42,missing=42
					41:[BToKEE_l1_PFMvaID_retrained<0.60619992] yes=53,no=54,missing=54
						53:leaf=0.0354193784
						54:leaf=0.0193826817
					42:leaf=0.0348864533
booster[14]:
0:[BToKEE_fit_pt<28.2689209] yes=1,no=2,missing=2
	1:[BToKEE_fit_pt<25.464386] yes=3,no=4,missing=4
		3:[BToKEE_l1_PFMvaID_retrained<1.79921997] yes=7,no=8,missing=8
			7:leaf=-0.0500000007
			8:[BToKEE_fit_pt<19.7203255] yes=15,no=16,missing=16
				15:[BToKEE_fit_pt<18.1219616] yes=23,no=24,missing=24
					23:[BToKEE_l2_PFMvaID_retrained<2.59834456] yes=29,no=30,missing=30
						29:leaf=-0.0500000007
						30:leaf=-0.030016968
					24:[BToKEE_l2_PFMvaID_retrained<0.762249589] yes=31,no=32,missing=32
						31:leaf=-0.0500000007
						32:[BToKEE_l1_PFMvaID_retrained<2.65200329] yes=41,no=42,missing=42
							41:leaf=-0.00442836341
							42:leaf=-0.0203453582
				16:[BToKEE_fit_pt<22.5991211] yes=25,no=26,missing=26
					25:[BToKEE_l2_PFMvaID_retrained<0.227569357] yes=33,no=34,missing=34
						33:leaf=-0.0500000007
						34:[BToKEE_l1_PFMvaID_retrained<2.65200329] yes=43,no=44,missing=44
							43:leaf=0.00727057457
							44:leaf=-0.0027623591
					26:[BToKEE_l2_PFMvaID_retrained<-1.15605474] yes=35,no=36,missing=36
						35:leaf=-0.0500000007
						36:[BToKEE_l1_PFMvaID_retrained<3.15766859] yes=45,no=46,missing=46
							45:leaf=0.020144878
							46:leaf=-0.00235794368
		4:[BToKEE_l1_PFMvaID_retrained<-0.499836415] yes=9,no=10,missing=10
			9:leaf=-0.0500000007
			10:[BToKEE_fit_pt<27.0351562] yes=17,no=18,missing=18
				17:[BToKEE_fit_pt<25.7438202] yes=27,no=28,missing=28
					27:[BToKEE_l2_PFMvaID_retrained<-0.568796635] yes=37,no=38,missing=38
						37:leaf=-0.0500000007
						38:leaf=0.0362130366
					28:[BToKEE_l2_PFMvaID_retrained<-0.869351983] yes=39,no=40,missing=40
						39:leaf=-0.0500000007
						40:[BToKEE_l1_PFMvaID_retrained<1.42450058] yes=47,no=48,missing=48
							47:[BToKEE_l1_PFMvaID_retrained<1.37934148] yes=49,no=50,missing=50
								49:leaf=0.031258598
								50:leaf=0.0500000007
							48:[BToKEE_l1_PFMvaID_retrained<1.47091758] yes=51,no=52,missing=52
								51:leaf=-0.00282997638
								52:[BToKEE_fit_pt<26.0436573] yes=53,no=54,missing=54
									53:[BToKEE_l2_PFMvaID_retrained<-0.125578031] yes=55,no=56,missing=56
										55:leaf=-0.0233485848
										56:leaf=0.0231190789
									54:[BToKEE_l2_PFMvaID_retrained<-0.208999917] yes=57,no=58,missing=58
										57:leaf=-0.0195307434
										58:leaf=0.0337735079
				18:leaf=0.010132025
	2:[BToKEE_fit_pt<30.6837444] yes=5,no=6,missing=6
		5:[BToKEE_l1_PFMvaID_retrained<-1.6709578] yes=11,no=12,missing=12
			11:leaf=-0.0500000007
			12:[BToKEE_fit_pt<28.7545414] yes=19,no=20,missing=20
				19:leaf=0.00735781295
				20:leaf=0.0127533814
		6:[BToKEE_l1_PFMvaID_retrained<-1.04095662] yes=13,no=14,missing=14
			13:leaf=-0.0500000007
			14:[BToKEE_fit_pt<37.4389915] yes=21,no=22,missing=22
				21:leaf=0.0236333162
				22:leaf=0.030862553
booster[15]:
0:[BToKEE_fit_l2_pt<11.8377886] yes=1,no=2,missing=2
	1:[BToKEE_fit_pt<28.2689209] yes=3,no=4,missing=4
		3:[BToKEE_fit_l2_pt<10.9128437] yes=7,no=8,missing=8
			7:[BToKEE_fit_l2_pt<10.2900391] yes=15,no=16,missing=16
				15:leaf=-0.0500000007
				16:leaf=-0.0450293459
			8:[BToKEE_fit_l2_pt<11.1058712] yes=17,no=18,missing=18
				17:leaf=-0.0422884561
				18:leaf=-0.0346187204
		4:[BToKEE_fit_l2_pt<6.37771082] yes=9,no=10,missing=10
			9:leaf=-0.0500000007
			10:[BToKEE_fit_l2_pt<7.79034281] yes=19,no=20,missing=20
				19:leaf=-0.0275986791
				20:[BToKEE_fit_l2_pt<10.9128437] yes=29,no=30,missing=30
					29:[BToKEE_l2_PFMvaID_retrained<-1.01558936] yes=37,no=38,missing=38
						37:leaf=-0.0500000007
						38:[BToKEE_fit_pt<30.6837444] yes=53,no=54,missing=54
							53:[BToKEE_fit_l2_pt<9.28075409] yes=69,no=70,missing=70
								69:leaf=0.0159872621
								70:leaf=0.0289891157
							54:[BToKEE_fit_l2_pt<9.20122147] yes=71,no=72,missing=72
								71:leaf=0.0301961061
								72:leaf=0.0415396914
					30:[BToKEE_l2_PFMvaID_retrained<-0.250941634] yes=39,no=40,missing=40
						39:leaf=-0.0500000007
						40:leaf=0.0350753963
	2:[BToKEE_fit_pt<24.0451202] yes=5,no=6,missing=6
		5:[BToKEE_fit_l2_pt<15.3337784] yes=11,no=12,missing=12
			11:[BToKEE_fit_l2_pt<12.5116377] yes=21,no=22,missing=22
				21:leaf=0.00895605143
				22:[BToKEE_fit_l2_pt<13.5379171] yes=31,no=32,missing=32
					31:[BToKEE_l2_PFMvaID_retrained<-0.869351983] yes=41,no=42,missing=42
						41:leaf=-0.0500000007
						42:[BToKEE_fit_pt<18.7532101] yes=55,no=56,missing=56
							55:leaf=-0.0142649291
							56:leaf=0.0500000007
					32:[BToKEE_l2_PFMvaID_retrained<-0.0422570892] yes=43,no=44,missing=44
						43:[BToKEE_fit_pt<23.8368931] yes=57,no=58,missing=58
							57:leaf=-0.0500000007
							58:leaf=0.0194189716
						44:[BToKEE_fit_pt<20.751461] yes=59,no=60,missing=60
							59:leaf=-0.0119236028
							60:leaf=0.0500000007
			12:[BToKEE_fit_l2_pt<17.3617249] yes=23,no=24,missing=24
				23:leaf=-0.0108991405
				24:leaf=-0.0393365398
		6:[BToKEE_fit_l2_pt<15.3337784] yes=13,no=14,missing=14
			13:[BToKEE_fit_l2_pt<13.5379171] yes=25,no=26,missing=26
				25:[BToKEE_fit_l2_pt<12.5116377] yes=33,no=34,missing=34
					33:[BToKEE_l2_PFMvaID_retrained<-0.4505907] yes=45,no=46,missing=46
						45:leaf=-0.0500000007
						46:[BToKEE_fit_pt<30.6837444] yes=61,no=62,missing=62
							61:leaf=0.0143682454
							62:leaf=0.0390404724
					34:[BToKEE_l2_PFMvaID_retrained<0.00168635545] yes=47,no=48,missing=48
						47:leaf=-0.0500000007
						48:[BToKEE_fit_pt<26.3427658] yes=63,no=64,missing=64
							63:leaf=0.046471145
							64:leaf=0.0257173628
				26:[BToKEE_fit_l2_pt<14.2535553] yes=35,no=36,missing=36
					35:[BToKEE_l2_PFMvaID_retrained<-0.756894469] yes=49,no=50,missing=50
						49:leaf=-0.0500000007
						50:[BToKEE_fit_pt<27.4049549] yes=65,no=66,missing=66
							65:leaf=0.0475797243
							66:leaf=0.0249772463
					36:[BToKEE_l2_PFMvaID_retrained<-0.793483317] yes=51,no=52,missing=52
						51:leaf=-0.0500000007
						52:[BToKEE_fit_pt<28.7545414] yes=67,no=68,missing=68
							67:leaf=0.0500000007
							68:leaf=0.0261323005
			14:[BToKEE_fit_l2_pt<17.3617249] yes=27,no=28,missing=28
				27:leaf=0.00970842224
				28:leaf=0.0249235686
booster[16]:
0:[BToKEE_l2_PFMvaID_retrained<1.03741896] yes=1,no=2,missing=2
	1:[BToKEE_l2_PFMvaID_retrained<0.659556806] yes=3,no=4,missing=4
		3:leaf=-0.0500000007
		4:[BToKEE_fit_pt<20.0144577] yes=7,no=8,missing=8
			7:[BToKEE_fit_pt<17.477356] yes=13,no=14,missing=14
				13:leaf=-0.0500000007
				14:[BToKEE_fit_pt<17.5473499] yes=25,no=26,missing=26
					25:leaf=-0.00903162174
					26:[BToKEE_l2_PFMvaID_retrained<0.981136084] yes=45,no=46,missing=46
						45:[BToKEE_fit_l2_pt<9.1267767] yes=69,no=70,missing=70
							69:leaf=-0.04133147
							70:[BToKEE_l2_PFMvaID_retrained<0.762249589] yes=117,no=118,missing=118
								117:leaf=0.00759554282
								118:leaf=0.027275363
						46:[BToKEE_fit_l2_pt<9.71488571] yes=71,no=72,missing=72
							71:leaf=-0.0298639517
							72:leaf=0.0366991721
			8:[BToKEE_fit_pt<25.1965542] yes=15,no=16,missing=16
				15:[BToKEE_fit_pt<21.8725262] yes=27,no=28,missing=28
					27:[BToKEE_l2_PFMvaID_retrained<0.762249589] yes=47,no=48,missing=48
						47:[BToKEE_fit_l2_pt<9.92709732] yes=73,no=74,missing=74
							73:leaf=-0.0315356292
							74:leaf=0.0160344355
						48:[BToKEE_fit_l2_pt<10.7347927] yes=75,no=76,missing=76
							75:[BToKEE_l2_PFMvaID_retrained<0.869998693] yes=119,no=120,missing=120
								119:[BToKEE_l2_PFMvaID_retrained<0.817079604] yes=129,no=130,missing=130
									129:leaf=-0.0151750166
									130:leaf=0.0070010894
								120:leaf=-0.020990463
							76:leaf=0.0345575921
					28:leaf=-0.00019896937
				16:[BToKEE_fit_pt<27.8361378] yes=29,no=30,missing=30
					29:[BToKEE_l2_PFMvaID_retrained<0.981136084] yes=49,no=50,missing=50
						49:[BToKEE_fit_l2_pt<5.676898] yes=77,no=78,missing=78
							77:leaf=-0.0111010494
							78:leaf=0.0208351593
						50:[BToKEE_fit_l2_pt<11.3293705] yes=79,no=80,missing=80
							79:leaf=-0.00723203504
							80:leaf=0.0256304052
					30:leaf=0.0300865415
	2:[BToKEE_l2_PFMvaID_retrained<2.01007199] yes=5,no=6,missing=6
		5:[BToKEE_fit_pt<19.5351601] yes=9,no=10,missing=10
			9:[BToKEE_fit_pt<16.0003929] yes=17,no=18,missing=18
				17:[BToKEE_fit_pt<14.9986553] yes=31,no=32,missing=32
					31:leaf=-0.0500000007
					32:[BToKEE_l2_PFMvaID_retrained<1.93283916] yes=51,no=52,missing=52
						51:[BToKEE_fit_l2_pt<8.00580978] yes=81,no=82,missing=82
							81:leaf=-0.0500000007
							82:[BToKEE_l2_PFMvaID_retrained<1.09385622] yes=121,no=122,missing=122
								121:leaf=-0.0131718293
								122:leaf=0.0208221506
						52:[BToKEE_fit_l2_pt<7.47447491] yes=83,no=84,missing=84
							83:leaf=-0.0336945169
							84:leaf=0.0070278435
				18:[BToKEE_fit_pt<17.477356] yes=33,no=34,missing=34
					33:[BToKEE_l2_PFMvaID_retrained<1.45255494] yes=53,no=54,missing=54
						53:[BToKEE_fit_l2_pt<8.66408825] yes=85,no=86,missing=86
							85:leaf=-0.0472100228
							86:leaf=0.0393227637
						54:[BToKEE_fit_l2_pt<8.49251938] yes=87,no=88,missing=88
							87:leaf=-0.0402978994
							88:leaf=0.0255035255
					34:[BToKEE_l2_PFMvaID_retrained<1.78843391] yes=55,no=56,missing=56
						55:[BToKEE_fit_l2_pt<9.05600834] yes=89,no=90,missing=90
							89:leaf=-0.0311794616
							90:leaf=0.0228816476
						56:[BToKEE_fit_l2_pt<9.1267767] yes=91,no=92,missing=92
							91:leaf=-0.0255309977
							92:leaf=0.0323976167
			10:[BToKEE_fit_pt<23.4552345] yes=19,no=20,missing=20
				19:[BToKEE_fit_pt<21.7348442] yes=35,no=36,missing=36
					35:[BToKEE_l2_PFMvaID_retrained<1.45255494] yes=57,no=58,missing=58
						57:[BToKEE_fit_l2_pt<10.0392284] yes=93,no=94,missing=94
							93:[BToKEE_l2_PFMvaID_retrained<1.15215003] yes=123,no=124,missing=124
								123:leaf=-0.0109150065
								124:leaf=-0.0251873229
							94:leaf=0.0411106646
						58:[BToKEE_fit_l2_pt<10.4288445] yes=95,no=96,missing=96
							95:leaf=-0.0137515338
							96:leaf=0.0500000007
					36:leaf=0.00646966929
				20:[BToKEE_fit_pt<26.6785469] yes=37,no=38,missing=38
					37:leaf=0.0188416988
					38:[BToKEE_l2_PFMvaID_retrained<1.51641285] yes=59,no=60,missing=60
						59:[BToKEE_fit_l2_pt<13.5379171] yes=97,no=98,missing=98
							97:leaf=0.0368769579
							98:leaf=0.0500000007
						60:[BToKEE_fit_l2_pt<14.2535553] yes=99,no=100,missing=100
							99:leaf=0.0271018688
							100:leaf=0.0477518588
		6:[BToKEE_fit_pt<18.3529968] yes=11,no=12,missing=12
			11:[BToKEE_fit_pt<14.8865929] yes=21,no=22,missing=22
				21:leaf=-0.0500000007
				22:[BToKEE_fit_pt<17.0030117] yes=39,no=40,missing=40
					39:[BToKEE_l2_PFMvaID_retrained<3.2320857] yes=61,no=62,missing=62
						61:[BToKEE_fit_l2_pt<8.00580978] yes=101,no=102,missing=102
							101:leaf=-0.0438588969
							102:leaf=0.0271259006
						62:[BToKEE_fit_l2_pt<8.13883018] yes=103,no=104,missing=104
							103:leaf=-0.0274600442
							104:leaf=0.0348365493
					40:[BToKEE_l2_PFMvaID_retrained<2.59834456] yes=63,no=64,missing=64
						63:[BToKEE_fit_l2_pt<8.78795528] yes=105,no=106,missing=106
							105:leaf=-0.03352651
							106:leaf=0.0500000007
						64:[BToKEE_fit_l2_pt<8.72562504] yes=107,no=108,missing=108
							107:leaf=-0.0245519355
							108:leaf=0.0500000007
			12:[BToKEE_fit_pt<23.1000557] yes=23,no=24,missing=24
				23:[BToKEE_fit_pt<20.3119202] yes=41,no=42,missing=42
					41:[BToKEE_l2_PFMvaID_retrained<2.36438608] yes=65,no=66,missing=66
						65:[BToKEE_fit_l2_pt<9.62362003] yes=109,no=110,missing=110
							109:[BToKEE_l2_PFMvaID_retrained<2.17407751] yes=125,no=126,missing=126
								125:leaf=-0.00928134471
								126:leaf=-0.0248067752
							110:leaf=0.0379204005
						66:[BToKEE_fit_l2_pt<9.53027153] yes=111,no=112,missing=112
							111:[BToKEE_l2_PFMvaID_retrained<2.74810934] yes=127,no=128,missing=128
								127:leaf=-0.0117787784
								128:leaf=-0.0218698103
							112:leaf=0.0463655293
					42:leaf=0.00769879902
				24:[BToKEE_fit_pt<31.4829235] yes=43,no=44,missing=44
					43:[BToKEE_l2_PFMvaID_retrained<2.74810934] yes=67,no=68,missing=68
						67:[BToKEE_fit_l2_pt<12.5116377] yes=113,no=114,missing=114
							113:leaf=0.020526208
							114:leaf=0.045531299
						68:[BToKEE_fit_l2_pt<14.2535553] yes=115,no=116,missing=116
							115:leaf=0.0284361001
							116:leaf=0.0500000007
					44:leaf=0.0497200824
booster[17]:
0:[BToKEE_l1_PFMvaID_retrained<1.06203687] yes=1,no=2,missing=2
	1:[BToKEE_fit_pt<32.4813995] yes=3,no=4,missing=4
		3:[BToKEE_fit_l2_pt<14.2535553] yes=7,no=8,missing=8
			7:leaf=-0.0500000007
			8:[BToKEE_fit_pt<21.3477612] yes=15,no=16,missing=16
				15:leaf=-0.0500000007
				16:[BToKEE_l1_PFMvaID_retrained<-2.59495974] yes=27,no=28,missing=28
					27:leaf=-0.0500000007
					28:[BToKEE_fit_l2_pt<15.3337784] yes=41,no=42,missing=42
						41:leaf=0.0280684568
						42:leaf=0.0470766947
		4:[BToKEE_fit_l2_pt<17.3617249] yes=9,no=10,missing=10
			9:leaf=-0.0487489328
			10:[BToKEE_fit_pt<37.4389915] yes=17,no=18,missing=18
				17:[BToKEE_l1_PFMvaID_retrained<-2.89259791] yes=29,no=30,missing=30
					29:leaf=-0.0500000007
					30:leaf=0.0425709635
				18:[BToKEE_l1_PFMvaID_retrained<-2.50809503] yes=31,no=32,missing=32
					31:leaf=-0.0500000007
					32:leaf=0.0358282365
	2:[BToKEE_fit_pt<19.7203255] yes=5,no=6,missing=6
		5:[BToKEE_fit_l2_pt<8.49251938] yes=11,no=12,missing=12
			11:[BToKEE_fit_pt<18.1219616] yes=19,no=20,missing=20
				19:leaf=-0.0500000007
				20:leaf=-0.0379562266
			12:[BToKEE_fit_pt<14.8286467] yes=21,no=22,missing=22
				21:leaf=-0.0500000007
				22:[BToKEE_l1_PFMvaID_retrained<2.56536198] yes=33,no=34,missing=34
					33:[BToKEE_fit_l2_pt<9.36170483] yes=43,no=44,missing=44
						43:[BToKEE_fit_l2_pt<8.85264587] yes=59,no=60,missing=60
							59:[BToKEE_l1_PFMvaID_retrained<2.16694927] yes=79,no=80,missing=80
								79:leaf=-0.0233766492
								80:leaf=0.00214894675
							60:[BToKEE_l1_PFMvaID_retrained<1.47091758] yes=81,no=82,missing=82
								81:[BToKEE_fit_l2_pt<9.05600834] yes=99,no=100,missing=100
									99:[BToKEE_fit_pt<18.2744884] yes=111,no=112,missing=112
										111:leaf=0.0319806896
										112:leaf=-0.0338542387
									100:[BToKEE_fit_pt<18.1219616] yes=113,no=114,missing=114
										113:leaf=0.0289613344
										114:leaf=0.00244512339
								82:leaf=-0.00953790452
						44:[BToKEE_fit_l2_pt<11.8377886] yes=61,no=62,missing=62
							61:leaf=0.029077122
							62:leaf=-0.0101607833
					34:[BToKEE_fit_l2_pt<9.28075409] yes=45,no=46,missing=46
						45:leaf=-0.0325996205
						46:leaf=0.00740440655
		6:[BToKEE_fit_l2_pt<10.7347927] yes=13,no=14,missing=14
			13:[BToKEE_fit_pt<23.1000557] yes=23,no=24,missing=24
				23:[BToKEE_l1_PFMvaID_retrained<3.15766859] yes=35,no=36,missing=36
					35:[BToKEE_fit_l2_pt<5.62117434] yes=47,no=48,missing=48
						47:[BToKEE_fit_l2_pt<5.24783516] yes=63,no=64,missing=64
							63:leaf=-0.0500000007
							64:leaf=-0.0352248922
						48:[BToKEE_fit_l2_pt<6.95477581] yes=65,no=66,missing=66
							65:[BToKEE_l1_PFMvaID_retrained<2.56536198] yes=83,no=84,missing=84
								83:leaf=-0.0234743189
								84:[BToKEE_fit_l2_pt<6.55571032] yes=101,no=102,missing=102
									101:leaf=-0.0214991998
									102:leaf=0.00739868125
							66:[BToKEE_l1_PFMvaID_retrained<1.42450058] yes=85,no=86,missing=86
								85:[BToKEE_fit_l2_pt<7.66891861] yes=103,no=104,missing=104
									103:[BToKEE_fit_pt<20.4164658] yes=115,no=116,missing=116
										115:leaf=-0.0294936951
										116:leaf=0.00113201351
									104:[BToKEE_fit_pt<19.8143711] yes=117,no=118,missing=118
										117:leaf=0.00241254037
										118:leaf=-0.0201471038
								86:[BToKEE_fit_l2_pt<10.0392284] yes=105,no=106,missing=106
									105:[BToKEE_fit_pt<21.8725262] yes=119,no=120,missing=120
										119:leaf=-0.0144752068
										120:leaf=-0.00457160687
									106:[BToKEE_fit_pt<20.8665829] yes=121,no=122,missing=122
										121:leaf=0.0260376818
										122:leaf=-0.00975758769
					36:[BToKEE_fit_l2_pt<5.87205601] yes=49,no=50,missing=50
						49:leaf=-0.0500000007
						50:leaf=-0.0215263348
				24:[BToKEE_l1_PFMvaID_retrained<1.47091758] yes=37,no=38,missing=38
					37:[BToKEE_fit_l2_pt<6.17826462] yes=51,no=52,missing=52
						51:[BToKEE_fit_l2_pt<5.09886074] yes=67,no=68,missing=68
							67:leaf=-0.0424124263
							68:[BToKEE_l1_PFMvaID_retrained<1.15266085] yes=87,no=88,missing=88
								87:leaf=0.00153090479
								88:leaf=-0.0188426357
						52:[BToKEE_fit_l2_pt<10.1563959] yes=69,no=70,missing=70
							69:leaf=0.0115264328
							70:leaf=-0.00643547345
					38:[BToKEE_fit_l2_pt<6.17826462] yes=53,no=54,missing=54
						53:[BToKEE_fit_l2_pt<3.02036691] yes=71,no=72,missing=72
							71:leaf=-0.0500000007
							72:[BToKEE_l1_PFMvaID_retrained<2.85434389] yes=89,no=90,missing=90
								89:[BToKEE_fit_l2_pt<4.85469675] yes=107,no=108,missing=108
									107:[BToKEE_fit_pt<29.3311386] yes=123,no=124,missing=124
										123:leaf=-0.0417292751
										124:leaf=-0.0136287464
									108:[BToKEE_fit_pt<41.2353172] yes=125,no=126,missing=126
										125:leaf=-0.0146139283
										126:leaf=0.0263469946
								90:[BToKEE_fit_l2_pt<5.56376696] yes=109,no=110,missing=110
									109:[BToKEE_fit_pt<32.4813995] yes=127,no=128,missing=128
										127:leaf=-0.0258123316
										128:leaf=0.0268162694
									110:[BToKEE_fit_pt<29.9479198] yes=129,no=130,missing=130
										129:leaf=-0.0155497761
										130:leaf=0.0434299223
						54:[BToKEE_fit_l2_pt<6.82769585] yes=73,no=74,missing=74
							73:[BToKEE_l1_PFMvaID_retrained<2.98778105] yes=91,no=92,missing=92
								91:leaf=0.00979182124
								92:leaf=-0.00298632844
							74:leaf=0.0175254196
			14:[BToKEE_fit_pt<33.7141762] yes=25,no=26,missing=26
				25:[BToKEE_l1_PFMvaID_retrained<3.15766859] yes=39,no=40,missing=40
					39:[BToKEE_fit_l2_pt<12.5116377] yes=55,no=56,missing=56
						55:[BToKEE_fit_l2_pt<11.1058712] yes=75,no=76,missing=76
							75:[BToKEE_l1_PFMvaID_retrained<2.98778105] yes=93,no=94,missing=94
								93:leaf=0.0103783878
								94:leaf=0.0323753469
							76:[BToKEE_l1_PFMvaID_retrained<1.19780838] yes=95,no=96,missing=96
								95:leaf=0.0124335736
								96:leaf=0.0245622266
						56:[BToKEE_fit_l2_pt<15.3337784] yes=77,no=78,missing=78
							77:[BToKEE_l1_PFMvaID_retrained<2.48919749] yes=97,no=98,missing=98
								97:leaf=0.0398830995
								98:leaf=0.022748068
							78:leaf=0.0500000007
					40:[BToKEE_fit_l2_pt<15.3337784] yes=57,no=58,missing=58
						57:leaf=0.00402350537
						58:leaf=0.034953624
				26:leaf=0.041745007
booster[18]:
0:[BToKEE_fit_pt<26.0436573] yes=1,no=2,missing=2
	1:[BToKEE_l1_PFMvaID_retrained<1.28786612] yes=3,no=4,missing=4
		3:[BToKEE_l2_PFMvaID_retrained<1.09385622] yes=7,no=8,missing=8
			7:leaf=-0.0500000007
			8:[BToKEE_l1_PFMvaID_retrained<-1.81293178] yes=15,no=16,missing=16
				15:[BToKEE_l1_PFMvaID_retrained<-2.32652283] yes=23,no=24,missing=24
					23:leaf=-0.0500000007
					24:leaf=-0.0345103703
				16:[BToKEE_l1_PFMvaID_retrained<-0.449019909] yes=25,no=26,missing=26
					25:[BToKEE_l1_PFMvaID_retrained<-1.23745203] yes=33,no=34,missing=34
						33:[BToKEE_l2_PFMvaID_retrained<1.93283916] yes=41,no=42,missing=42
							41:leaf=-0.0298656467
							42:[BToKEE_l1_PFMvaID_retrained<-1.76608539] yes=55,no=56,missing=56
								55:leaf=0.0128234057
								56:[BToKEE_l2_PFMvaID_retrained<3.2320857] yes=63,no=64,missing=64
									63:[BToKEE_l1_PFMvaID_retrained<-1.6709578] yes=69,no=70,missing=70
										69:leaf=-0.0241990052
										70:leaf=-0.00800663885
									64:leaf=0.0115144495
						34:[BToKEE_l2_PFMvaID_retrained<1.78843391] yes=43,no=44,missing=44
							43:[BToKEE_l1_PFMvaID_retrained<-1.19041204] yes=57,no=58,missing=58
								57:leaf=0.00117991399
								58:[BToKEE_l2_PFMvaID_retrained<1.33061397] yes=65,no=66,missing=66
									65:leaf=-0.0322482698
									66:leaf=-0.0190529916
							44:[BToKEE_l1_PFMvaID_retrained<-0.991358697] yes=59,no=60,missing=60
								59:leaf=0.000607243681
								60:leaf=-0.00836086459
					26:leaf=-0.00504553318
		4:[BToKEE_l2_PFMvaID_retrained<0.411824226] yes=9,no=10,missing=10
			9:leaf=-0.0500000007
			10:[BToKEE_l1_PFMvaID_retrained<2.48919749] yes=17,no=18,missing=18
				17:[BToKEE_l1_PFMvaID_retrained<1.74950755] yes=27,no=28,missing=28
					27:[BToKEE_l1_PFMvaID_retrained<1.56386912] yes=35,no=36,missing=36
						35:[BToKEE_l2_PFMvaID_retrained<1.85892892] yes=45,no=46,missing=46
							45:leaf=-0.0170967933
							46:leaf=0.00242994563
						36:[BToKEE_l2_PFMvaID_retrained<3.2320857] yes=47,no=48,missing=48
							47:leaf=-0.00782911852
							48:leaf=0.0376052968
					28:leaf=-0.0116106672
				18:[BToKEE_l1_PFMvaID_retrained<3.15766859] yes=29,no=30,missing=30
					29:[BToKEE_l1_PFMvaID_retrained<2.85434389] yes=37,no=38,missing=38
						37:[BToKEE_l2_PFMvaID_retrained<1.85892892] yes=49,no=50,missing=50
							49:leaf=-0.0246098153
							50:[BToKEE_l1_PFMvaID_retrained<2.7480669] yes=61,no=62,missing=62
								61:leaf=-0.0025441309
								62:[BToKEE_l2_PFMvaID_retrained<2.93434834] yes=67,no=68,missing=68
									67:leaf=-0.022406267
									68:leaf=0.0208419617
						38:[BToKEE_l2_PFMvaID_retrained<2.59834456] yes=51,no=52,missing=52
							51:leaf=-0.0151140457
							52:leaf=0.00459225569
					30:leaf=-0.0196028631
	2:[BToKEE_l1_PFMvaID_retrained<-1.04095662] yes=5,no=6,missing=6
		5:[BToKEE_l2_PFMvaID_retrained<0.460718483] yes=11,no=12,missing=12
			11:leaf=-0.0500000007
			12:[BToKEE_l1_PFMvaID_retrained<-3.18348432] yes=19,no=20,missing=20
				19:leaf=-0.0500000007
				20:[BToKEE_l1_PFMvaID_retrained<-2.55073953] yes=31,no=32,missing=32
					31:[BToKEE_l1_PFMvaID_retrained<-2.68088818] yes=39,no=40,missing=40
						39:[BToKEE_l2_PFMvaID_retrained<1.51641285] yes=53,no=54,missing=54
							53:leaf=0.0231375154
							54:leaf=-0.00409801211
						40:leaf=-0.022292817
					32:leaf=0.0405958369
		6:[BToKEE_l2_PFMvaID_retrained<-1.59323132] yes=13,no=14,missing=14
			13:leaf=-0.0500000007
			14:[BToKEE_l1_PFMvaID_retrained<0.232302293] yes=21,no=22,missing=22
				21:leaf=0.0313181169
				22:leaf=0.0376677811
booster[19]:
0:[BToKEE_fit_l2_pt<11.1058712] yes=1,no=2,missing=2
	1:[BToKEE_l2_PFMvaID_retrained<0.817079604] yes=3,no=4,missing=4
		3:[BToKEE_l2_PFMvaID_retrained<0.460718483] yes=7,no=8,missing=8
			7:leaf=-0.0500000007
			8:[BToKEE_l2_PFMvaID_retrained<0.711689651] yes=15,no=16,missing=16
				15:leaf=-0.0436952524
				16:leaf=-0.037098866
		4:[BToKEE_l2_PFMvaID_retrained<1.85892892] yes=9,no=10,missing=10
			9:[BToKEE_l2_PFMvaID_retrained<1.09385622] yes=17,no=18,missing=18
				17:[BToKEE_l2_PFMvaID_retrained<1.03741896] yes=27,no=28,missing=28
					27:[BToKEE_fit_l2_pt<7.59140921] yes=43,no=44,missing=44
						43:[BToKEE_fit_l2_pt<6.61501884] yes=73,no=74,missing=74
							73:[BToKEE_l1_PFMvaID_retrained<3.41922045] yes=107,no=108,missing=108
								107:leaf=-0.0500000007
								108:leaf=-0.0104026934
							74:[BToKEE_l1_PFMvaID_retrained<-0.646801651] yes=109,no=110,missing=110
								109:leaf=-0.0500000007
								110:leaf=-0.0150569929
						44:[BToKEE_fit_l2_pt<8.85264587] yes=75,no=76,missing=76
							75:[BToKEE_l1_PFMvaID_retrained<-1.43038511] yes=111,no=112,missing=112
								111:leaf=-0.0500000007
								112:leaf=-0.000959868019
							76:[BToKEE_l1_PFMvaID_retrained<-2.81013632] yes=113,no=114,missing=114
								113:leaf=-0.0500000007
								114:[BToKEE_l2_PFMvaID_retrained<0.981136084] yes=165,no=166,missing=166
									165:leaf=0.0248103794
									166:leaf=0.0129088284
					28:[BToKEE_fit_l2_pt<7.11850262] yes=45,no=46,missing=46
						45:[BToKEE_fit_l2_pt<6.00934267] yes=77,no=78,missing=78
							77:leaf=-0.0500000007
							78:[BToKEE_l1_PFMvaID_retrained<-1.19041204] yes=115,no=116,missing=116
								115:leaf=-0.0500000007
								116:leaf=-0.0189645626
						46:[BToKEE_fit_l2_pt<9.53027153] yes=79,no=80,missing=80
							79:[BToKEE_l1_PFMvaID_retrained<-1.38267851] yes=117,no=118,missing=118
								117:leaf=-0.0500000007
								118:leaf=0.00602982147
							80:[BToKEE_l1_PFMvaID_retrained<-3.5388546] yes=119,no=120,missing=120
								119:leaf=-0.0411876664
								120:leaf=0.0295204166
				18:[BToKEE_l2_PFMvaID_retrained<1.27206969] yes=29,no=30,missing=30
					29:[BToKEE_fit_l2_pt<6.55571032] yes=47,no=48,missing=48
						47:[BToKEE_fit_l2_pt<6.09336329] yes=81,no=82,missing=82
							81:leaf=-0.0500000007
							82:[BToKEE_l1_PFMvaID_retrained<0.279235154] yes=121,no=122,missing=122
								121:leaf=-0.0500000007
								122:leaf=-0.018462399
						48:[BToKEE_fit_l2_pt<8.33557034] yes=83,no=84,missing=84
							83:[BToKEE_l1_PFMvaID_retrained<-1.04095662] yes=123,no=124,missing=124
								123:leaf=-0.0500000007
								124:leaf=-0.0092635341
							84:[BToKEE_l1_PFMvaID_retrained<-2.63809156] yes=125,no=126,missing=126
								125:leaf=-0.0500000007
								126:leaf=0.0199218914
					30:[BToKEE_fit_l2_pt<7.11850262] yes=49,no=50,missing=50
						49:[BToKEE_fit_l2_pt<6.40791702] yes=85,no=86,missing=86
							85:leaf=-0.0500000007
							86:[BToKEE_l1_PFMvaID_retrained<-0.449019909] yes=127,no=128,missing=128
								127:leaf=-0.0500000007
								128:leaf=-0.0173008461
						50:[BToKEE_fit_l2_pt<9.44297981] yes=87,no=88,missing=88
							87:[BToKEE_l1_PFMvaID_retrained<-2.04920816] yes=129,no=130,missing=130
								129:leaf=-0.0500000007
								130:leaf=0.00211526221
							88:[BToKEE_l1_PFMvaID_retrained<-2.37208343] yes=131,no=132,missing=132
								131:leaf=-0.0500000007
								132:[BToKEE_l2_PFMvaID_retrained<1.71718252] yes=167,no=168,missing=168
									167:leaf=0.0297022443
									168:leaf=0.0185923446
			10:[BToKEE_l2_PFMvaID_retrained<2.59834456] yes=19,no=20,missing=20
				19:[BToKEE_l2_PFMvaID_retrained<2.01007199] yes=31,no=32,missing=32
					31:[BToKEE_fit_l2_pt<7.15255022] yes=51,no=52,missing=52
						51:[BToKEE_fit_l2_pt<6.40791702] yes=89,no=90,missing=90
							89:leaf=-0.0500000007
							90:[BToKEE_l1_PFMvaID_retrained<-1.57490468] yes=133,no=134,missing=134
								133:leaf=-0.0500000007
								134:leaf=-0.0173351746
						52:[BToKEE_fit_l2_pt<9.28075409] yes=91,no=92,missing=92
							91:[BToKEE_l1_PFMvaID_retrained<-2.04920816] yes=135,no=136,missing=136
								135:leaf=-0.0500000007
								136:leaf=0.00620838581
							92:[BToKEE_l1_PFMvaID_retrained<-3.34200621] yes=137,no=138,missing=138
								137:leaf=-0.0500000007
								138:leaf=0.0231007803
					32:[BToKEE_fit_l2_pt<6.67396307] yes=53,no=54,missing=54
						53:[BToKEE_fit_l2_pt<5.98182535] yes=93,no=94,missing=94
							93:leaf=-0.0500000007
							94:[BToKEE_l1_PFMvaID_retrained<-1.57490468] yes=139,no=140,missing=140
								139:leaf=-0.0500000007
								140:leaf=-0.0299314801
						54:[BToKEE_fit_l2_pt<8.44021034] yes=95,no=96,missing=96
							95:[BToKEE_l1_PFMvaID_retrained<-1.81293178] yes=141,no=142,missing=142
								141:leaf=-0.0500000007
								142:[BToKEE_l2_PFMvaID_retrained<2.09053755] yes=169,no=170,missing=170
									169:leaf=0.00320412405
									170:[BToKEE_l2_PFMvaID_retrained<2.36438608] yes=175,no=176,missing=176
										175:leaf=-0.00663430337
										176:leaf=0.000168388622
							96:[BToKEE_l1_PFMvaID_retrained<-2.32652283] yes=143,no=144,missing=144
								143:leaf=-0.0500000007
								144:leaf=0.0224603154
				20:[BToKEE_l2_PFMvaID_retrained<3.2320857] yes=33,no=34,missing=34
					33:[BToKEE_fit_l2_pt<6.73509693] yes=55,no=56,missing=56
						55:[BToKEE_fit_l2_pt<6.55571032] yes=97,no=98,missing=98
							97:[BToKEE_l1_PFMvaID_retrained<2.56536198] yes=145,no=146,missing=146
								145:leaf=-0.0500000007
								146:leaf=-0.0282184817
							98:[BToKEE_l1_PFMvaID_retrained<0.468074024] yes=147,no=148,missing=148
								147:leaf=-0.0425848067
								148:leaf=-0.00678842608
						56:[BToKEE_fit_l2_pt<9.05600834] yes=99,no=100,missing=100
							99:[BToKEE_l1_PFMvaID_retrained<-1.14053106] yes=149,no=150,missing=150
								149:leaf=-0.0500000007
								150:leaf=0.00738349184
							100:[BToKEE_l1_PFMvaID_retrained<-2.7249372] yes=151,no=152,missing=152
								151:leaf=-0.0500000007
								152:leaf=0.0300966632
					34:[BToKEE_fit_l2_pt<8.13883018] yes=57,no=58,missing=58
						57:[BToKEE_fit_l2_pt<7.05212879] yes=101,no=102,missing=102
							101:[BToKEE_l1_PFMvaID_retrained<-0.101991244] yes=153,no=154,missing=154
								153:leaf=-0.0500000007
								154:leaf=-0.0199061967
							102:[BToKEE_l1_PFMvaID_retrained<-0.745892823] yes=155,no=156,missing=156
								155:leaf=-0.0500000007
								156:leaf=0.00819040369
						58:[BToKEE_fit_l2_pt<9.36170483] yes=103,no=104,missing=104
							103:[BToKEE_l1_PFMvaID_retrained<-3.49951553] yes=157,no=158,missing=158
								157:leaf=-0.0500000007
								158:leaf=0.0269919019
							104:[BToKEE_l1_PFMvaID_retrained<-2.7249372] yes=159,no=160,missing=160
								159:leaf=-0.0500000007
								160:leaf=0.0437181406
	2:[BToKEE_l2_PFMvaID_retrained<-0.793483317] yes=5,no=6,missing=6
		5:[BToKEE_l2_PFMvaID_retrained<-1.56064272] yes=11,no=12,missing=12
			11:leaf=-0.0500000007
			12:[BToKEE_l2_PFMvaID_retrained<-0.869351983] yes=21,no=22,missing=22
				21:leaf=-0.0357453562
				22:leaf=-0.0101031242
		6:[BToKEE_l2_PFMvaID_retrained<0.411824226] yes=13,no=14,missing=14
			13:[BToKEE_l2_PFMvaID_retrained<0.00168635545] yes=23,no=24,missing=24
